<?xml version="1.0"?>
<opencv_storage>
<cascade>
  <stageType>BOOST</stageType>
  <featureType>HAAR</featureType>
  <height>24</height>
  <width>24</width>
  <stageParams>
    <boostType>GAB</boostType>
    <minHitRate>9.9500000476837158e-01</minHitRate>
    <maxFalseAlarm>5.0000000000000000e-01</maxFalseAlarm>
    <weightTrimRate>9.4999999999999996e-01</weightTrimRate>
    <maxDepth>1</maxDepth>
    <maxWeakCount>100</maxWeakCount></stageParams>
  <featureParams>
    <maxCatCount>0</maxCatCount>
    <featSize>1</featSize>
    <mode>BASIC</mode></featureParams>
  <stageNum>20</stageNum>
  <stages>
    <!-- stage 0 -->
    <_>
      <maxWeakCount>2</maxWeakCount>
      <stageThreshold>-1.4478477835655212e-01</stageThreshold>
      <weakClassifiers>
        <_>
          <internalNodes>
            0 -1 4 -2.2784586995840073e-02</internalNodes>
          <leafValues>
            7.8801840543746948e-01 -9.0977442264556885e-01</leafValues></_>
        <_>
          <internalNodes>
            0 -1 57 1.4670411124825478e-02</internalNodes>
          <leafValues>
            -8.6183857917785645e-01 7.6498967409133911e-01</leafValues></_></weakClassifiers></_>
    <!-- stage 1 -->
    <_>
      <maxWeakCount>4</maxWeakCount>
      <stageThreshold>-6.0926252603530884e-01</stageThreshold>
      <weakClassifiers>
        <_>
          <internalNodes>
            0 -1 67 -4.1488558053970337e-03</internalNodes>
          <leafValues>
            -9.6850395202636719e-01 7.7578473091125488e-01</leafValues></_>
        <_>
          <internalNodes>
            0 -1 91 5.7882340624928474e-03</internalNodes>
          <leafValues>
            -7.8625774383544922e-01 7.8118032217025757e-01</leafValues></_>
        <_>
          <internalNodes>
            0 -1 77 6.9795837625861168e-03</internalNodes>
          <leafValues>
            -7.4369978904724121e-01 6.1231553554534912e-01</leafValues></_>
        <_>
          <internalNodes>
            0 -1 8 -3.2984822988510132e-02</internalNodes>
          <leafValues>
            5.3318363428115845e-01 -9.1730326414108276e-01</leafValues></_></weakClassifiers></_>
    <!-- stage 2 -->
    <_>
      <maxWeakCount>2</maxWeakCount>
      <stageThreshold>-1.7086166143417358e-01</stageThreshold>
      <weakClassifiers>
        <_>
          <internalNodes>
            0 -1 51 1.1719348840415478e-02</internalNodes>
          <leafValues>
            -7.6323986053466797e-01 9.1029024124145508e-01</leafValues></_>
        <_>
          <internalNodes>
            0 -1 21 -2.5078225135803223e-01</internalNodes>
          <leafValues>
            5.9237819910049438e-01 -9.8624497652053833e-01</leafValues></_></weakClassifiers></_>
    <!-- stage 3 -->
    <_>
      <maxWeakCount>3</maxWeakCount>
      <stageThreshold>-7.4040937423706055e-01</stageThreshold>
      <weakClassifiers>
        <_>
          <internalNodes>
            0 -1 43 -4.7386391088366508e-03</internalNodes>
          <leafValues>
            -7.8472220897674561e-01 7.9126214981079102e-01</leafValues></_>
        <_>
          <internalNodes>
            0 -1 71 1.1278506368398666e-02</internalNodes>
          <leafValues>
            -6.0845965147018433e-01 8.3758908510208130e-01</leafValues></_>
        <_>
          <internalNodes>
            0 -1 75 -1.1602308601140976e-02</internalNodes>
          <leafValues>
            6.5277248620986938e-01 -8.8227152824401855e-01</leafValues></_></weakClassifiers></_>
    <!-- stage 4 -->
    <_>
      <maxWeakCount>4</maxWeakCount>
      <stageThreshold>-6.6894978284835815e-02</stageThreshold>
      <weakClassifiers>
        <_>
          <internalNodes>
            0 -1 20 8.8667914271354675e-02</internalNodes>
          <leafValues>
            -7.9335790872573853e-01 7.3426574468612671e-01</leafValues></_>
        <_>
          <internalNodes>
            0 -1 71 1.1306015774607658e-02</internalNodes>
          <leafValues>
            -5.3807604312896729e-01 8.7948542833328247e-01</leafValues></_>
        <_>
          <internalNodes>
            0 -1 38 -2.9908912256360054e-03</internalNodes>
          <leafValues>
            5.6609839200973511e-01 -9.3285036087036133e-01</leafValues></_>
        <_>
          <internalNodes>
            0 -1 94 1.7688274383544922e-02</internalNodes>
          <leafValues>
            -7.1222442388534546e-01 6.9844055175781250e-01</leafValues></_></weakClassifiers></_>
    <!-- stage 5 -->
    <_>
      <maxWeakCount>5</maxWeakCount>
      <stageThreshold>-8.4594982862472534e-01</stageThreshold>
      <weakClassifiers>
        <_>
          <internalNodes>
            0 -1 42 -1.3817828148603439e-03</internalNodes>
          <leafValues>
            -7.8707224130630493e-01 7.0251715183258057e-01</leafValues></_>
        <_>
          <internalNodes>
            0 -1 31 -4.1981860995292664e-03</internalNodes>
          <leafValues>
            7.0797455310821533e-01 -6.1349642276763916e-01</leafValues></_>
        <_>
          <internalNodes>
            0 -1 39 3.0482672154903412e-02</internalNodes>
          <leafValues>
            -9.4673246145248413e-01 4.6352139115333557e-01</leafValues></_>
        <_>
          <internalNodes>
            0 -1 82 -1.5069567598402500e-03</internalNodes>
          <leafValues>
            7.0137709379196167e-01 -5.3093618154525757e-01</leafValues></_>
        <_>
          <internalNodes>
            0 -1 3 1.0408670641481876e-03</internalNodes>
          <leafValues>
            -5.0451821088790894e-01 6.2203359603881836e-01</leafValues></_></weakClassifiers></_>
    <!-- stage 6 -->
    <_>
      <maxWeakCount>4</maxWeakCount>
      <stageThreshold>-4.6069106459617615e-01</stageThreshold>
      <weakClassifiers>
        <_>
          <internalNodes>
            0 -1 45 -1.0500930249691010e-02</internalNodes>
          <leafValues>
            7.5072461366653442e-01 -4.4788733124732971e-01</leafValues></_>
        <_>
          <internalNodes>
            0 -1 23 -8.5068326443433762e-03</internalNodes>
          <leafValues>
            5.4036271572113037e-01 -6.2930506467819214e-01</leafValues></_>
        <_>
          <internalNodes>
            0 -1 1 5.7917851954698563e-03</internalNodes>
          <leafValues>
            -8.1081157922744751e-01 3.4645760059356689e-01</leafValues></_>
        <_>
          <internalNodes>
            0 -1 11 -2.6166416704654694e-02</internalNodes>
          <leafValues>
            3.6890470981597900e-01 -9.2856824398040771e-01</leafValues></_></weakClassifiers></_>
    <!-- stage 7 -->
    <_>
      <maxWeakCount>4</maxWeakCount>
      <stageThreshold>-5.6965941190719604e-01</stageThreshold>
      <weakClassifiers>
        <_>
          <internalNodes>
            0 -1 53 6.2843197956681252e-03</internalNodes>
          <leafValues>
            -5.3658539056777954e-01 7.4193549156188965e-01</leafValues></_>
        <_>
          <internalNodes>
            0 -1 48 -4.9384301528334618e-03</internalNodes>
          <leafValues>
            5.4631787538528442e-01 -6.4915871620178223e-01</leafValues></_>
        <_>
          <internalNodes>
            0 -1 79 -2.5385464541614056e-03</internalNodes>
          <leafValues>
            -9.2261487245559692e-01 3.3777123689651489e-01</leafValues></_>
        <_>
          <internalNodes>
            0 -1 7 -2.2609198093414307e-01</internalNodes>
          <leafValues>
            4.1340792179107666e-01 -9.1716319322586060e-01</leafValues></_></weakClassifiers></_>
    <!-- stage 8 -->
    <_>
      <maxWeakCount>4</maxWeakCount>
      <stageThreshold>-7.0240885019302368e-01</stageThreshold>
      <weakClassifiers>
        <_>
          <internalNodes>
            0 -1 59 4.4620684348046780e-03</internalNodes>
          <leafValues>
            -7.6303315162658691e-01 5.3374230861663818e-01</leafValues></_>
        <_>
          <internalNodes>
            0 -1 41 8.8736191391944885e-02</internalNodes>
          <leafValues>
            -5.7413405179977417e-01 5.9569537639617920e-01</leafValues></_>
        <_>
          <internalNodes>
            0 -1 68 -1.1747690150514245e-03</internalNodes>
          <leafValues>
            3.0241417884826660e-01 -1.</leafValues></_>
        <_>
          <internalNodes>
            0 -1 70 -1.3881034683436155e-03</internalNodes>
          <leafValues>
            -9.5475798845291138e-01 3.3234417438507080e-01</leafValues></_></weakClassifiers></_>
    <!-- stage 9 -->
    <_>
      <maxWeakCount>7</maxWeakCount>
      <stageThreshold>-1.2532417774200439e+00</stageThreshold>
      <weakClassifiers>
        <_>
          <internalNodes>
            0 -1 61 -1.0991216404363513e-03</internalNodes>
          <leafValues>
            -7.1308016777038574e-01 5.8099353313446045e-01</leafValues></_>
        <_>
          <internalNodes>
            0 -1 95 1.2950121425092220e-02</internalNodes>
          <leafValues>
            -5.5245131254196167e-01 5.5078977346420288e-01</leafValues></_>
        <_>
          <internalNodes>
            0 -1 9 -2.5254679843783379e-02</internalNodes>
          <leafValues>
            2.8837180137634277e-01 -9.2841976881027222e-01</leafValues></_>
        <_>
          <internalNodes>
            0 -1 102 -3.6109420761931688e-05</internalNodes>
          <leafValues>
            4.9063092470169067e-01 -5.8100348711013794e-01</leafValues></_>
        <_>
          <internalNodes>
            0 -1 92 1.6595736145973206e-02</internalNodes>
          <leafValues>
            -5.5699235200881958e-01 4.9523892998695374e-01</leafValues></_>
        <_>
          <internalNodes>
            0 -1 18 -1.3674983754754066e-02</internalNodes>
          <leafValues>
            5.3604078292846680e-01 -4.8085570335388184e-01</leafValues></_>
        <_>
          <internalNodes>
            0 -1 6 -9.1234326362609863e-02</internalNodes>
          <leafValues>
            2.9053816199302673e-01 -8.5410434007644653e-01</leafValues></_></weakClassifiers></_>
    <!-- stage 10 -->
    <_>
      <maxWeakCount>6</maxWeakCount>
      <stageThreshold>-8.7971121072769165e-01</stageThreshold>
      <weakClassifiers>
        <_>
          <internalNodes>
            0 -1 26 1.0925327241420746e-01</internalNodes>
          <leafValues>
            -8.1818181276321411e-01 5.2191233634948730e-01</leafValues></_>
        <_>
          <internalNodes>
            0 -1 50 1.5084096230566502e-04</internalNodes>
          <leafValues>
            3.8348805904388428e-01 -6.9910794496536255e-01</leafValues></_>
        <_>
          <internalNodes>
            0 -1 37 5.4190335795283318e-03</internalNodes>
          <leafValues>
            -6.2566906213760376e-01 4.2777043581008911e-01</leafValues></_>
        <_>
          <internalNodes>
            0 -1 72 1.7960871336981654e-03</internalNodes>
          <leafValues>
            -6.8701475858688354e-01 4.0101659297943115e-01</leafValues></_>
        <_>
          <internalNodes>
            0 -1 96 1.8422566354274750e-02</internalNodes>
          <leafValues>
            -3.9251461625099182e-01 6.4978200197219849e-01</leafValues></_>
        <_>
          <internalNodes>
            0 -1 83 4.9023148603737354e-03</internalNodes>
          <leafValues>
            -8.8128983974456787e-01 2.7566820383071899e-01</leafValues></_></weakClassifiers></_>
    <!-- stage 11 -->
    <_>
      <maxWeakCount>6</maxWeakCount>
      <stageThreshold>-1.0982477664947510e+00</stageThreshold>
      <weakClassifiers>
        <_>
          <internalNodes>
            0 -1 73 -2.6484096888452768e-03</internalNodes>
          <leafValues>
            -5.2823919057846069e-01 6.4912283420562744e-01</leafValues></_>
        <_>
          <internalNodes>
            0 -1 69 1.2948174029588699e-02</internalNodes>
          <leafValues>
            -8.6667734384536743e-01 3.7919393181800842e-01</leafValues></_>
        <_>
          <internalNodes>
            0 -1 17 -5.5481661111116409e-03</internalNodes>
          <leafValues>
            5.9172737598419189e-01 -4.2904931306838989e-01</leafValues></_>
        <_>
          <internalNodes>
            0 -1 28 4.7511991579085588e-04</internalNodes>
          <leafValues>
            -3.9458960294723511e-01 5.7306933403015137e-01</leafValues></_>
        <_>
          <internalNodes>
            0 -1 40 8.7982567492872477e-05</internalNodes>
          <leafValues>
            2.9421365261077881e-01 -8.1671249866485596e-01</leafValues></_>
        <_>
          <internalNodes>
            0 -1 13 1.5619168989360332e-03</internalNodes>
          <leafValues>
            -4.1977727413177490e-01 5.5597561597824097e-01</leafValues></_></weakClassifiers></_>
    <!-- stage 12 -->
    <_>
      <maxWeakCount>4</maxWeakCount>
      <stageThreshold>-3.0155867338180542e-01</stageThreshold>
      <weakClassifiers>
        <_>
          <internalNodes>
            0 -1 29 3.9652007399126887e-04</internalNodes>
          <leafValues>
            -3.9275765419006348e-01 7.0674484968185425e-01</leafValues></_>
        <_>
          <internalNodes>
            0 -1 86 1.0714329546317458e-03</internalNodes>
          <leafValues>
            -6.9610297679901123e-01 3.7496107816696167e-01</leafValues></_>
        <_>
          <internalNodes>
            0 -1 47 -5.9155266731977463e-02</internalNodes>
          <leafValues>
            5.7327252626419067e-01 -4.6832695603370667e-01</leafValues></_>
        <_>
          <internalNodes>
            0 -1 9 -3.2757245004177094e-02</internalNodes>
          <leafValues>
            2.6109388470649719e-01 -8.8547313213348389e-01</leafValues></_></weakClassifiers></_>
    <!-- stage 13 -->
    <_>
      <maxWeakCount>5</maxWeakCount>
      <stageThreshold>-5.7842236757278442e-01</stageThreshold>
      <weakClassifiers>
        <_>
          <internalNodes>
            0 -1 65 -2.3221882293000817e-04</internalNodes>
          <leafValues>
            -8.9221554994583130e-01 4.6716699004173279e-01</leafValues></_>
        <_>
          <internalNodes>
            0 -1 30 -6.1011444777250290e-03</internalNodes>
          <leafValues>
            -5.6991195678710938e-01 4.7958815097808838e-01</leafValues></_>
        <_>
          <internalNodes>
            0 -1 16 -2.9327948577702045e-03</internalNodes>
          <leafValues>
            4.1827386617660522e-01 -6.6534799337387085e-01</leafValues></_>
        <_>
          <internalNodes>
            0 -1 61 -5.9079460334032774e-04</internalNodes>
          <leafValues>
            2.6159837841987610e-01 -9.7167527675628662e-01</leafValues></_>
        <_>
          <internalNodes>
            0 -1 5 -1.2488701939582825e-01</internalNodes>
          <leafValues>
            -1. 2.0383286476135254e-01</leafValues></_></weakClassifiers></_>
    <!-- stage 14 -->
    <_>
      <maxWeakCount>8</maxWeakCount>
      <stageThreshold>-8.5478508472442627e-01</stageThreshold>
      <weakClassifiers>
        <_>
          <internalNodes>
            0 -1 84 8.1614780356176198e-05</internalNodes>
          <leafValues>
            5.4565703868865967e-01 -5.7768923044204712e-01</leafValues></_>
        <_>
          <internalNodes>
            0 -1 54 3.6975173279643059e-03</internalNodes>
          <leafValues>
            -8.4357374906539917e-01 3.7392202019691467e-01</leafValues></_>
        <_>
          <internalNodes>
            0 -1 97 -5.4011686006560922e-04</internalNodes>
          <leafValues>
            6.8464696407318115e-01 -3.5212773084640503e-01</leafValues></_>
        <_>
          <internalNodes>
            0 -1 44 -2.6540306862443686e-04</internalNodes>
          <leafValues>
            -6.5549999475479126e-01 3.2200857996940613e-01</leafValues></_>
        <_>
          <internalNodes>
            0 -1 85 -5.5855151731520891e-04</internalNodes>
          <leafValues>
            4.3141928315162659e-01 -4.6797546744346619e-01</leafValues></_>
        <_>
          <internalNodes>
            0 -1 100 -1.0409092064946890e-03</internalNodes>
          <leafValues>
            4.9354463815689087e-01 -3.9513713121414185e-01</leafValues></_>
        <_>
          <internalNodes>
            0 -1 93 -1.7819381318986416e-03</internalNodes>
          <leafValues>
            8.6515462398529053e-01 -1.7823520302772522e-01</leafValues></_>
        <_>
          <internalNodes>
            0 -1 27 5.6255119852721691e-04</internalNodes>
          <leafValues>
            -2.8751155734062195e-01 6.2674939632415771e-01</leafValues></_></weakClassifiers></_>
    <!-- stage 15 -->
    <_>
      <maxWeakCount>6</maxWeakCount>
      <stageThreshold>-9.5630812644958496e-01</stageThreshold>
      <weakClassifiers>
        <_>
          <internalNodes>
            0 -1 46 8.1659294664859772e-03</internalNodes>
          <leafValues>
            -3.9297124743461609e-01 5.7622736692428589e-01</leafValues></_>
        <_>
          <internalNodes>
            0 -1 12 1.2828172743320465e-01</internalNodes>
          <leafValues>
            -7.5191658735275269e-01 3.1457436084747314e-01</leafValues></_>
        <_>
          <internalNodes>
            0 -1 24 2.7662334032356739e-03</internalNodes>
          <leafValues>
            -4.1540855169296265e-01 5.4284965991973877e-01</leafValues></_>
        <_>
          <internalNodes>
            0 -1 52 -1.1801861692219973e-03</internalNodes>
          <leafValues>
            1.8481087684631348e-01 -9.9424982070922852e-01</leafValues></_>
        <_>
          <internalNodes>
            0 -1 64 -4.8552714288234711e-03</internalNodes>
          <leafValues>
            -6.9709134101867676e-01 2.4653333425521851e-01</leafValues></_>
        <_>
          <internalNodes>
            0 -1 63 4.6903918700991198e-05</internalNodes>
          <leafValues>
            1.7264401912689209e-01 -9.2185765504837036e-01</leafValues></_></weakClassifiers></_>
    <!-- stage 16 -->
    <_>
      <maxWeakCount>7</maxWeakCount>
      <stageThreshold>-6.1137926578521729e-01</stageThreshold>
      <weakClassifiers>
        <_>
          <internalNodes>
            0 -1 74 1.7797267064452171e-03</internalNodes>
          <leafValues>
            -3.9325842261314392e-01 6.9767439365386963e-01</leafValues></_>
        <_>
          <internalNodes>
            0 -1 78 -2.2733903024345636e-03</internalNodes>
          <leafValues>
            -6.1286246776580811e-01 4.1905817389488220e-01</leafValues></_>
        <_>
          <internalNodes>
            0 -1 81 4.6667749993503094e-03</internalNodes>
          <leafValues>
            -7.6539880037307739e-01 2.5112327933311462e-01</leafValues></_>
        <_>
          <internalNodes>
            0 -1 76 5.3190875798463821e-02</internalNodes>
          <leafValues>
            2.1711565554141998e-01 -8.3572727441787720e-01</leafValues></_>
        <_>
          <internalNodes>
            0 -1 14 1.2576594017446041e-03</internalNodes>
          <leafValues>
            -3.0833402276039124e-01 6.3383769989013672e-01</leafValues></_>
        <_>
          <internalNodes>
            0 -1 89 1.9406711217015982e-03</internalNodes>
          <leafValues>
            2.4943108856678009e-01 -7.2341352701187134e-01</leafValues></_>
        <_>
          <internalNodes>
            0 -1 36 -1.0504059493541718e-01</internalNodes>
          <leafValues>
            1.6557846963405609e-01 -9.7216463088989258e-01</leafValues></_></weakClassifiers></_>
    <!-- stage 17 -->
    <_>
      <maxWeakCount>10</maxWeakCount>
      <stageThreshold>-1.1406801939010620e+00</stageThreshold>
      <weakClassifiers>
        <_>
          <internalNodes>
            0 -1 60 -2.3782659322023392e-02</internalNodes>
          <leafValues>
            6.9590646028518677e-01 -3.8547486066818237e-01</leafValues></_>
        <_>
          <internalNodes>
            0 -1 87 -7.1648336946964264e-02</internalNodes>
          <leafValues>
            -6.0496878623962402e-01 3.9898496866226196e-01</leafValues></_>
        <_>
          <internalNodes>
            0 -1 33 -2.1833409555256367e-03</internalNodes>
          <leafValues>
            4.9488529562950134e-01 -4.4086250662803650e-01</leafValues></_>
        <_>
          <internalNodes>
            0 -1 56 -3.6096775147598237e-05</internalNodes>
          <leafValues>
            -4.7069841623306274e-01 4.0525004267692566e-01</leafValues></_>
        <_>
          <internalNodes>
            0 -1 35 3.1479206518270075e-04</internalNodes>
          <leafValues>
            -2.6040059328079224e-01 6.2729859352111816e-01</leafValues></_>
        <_>
          <internalNodes>
            0 -1 10 2.1281060762703419e-03</internalNodes>
          <leafValues>
            -2.4054330587387085e-01 7.2580265998840332e-01</leafValues></_>
        <_>
          <internalNodes>
            0 -1 90 -3.2568842172622681e-02</internalNodes>
          <leafValues>
            -8.2663649320602417e-01 2.5082755088806152e-01</leafValues></_>
        <_>
          <internalNodes>
            0 -1 22 -1.8146967887878418e-01</internalNodes>
          <leafValues>
            1.7498186230659485e-01 -8.5556685924530029e-01</leafValues></_>
        <_>
          <internalNodes>
            0 -1 32 3.6305892281234264e-03</internalNodes>
          <leafValues>
            -2.5252574682235718e-01 7.4088025093078613e-01</leafValues></_>
        <_>
          <internalNodes>
            0 -1 0 2.0047958940267563e-02</internalNodes>
          <leafValues>
            2.1303607523441315e-01 -7.8048217296600342e-01</leafValues></_></weakClassifiers></_>
    <!-- stage 18 -->
    <_>
      <maxWeakCount>6</maxWeakCount>
      <stageThreshold>-7.0614886283874512e-01</stageThreshold>
      <weakClassifiers>
        <_>
          <internalNodes>
            0 -1 62 -8.9326276793144643e-05</internalNodes>
          <leafValues>
            -6.4150941371917725e-01 4.8360654711723328e-01</leafValues></_>
        <_>
          <internalNodes>
            0 -1 101 -9.4035203801468015e-05</internalNodes>
          <leafValues>
            5.2898716926574707e-01 -3.8839080929756165e-01</leafValues></_>
        <_>
          <internalNodes>
            0 -1 99 -9.2833419330418110e-04</internalNodes>
          <leafValues>
            6.5502381324768066e-01 -3.0570930242538452e-01</leafValues></_>
        <_>
          <internalNodes>
            0 -1 55 -1.1642544995993376e-03</internalNodes>
          <leafValues>
            2.1801190078258514e-01 -1.</leafValues></_>
        <_>
          <internalNodes>
            0 -1 66 1.0709617345128208e-04</internalNodes>
          <leafValues>
            1.6511043906211853e-01 -8.3756935596466064e-01</leafValues></_>
        <_>
          <internalNodes>
            0 -1 25 -1.6486439853906631e-02</internalNodes>
          <leafValues>
            -5.7493293285369873e-01 2.8828507661819458e-01</leafValues></_></weakClassifiers></_>
    <!-- stage 19 -->
    <_>
      <maxWeakCount>9</maxWeakCount>
      <stageThreshold>-5.6585055589675903e-01</stageThreshold>
      <weakClassifiers>
        <_>
          <internalNodes>
            0 -1 80 -2.7015055529773235e-03</internalNodes>
          <leafValues>
            7.2809666395187378e-01 -3.8211381435394287e-01</leafValues></_>
        <_>
          <internalNodes>
            0 -1 58 7.7220257371664047e-03</internalNodes>
          <leafValues>
            -4.8346522450447083e-01 4.7240108251571655e-01</leafValues></_>
        <_>
          <internalNodes>
            0 -1 19 1.6915399581193924e-02</internalNodes>
          <leafValues>
            -7.1920466423034668e-01 3.3637344837188721e-01</leafValues></_>
        <_>
          <internalNodes>
            0 -1 15 2.6508228620514274e-04</internalNodes>
          <leafValues>
            -3.5266682505607605e-01 6.1186450719833374e-01</leafValues></_>
        <_>
          <internalNodes>
            0 -1 49 4.7962836106307805e-05</internalNodes>
          <leafValues>
            2.1481819450855255e-01 -8.0022782087326050e-01</leafValues></_>
        <_>
          <internalNodes>
            0 -1 88 -7.0251332363113761e-04</internalNodes>
          <leafValues>
            5.1165997982025146e-01 -3.8676351308822632e-01</leafValues></_>
        <_>
          <internalNodes>
            0 -1 34 -4.3913195841014385e-03</internalNodes>
          <leafValues>
            6.3765472173690796e-01 -2.9553407430648804e-01</leafValues></_>
        <_>
          <internalNodes>
            0 -1 98 -6.7845860030502081e-04</internalNodes>
          <leafValues>
            6.2300890684127808e-01 -3.4254491329193115e-01</leafValues></_>
        <_>
          <internalNodes>
            0 -1 2 -2.3673479445278645e-03</internalNodes>
          <leafValues>
            -7.3690867424011230e-01 3.3037468791007996e-01</leafValues></_></weakClassifiers></_></stages>
  <features>
    <_>
      <rects>
        <_>
          0 12 4 12 -1.</_>
        <_>
          0 18 4 6 2.</_></rects>
      <tilted>0</tilted></_>
    <_>
      <rects>
        <_>
          0 13 9 10 -1.</_>
        <_>
          0 18 9 5 2.</_></rects>
      <tilted>0</tilted></_>
    <_>
      <rects>
        <_>
          0 14 1 6 -1.</_>
        <_>
          0 17 1 3 2.</_></rects>
      <tilted>0</tilted></_>
    <_>
      <rects>
        <_>
          0 19 6 1 -1.</_>
        <_>
          3 19 3 1 2.</_></rects>
      <tilted>0</tilted></_>
    <_>
      <rects>
        <_>
          1 11 12 4 -1.</_>
        <_>
          7 11 6 4 2.</_></rects>
      <tilted>0</tilted></_>
    <_>
      <rects>
        <_>
          2 4 8 9 -1.</_>
        <_>
          2 7 8 3 2.</_></rects>
      <tilted>0</tilted></_>
    <_>
      <rects>
        <_>
          2 4 20 6 -1.</_>
        <_>
          2 6 20 2 2.</_></rects>
      <tilted>0</tilted></_>
    <_>
      <rects>
        <_>
          2 8 19 12 -1.</_>
        <_>
          2 12 19 4 2.</_></rects>
      <tilted>0</tilted></_>
    <_>
      <rects>
        <_>
          2 10 10 14 -1.</_>
        <_>
          7 10 5 14 2.</_></rects>
      <tilted>0</tilted></_>
    <_>
      <rects>
        <_>
          2 10 16 14 -1.</_>
        <_>
          10 10 8 14 2.</_></rects>
      <tilted>0</tilted></_>
    <_>
      <rects>
        <_>
          2 22 6 2 -1.</_>
        <_>
          2 22 3 1 2.</_>
        <_>
          5 23 3 1 2.</_></rects>
      <tilted>0</tilted></_>
    <_>
      <rects>
        <_>
          3 5 14 12 -1.</_>
        <_>
          10 5 7 12 2.</_></rects>
      <tilted>0</tilted></_>
    <_>
      <rects>
        <_>
          3 8 19 16 -1.</_>
        <_>
          3 16 19 8 2.</_></rects>
      <tilted>0</tilted></_>
    <_>
      <rects>
        <_>
          3 18 2 3 -1.</_>
        <_>
          4 18 1 3 2.</_></rects>
      <tilted>0</tilted></_>
    <_>
      <rects>
        <_>
          3 20 2 4 -1.</_>
        <_>
          3 20 1 2 2.</_>
        <_>
          4 22 1 2 2.</_></rects>
      <tilted>0</tilted></_>
    <_>
      <rects>
        <_>
          3 22 2 2 -1.</_>
        <_>
          4 22 1 2 2.</_></rects>
      <tilted>0</tilted></_>
    <_>
      <rects>
        <_>
          3 23 12 1 -1.</_>
        <_>
          9 23 6 1 2.</_></rects>
      <tilted>0</tilted></_>
    <_>
      <rects>
        <_>
          4 8 2 9 -1.</_>
        <_>
          5 8 1 9 2.</_></rects>
      <tilted>0</tilted></_>
    <_>
      <rects>
        <_>
          4 9 4 7 -1.</_>
        <_>
          6 9 2 7 2.</_></rects>
      <tilted>0</tilted></_>
    <_>
      <rects>
        <_>
          5 4 14 20 -1.</_>
        <_>
          5 14 14 10 2.</_></rects>
      <tilted>0</tilted></_>
    <_>
      <rects>
        <_>
          5 11 13 10 -1.</_>
        <_>
          5 16 13 5 2.</_></rects>
      <tilted>0</tilted></_>
    <_>
      <rects>
        <_>
          6 0 12 24 -1.</_>
        <_>
          10 0 4 24 2.</_></rects>
      <tilted>0</tilted></_>
    <_>
      <rects>
        <_>
          6 5 12 18 -1.</_>
        <_>
          10 5 4 18 2.</_></rects>
      <tilted>0</tilted></_>
    <_>
      <rects>
        <_>
          6 6 18 4 -1.</_>
        <_>
          6 8 18 2 2.</_></rects>
      <tilted>0</tilted></_>
    <_>
      <rects>
        <_>
          6 7 8 4 -1.</_>
        <_>
          6 7 4 2 2.</_>
        <_>
          10 9 4 2 2.</_></rects>
      <tilted>0</tilted></_>
    <_>
      <rects>
        <_>
          6 9 9 2 -1.</_>
        <_>
          9 9 3 2 2.</_></rects>
      <tilted>0</tilted></_>
    <_>
      <rects>
        <_>
          6 9 13 14 -1.</_>
        <_>
          6 16 13 7 2.</_></rects>
      <tilted>0</tilted></_>
    <_>
      <rects>
        <_>
          6 22 4 2 -1.</_>
        <_>
          6 22 2 1 2.</_>
        <_>
          8 23 2 1 2.</_></rects>
      <tilted>0</tilted></_>
    <_>
      <rects>
        <_>
          7 1 4 4 -1.</_>
        <_>
          9 1 2 4 2.</_></rects>
      <tilted>0</tilted></_>
    <_>
      <rects>
        <_>
          7 15 2 4 -1.</_>
        <_>
          8 15 1 4 2.</_></rects>
      <tilted>0</tilted></_>
    <_>
      <rects>
        <_>
          7 15 12 1 -1.</_>
        <_>
          11 15 4 1 2.</_></rects>
      <tilted>0</tilted></_>
    <_>
      <rects>
        <_>
          7 16 6 8 -1.</_>
        <_>
          7 16 3 4 2.</_>
        <_>
          10 20 3 4 2.</_></rects>
      <tilted>0</tilted></_>
    <_>
      <rects>
        <_>
          7 18 4 6 -1.</_>
        <_>
          9 18 2 6 2.</_></rects>
      <tilted>0</tilted></_>
    <_>
      <rects>
        <_>
          7 21 4 3 -1.</_>
        <_>
          9 21 2 3 2.</_></rects>
      <tilted>0</tilted></_>
    <_>
      <rects>
        <_>
          7 21 11 2 -1.</_>
        <_>
          7 22 11 1 2.</_></rects>
      <tilted>0</tilted></_>
    <_>
      <rects>
        <_>
          7 22 2 2 -1.</_>
        <_>
          7 22 1 1 2.</_>
        <_>
          8 23 1 1 2.</_></rects>
      <tilted>0</tilted></_>
    <_>
      <rects>
        <_>
          8 1 9 17 -1.</_>
        <_>
          11 1 3 17 2.</_></rects>
      <tilted>0</tilted></_>
    <_>
      <rects>
        <_>
          8 3 4 16 -1.</_>
        <_>
          8 3 2 8 2.</_>
        <_>
          10 11 2 8 2.</_></rects>
      <tilted>0</tilted></_>
    <_>
      <rects>
        <_>
          8 3 4 11 -1.</_>
        <_>
          10 3 2 11 2.</_></rects>
      <tilted>0</tilted></_>
    <_>
      <rects>
        <_>
          8 8 14 16 -1.</_>
        <_>
          15 8 7 16 2.</_></rects>
      <tilted>0</tilted></_>
    <_>
      <rects>
        <_>
          8 12 8 2 -1.</_>
        <_>
          8 13 8 1 2.</_></rects>
      <tilted>0</tilted></_>
    <_>
      <rects>
        <_>
          8 12 10 8 -1.</_>
        <_>
          8 16 10 4 2.</_></rects>
      <tilted>0</tilted></_>
    <_>
      <rects>
        <_>
          8 13 3 1 -1.</_>
        <_>
          9 13 1 1 2.</_></rects>
      <tilted>0</tilted></_>
    <_>
      <rects>
        <_>
          8 13 9 1 -1.</_>
        <_>
          11 13 3 1 2.</_></rects>
      <tilted>0</tilted></_>
    <_>
      <rects>
        <_>
          8 14 6 2 -1.</_>
        <_>
          11 14 3 2 2.</_></rects>
      <tilted>0</tilted></_>
    <_>
      <rects>
        <_>
          8 20 9 4 -1.</_>
        <_>
          8 22 9 2 2.</_></rects>
      <tilted>0</tilted></_>
    <_>
      <rects>
        <_>
          8 23 14 1 -1.</_>
        <_>
          15 23 7 1 2.</_></rects>
      <tilted>0</tilted></_>
    <_>
      <rects>
        <_>
          9 1 6 10 -1.</_>
        <_>
          9 6 6 5 2.</_></rects>
      <tilted>0</tilted></_>
    <_>
      <rects>
        <_>
          9 2 4 10 -1.</_>
        <_>
          11 2 2 10 2.</_></rects>
      <tilted>0</tilted></_>
    <_>
      <rects>
        <_>
          9 9 5 2 -1.</_>
        <_>
          9 10 5 1 2.</_></rects>
      <tilted>0</tilted></_>
    <_>
      <rects>
        <_>
          9 11 9 4 -1.</_>
        <_>
          9 13 9 2 2.</_></rects>
      <tilted>0</tilted></_>
    <_>
      <rects>
        <_>
          10 12 2 8 -1.</_>
        <_>
          10 16 2 4 2.</_></rects>
      <tilted>0</tilted></_>
    <_>
      <rects>
        <_>
          10 13 6 1 -1.</_>
        <_>
          12 13 2 1 2.</_></rects>
      <tilted>0</tilted></_>
    <_>
      <rects>
        <_>
          10 23 12 1 -1.</_>
        <_>
          16 23 6 1 2.</_></rects>
      <tilted>0</tilted></_>
    <_>
      <rects>
        <_>
          11 4 6 19 -1.</_>
        <_>
          14 4 3 19 2.</_></rects>
      <tilted>0</tilted></_>
    <_>
      <rects>
        <_>
          11 9 2 3 -1.</_>
        <_>
          11 10 2 1 2.</_></rects>
      <tilted>0</tilted></_>
    <_>
      <rects>
        <_>
          11 9 2 4 -1.</_>
        <_>
          11 11 2 2 2.</_></rects>
      <tilted>0</tilted></_>
    <_>
      <rects>
        <_>
          11 10 12 2 -1.</_>
        <_>
          17 10 6 2 2.</_></rects>
      <tilted>0</tilted></_>
    <_>
      <rects>
        <_>
          12 1 4 14 -1.</_>
        <_>
          14 1 2 14 2.</_></rects>
      <tilted>0</tilted></_>
    <_>
      <rects>
        <_>
          12 2 4 13 -1.</_>
        <_>
          14 2 2 13 2.</_></rects>
      <tilted>0</tilted></_>
    <_>
      <rects>
        <_>
          12 5 6 12 -1.</_>
        <_>
          12 5 3 6 2.</_>
        <_>
          15 11 3 6 2.</_></rects>
      <tilted>0</tilted></_>
    <_>
      <rects>
        <_>
          12 8 1 3 -1.</_>
        <_>
          12 9 1 1 2.</_></rects>
      <tilted>0</tilted></_>
    <_>
      <rects>
        <_>
          12 8 1 4 -1.</_>
        <_>
          12 10 1 2 2.</_></rects>
      <tilted>0</tilted></_>
    <_>
      <rects>
        <_>
          12 9 1 4 -1.</_>
        <_>
          12 11 1 2 2.</_></rects>
      <tilted>0</tilted></_>
    <_>
      <rects>
        <_>
          12 9 2 6 -1.</_>
        <_>
          12 11 2 2 2.</_></rects>
      <tilted>0</tilted></_>
    <_>
      <rects>
        <_>
          12 10 2 4 -1.</_>
        <_>
          12 12 2 2 2.</_></rects>
      <tilted>0</tilted></_>
    <_>
      <rects>
        <_>
          12 10 3 4 -1.</_>
        <_>
          12 12 3 2 2.</_></rects>
      <tilted>0</tilted></_>
    <_>
      <rects>
        <_>
          12 11 3 3 -1.</_>
        <_>
          13 11 1 3 2.</_></rects>
      <tilted>0</tilted></_>
    <_>
      <rects>
        <_>
          12 11 2 3 -1.</_>
        <_>
          12 12 2 1 2.</_></rects>
      <tilted>0</tilted></_>
    <_>
      <rects>
        <_>
          12 12 12 2 -1.</_>
        <_>
          18 12 6 2 2.</_></rects>
      <tilted>0</tilted></_>
    <_>
      <rects>
        <_>
          12 13 3 1 -1.</_>
        <_>
          13 13 1 1 2.</_></rects>
      <tilted>0</tilted></_>
    <_>
      <rects>
        <_>
          12 16 8 8 -1.</_>
        <_>
          12 16 4 4 2.</_>
        <_>
          16 20 4 4 2.</_></rects>
      <tilted>0</tilted></_>
    <_>
      <rects>
        <_>
          12 20 6 4 -1.</_>
        <_>
          15 20 3 4 2.</_></rects>
      <tilted>0</tilted></_>
    <_>
      <rects>
        <_>
          12 23 3 1 -1.</_>
        <_>
          13 23 1 1 2.</_></rects>
      <tilted>0</tilted></_>
    <_>
      <rects>
        <_>
          13 0 2 8 -1.</_>
        <_>
          13 0 1 4 2.</_>
        <_>
          14 4 1 4 2.</_></rects>
      <tilted>0</tilted></_>
    <_>
      <rects>
        <_>
          13 1 2 14 -1.</_>
        <_>
          13 8 2 7 2.</_></rects>
      <tilted>0</tilted></_>
    <_>
      <rects>
        <_>
          13 2 6 16 -1.</_>
        <_>
          16 2 3 16 2.</_></rects>
      <tilted>0</tilted></_>
    <_>
      <rects>
        <_>
          13 3 4 12 -1.</_>
        <_>
          15 3 2 12 2.</_></rects>
      <tilted>0</tilted></_>
    <_>
      <rects>
        <_>
          13 8 1 6 -1.</_>
        <_>
          13 10 1 2 2.</_></rects>
      <tilted>0</tilted></_>
    <_>
      <rects>
        <_>
          13 11 2 3 -1.</_>
        <_>
          13 12 2 1 2.</_></rects>
      <tilted>0</tilted></_>
    <_>
      <rects>
        <_>
          13 13 6 6 -1.</_>
        <_>
          16 13 3 6 2.</_></rects>
      <tilted>0</tilted></_>
    <_>
      <rects>
        <_>
          13 13 10 1 -1.</_>
        <_>
          18 13 5 1 2.</_></rects>
      <tilted>0</tilted></_>
    <_>
      <rects>
        <_>
          14 5 2 10 -1.</_>
        <_>
          14 5 1 5 2.</_>
        <_>
          15 10 1 5 2.</_></rects>
      <tilted>0</tilted></_>
    <_>
      <rects>
        <_>
          14 8 1 16 -1.</_>
        <_>
          14 16 1 8 2.</_></rects>
      <tilted>0</tilted></_>
    <_>
      <rects>
        <_>
          14 13 4 1 -1.</_>
        <_>
          16 13 2 1 2.</_></rects>
      <tilted>0</tilted></_>
    <_>
      <rects>
        <_>
          14 15 4 5 -1.</_>
        <_>
          16 15 2 5 2.</_></rects>
      <tilted>0</tilted></_>
    <_>
      <rects>
        <_>
          15 4 2 10 -1.</_>
        <_>
          16 4 1 10 2.</_></rects>
      <tilted>0</tilted></_>
    <_>
      <rects>
        <_>
          15 11 9 6 -1.</_>
        <_>
          15 13 9 2 2.</_></rects>
      <tilted>0</tilted></_>
    <_>
      <rects>
        <_>
          15 22 2 2 -1.</_>
        <_>
          15 23 2 1 2.</_></rects>
      <tilted>0</tilted></_>
    <_>
      <rects>
        <_>
          16 2 8 2 -1.</_>
        <_>
          16 3 8 1 2.</_></rects>
      <tilted>0</tilted></_>
    <_>
      <rects>
        <_>
          16 9 2 9 -1.</_>
        <_>
          16 12 2 3 2.</_></rects>
      <tilted>0</tilted></_>
    <_>
      <rects>
        <_>
          16 12 1 8 -1.</_>
        <_>
          16 16 1 4 2.</_></rects>
      <tilted>0</tilted></_>
    <_>
      <rects>
        <_>
          16 13 2 8 -1.</_>
        <_>
          16 17 2 4 2.</_></rects>
      <tilted>0</tilted></_>
    <_>
      <rects>
        <_>
          16 21 4 2 -1.</_>
        <_>
          16 21 2 1 2.</_>
        <_>
          18 22 2 1 2.</_></rects>
      <tilted>0</tilted></_>
    <_>
      <rects>
        <_>
          17 1 6 18 -1.</_>
        <_>
          17 1 3 9 2.</_>
        <_>
          20 10 3 9 2.</_></rects>
      <tilted>0</tilted></_>
    <_>
      <rects>
        <_>
          17 9 4 7 -1.</_>
        <_>
          19 9 2 7 2.</_></rects>
      <tilted>0</tilted></_>
    <_>
      <rects>
        <_>
          18 6 4 12 -1.</_>
        <_>
          18 6 2 6 2.</_>
        <_>
          20 12 2 6 2.</_></rects>
      <tilted>0</tilted></_>
    <_>
      <rects>
        <_>
          18 17 2 2 -1.</_>
        <_>
          19 17 1 2 2.</_></rects>
      <tilted>0</tilted></_>
    <_>
      <rects>
        <_>
          18 18 2 3 -1.</_>
        <_>
          19 18 1 3 2.</_></rects>
      <tilted>0</tilted></_>
    <_>
      <rects>
        <_>
          18 22 4 2 -1.</_>
        <_>
          18 22 2 1 2.</_>
        <_>
          20 23 2 1 2.</_></rects>
      <tilted>0</tilted></_>
    <_>
      <rects>
        <_>
          20 23 4 1 -1.</_>
        <_>
          22 23 2 1 2.</_></rects>
      <tilted>0</tilted></_>
    <_>
      <rects>
        <_>
          21 15 2 1 -1.</_>
        <_>
          22 15 1 1 2.</_></rects>
      <tilted>0</tilted></_>
    <_>
      <rects>
        <_>
          22 20 2 1 -1.</_>
        <_>
          23 20 1 1 2.</_></rects>
      <tilted>0</tilted></_></features></cascade>
</opencv_storage>
