<?xml version="1.0"?>
<opencv_storage>
<stage5>
  <maxWeakCount>5</maxWeakCount>
  <stageThreshold>-8.4594982862472534e-01</stageThreshold>
  <weakClassifiers>
    <_>
      <internalNodes>
        0 -1 96788 -1.3817828148603439e-03</internalNodes>
      <leafValues>
        -7.8707224130630493e-01 7.0251715183258057e-01</leafValues></_>
    <_>
      <internalNodes>
        0 -1 88872 -4.1981860995292664e-03</internalNodes>
      <leafValues>
        7.0797455310821533e-01 -6.1349642276763916e-01</leafValues></_>
    <_>
      <internalNodes>
        0 -1 95046 3.0482672154903412e-02</internalNodes>
      <leafValues>
        -9.4673246145248413e-01 4.6352139115333557e-01</leafValues></_>
    <_>
      <internalNodes>
        0 -1 135820 -1.5069567598402500e-03</internalNodes>
      <leafValues>
        7.0137709379196167e-01 -5.3093618154525757e-01</leafValues></_>
    <_>
      <internalNodes>
        0 -1 12834 1.0408670641481876e-03</internalNodes>
      <leafValues>
        -5.0451821088790894e-01 6.2203359603881836e-01</leafValues></_></weakClassifiers></stage5>
</opencv_storage>
