<?xml version="1.0"?>
<opencv_storage>
<cascade>
  <stageType>BOOST</stageType>
  <featureType>LBP</featureType>
  <height>24</height>
  <width>24</width>
  <stageParams>
    <boostType>GAB</boostType>
    <minHitRate>9.9500000476837158e-01</minHitRate>
    <maxFalseAlarm>5.0000000000000000e-01</maxFalseAlarm>
    <weightTrimRate>9.4999999999999996e-01</weightTrimRate>
    <maxDepth>1</maxDepth>
    <maxWeakCount>100</maxWeakCount></stageParams>
  <featureParams>
    <maxCatCount>256</maxCatCount>
    <featSize>1</featSize></featureParams>
  <stageNum>25</stageNum>
  <stages>
    <!-- stage 0 -->
    <_>
      <maxWeakCount>2</maxWeakCount>
      <stageThreshold>3.3547744154930115e-02</stageThreshold>
      <weakClassifiers>
        <_>
          <internalNodes>
            0 -1 26 -5259267 -1 1073463263 -544841 -2145386497
            2147467263 566329327 636828555</internalNodes>
          <leafValues>
            -8.4660768508911133e-01 8.9592123031616211e-01</leafValues></_>
        <_>
          <internalNodes>
            0 -1 43 -2147483184 -1760231333 16777279 998248729
            -2139053893 -1574928384 -1199044216 -1685553024</internalNodes>
          <leafValues>
            -7.7986043691635132e-01 8.8015538454055786e-01</leafValues></_></weakClassifiers></_>
    <!-- stage 1 -->
    <_>
      <maxWeakCount>2</maxWeakCount>
      <stageThreshold>1.3483691960573196e-02</stageThreshold>
      <weakClassifiers>
        <_>
          <internalNodes>
            0 -1 79 -13303936 891879216 -32 -1078198337 -1 1065222143
            -44 -26370</internalNodes>
          <leafValues>
            -8.0701756477355957e-01 8.8418078422546387e-01</leafValues></_>
        <_>
          <internalNodes>
            0 -1 10 -800013624 285737089 -1861976061 -385318911 2178
            142639232 -2013194039 -341860213</internalNodes>
          <leafValues>
            -8.7069708108901978e-01 8.4584754705429077e-01</leafValues></_></weakClassifiers></_>
    <!-- stage 2 -->
    <_>
      <maxWeakCount>2</maxWeakCount>
      <stageThreshold>1.7251493409276009e-02</stageThreshold>
      <weakClassifiers>
        <_>
          <internalNodes>
            0 -1 45 -8388617 -1077936193 -1073899587 -16385 -73
            -1073741825 -46153809 950796095</internalNodes>
          <leafValues>
            -7.2434020042419434e-01 8.4203100204467773e-01</leafValues></_>
        <_>
          <internalNodes>
            0 -1 47 289411412 1884295304 83918877 -1744534528 1286329
            -1333165560 -781678439 -1339782928</internalNodes>
          <leafValues>
            -8.2477951049804688e-01 7.7350997924804688e-01</leafValues></_></weakClassifiers></_>
    <!-- stage 3 -->
    <_>
      <maxWeakCount>2</maxWeakCount>
      <stageThreshold>-8.6399652063846588e-02</stageThreshold>
      <weakClassifiers>
        <_>
          <internalNodes>
            0 -1 58 268482472 823167208 75497625 -1690066935 -1463711557
            445251714 -1056931710 -1077034357</internalNodes>
          <leafValues>
            -8.5053378343582153e-01 7.6592975854873657e-01</leafValues></_>
        <_>
          <internalNodes>
            0 -1 42 -1853836332 -783187816 -1879047727 -1848573816
            1090551937 989888514 -257850997 -1450440632</internalNodes>
          <leafValues>
            -7.4499475955963135e-01 7.6413416862487793e-01</leafValues></_></weakClassifiers></_>
    <!-- stage 4 -->
    <_>
      <maxWeakCount>2</maxWeakCount>
      <stageThreshold>-8.4017284214496613e-02</stageThreshold>
      <weakClassifiers>
        <_>
          <internalNodes>
            0 -1 3 -70254609 -16385 -1073766401 1878470647 2147483647
            -536903681 -1 2012704767</internalNodes>
          <leafValues>
            -7.6129031181335449e-01 7.9189187288284302e-01</leafValues></_>
        <_>
          <internalNodes>
            0 -1 83 -707271512 134267264 -2147483648 -1593769958
            -1341570782 82057 -1878949759 -75243133</internalNodes>
          <leafValues>
            -8.7590914964675903e-01 6.9841021299362183e-01</leafValues></_></weakClassifiers></_>
    <!-- stage 5 -->
    <_>
      <maxWeakCount>4</maxWeakCount>
      <stageThreshold>-1.9957497715950012e-02</stageThreshold>
      <weakClassifiers>
        <_>
          <internalNodes>
            0 -1 61 1021322680 1610170321 -137289 -1073936139 2147270655
            -1459027969 -1073939000 -1079502856</internalNodes>
          <leafValues>
            -6.2393164634704590e-01 8.1402003765106201e-01</leafValues></_>
        <_>
          <internalNodes>
            0 -1 16 -1073707821 -749465325 -2147482600 -795868784
            -2147385175 -2004840448 -1459582325 -187726785</internalNodes>
          <leafValues>
            -6.4896011352539063e-01 8.1581580638885498e-01</leafValues></_>
        <_>
          <internalNodes>
            0 -1 82 -498608640 -1857826813 73728 1887551494 -1073704958
            17039360 -2004774774 -1534868861</internalNodes>
          <leafValues>
            -8.1491351127624512e-01 6.5614646673202515e-01</leafValues></_>
        <_>
          <internalNodes>
            0 -1 22 -788221513 -914259956 321 -1055555582 553659451
            285212800 -2013241173 2143757063</internalNodes>
          <leafValues>
            -8.0928909778594971e-01 6.2989610433578491e-01</leafValues></_></weakClassifiers></_>
    <!-- stage 6 -->
    <_>
      <maxWeakCount>2</maxWeakCount>
      <stageThreshold>5.2163194864988327e-02</stageThreshold>
      <weakClassifiers>
        <_>
          <internalNodes>
            0 -1 9 -804002066 524293 -1073741824 -1073659391 42140169
            1073823753 -792608632 -122568314</internalNodes>
          <leafValues>
            -7.7224200963973999e-01 7.3732119798660278e-01</leafValues></_>
        <_>
          <internalNodes>
            0 -1 69 -672071683 -196617 -3 -134218244 -403177729 -1 -10
            -1998782492</internalNodes>
          <leafValues>
            -6.3313639163970947e-01 8.2440519332885742e-01</leafValues></_></weakClassifiers></_>
    <!-- stage 7 -->
    <_>
      <maxWeakCount>4</maxWeakCount>
      <stageThreshold>-1.9761987030506134e-02</stageThreshold>
      <weakClassifiers>
        <_>
          <internalNodes>
            0 -1 28 -13 -536870945 -1 -536899597 1606418431 2147483647
            -32769 2079797239</internalNodes>
          <leafValues>
            -6.8322980403900146e-01 7.8296703100204468e-01</leafValues></_>
        <_>
          <internalNodes>
            0 -1 71 -799726568 -117440511 16941841 -1781513725 587202857
            707920000 134316730 -1196709238</internalNodes>
          <leafValues>
            -7.0365971326828003e-01 7.2766381502151489e-01</leafValues></_>
        <_>
          <internalNodes>
            0 -1 75 -1925081356 1496842496 16810011 1359839497
            -2147385205 -2138767326 -1333690181 -1132164560</internalNodes>
          <leafValues>
            -6.6979473829269409e-01 7.1079868078231812e-01</leafValues></_>
        <_>
          <internalNodes>
            0 -1 4 1279779534 1107509250 16818178 -1609072638
            -1878486910 -2088730623 -938966366 -669392313</internalNodes>
          <leafValues>
            -7.2660094499588013e-01 6.5632885694503784e-01</leafValues></_></weakClassifiers></_>
    <!-- stage 8 -->
    <_>
      <maxWeakCount>4</maxWeakCount>
      <stageThreshold>-2.1723434329032898e-01</stageThreshold>
      <weakClassifiers>
        <_>
          <internalNodes>
            0 -1 17 669973438 -1048577 -978962 -1118210 -2 -1073741825
            -536870916 -74776580</internalNodes>
          <leafValues>
            -5.0270271301269531e-01 7.8823530673980713e-01</leafValues></_>
        <_>
          <internalNodes>
            0 -1 36 1497682024 487096391 671092767 1975648338 268700681
            1207959569 592267 1065689669</internalNodes>
          <leafValues>
            -8.5431683063507080e-01 5.9937030076980591e-01</leafValues></_>
        <_>
          <internalNodes>
            0 -1 54 273692117 1359806481 -2080292839 -1656684407 8433835
            -1347420015 8686478 -1683488600</internalNodes>
          <leafValues>
            -7.0542907714843750e-01 6.2494546175003052e-01</leafValues></_>
        <_>
          <internalNodes>
            0 -1 7 1619220366 32769 268435592 -1005321958 1082376578
            -2146959360 -502890464 -393706999</internalNodes>
          <leafValues>
            -8.1649160385131836e-01 5.5427622795104980e-01</leafValues></_></weakClassifiers></_>
    <!-- stage 9 -->
    <_>
      <maxWeakCount>4</maxWeakCount>
      <stageThreshold>7.4328668415546417e-02</stageThreshold>
      <weakClassifiers>
        <_>
          <internalNodes>
            0 -1 18 -270471184 -14553159 -3145741 -14286872 -540737548
            -8388609 -537526308 -1082691753</internalNodes>
          <leafValues>
            -5.8054709434509277e-01 7.5034672021865845e-01</leafValues></_>
        <_>
          <internalNodes>
            0 -1 80 1039605759 1052524541 1879048191 -20971521
            2146910207 -1 2147483391 -16908673</internalNodes>
          <leafValues>
            -5.8286750316619873e-01 7.0455104112625122e-01</leafValues></_>
        <_>
          <internalNodes>
            0 -1 50 421287545 1343689375 -788381357 1938818579 134348955
            -536707008 -1475772209 -1282668376</internalNodes>
          <leafValues>
            -6.6773825883865356e-01 6.6368728876113892e-01</leafValues></_>
        <_>
          <internalNodes>
            0 -1 34 1526833802 100728833 -1879015344 1384125714
            -1602224128 269549576 -1037974381 -187702085</internalNodes>
          <leafValues>
            -7.1087139844894409e-01 6.1806303262710571e-01</leafValues></_></weakClassifiers></_>
    <!-- stage 10 -->
    <_>
      <maxWeakCount>4</maxWeakCount>
      <stageThreshold>-1.1238083243370056e-01</stageThreshold>
      <weakClassifiers>
        <_>
          <internalNodes>
            0 -1 11 1096740348 1610153989 -4129 -2 1207918591 1610567679
            -2105472961 1846243466</internalNodes>
          <leafValues>
            -6.5124553442001343e-01 6.9310790300369263e-01</leafValues></_>
        <_>
          <internalNodes>
            0 -1 44 345509904 -11534191 1073742221 -1190588288
            -268261175 -1199570934 -1971126135 -1400373119</internalNodes>
          <leafValues>
            -6.3784879446029663e-01 6.7673593759536743e-01</leafValues></_>
        <_>
          <internalNodes>
            0 -1 87 -789069437 322 1073741824 -2147286782 65542
            1073741824 -536379260 -859446974</internalNodes>
          <leafValues>
            -7.0093446969985962e-01 6.1318653821945190e-01</leafValues></_>
        <_>
          <internalNodes>
            0 -1 6 907526683 246546 -2146435051 -805031676 -1610579894
            -1073676288 -1023246208 -321351536</internalNodes>
          <leafValues>
            -7.5105774402618408e-01 6.0717040300369263e-01</leafValues></_></weakClassifiers></_>
    <!-- stage 11 -->
    <_>
      <maxWeakCount>4</maxWeakCount>
      <stageThreshold>-2.8980168700218201e-01</stageThreshold>
      <weakClassifiers>
        <_>
          <internalNodes>
            0 -1 0 285495244 -1978613220 855638292 1428169235 -402095224
            -905445376 -2138995831 1963002523</internalNodes>
          <leafValues>
            -8.5253453254699707e-01 6.4225691556930542e-01</leafValues></_>
        <_>
          <internalNodes>
            0 -1 68 269583129 -1856892656 16849169 -1857744863
            -1878939181 -2004350207 134975647 -324238664</internalNodes>
          <leafValues>
            -7.2315359115600586e-01 6.0270249843597412e-01</leafValues></_>
        <_>
          <internalNodes>
            0 -1 40 1367442323 16814080 -1056910319 -1694498736
            1073832066 1208518656 -402603645 1774420491</internalNodes>
          <leafValues>
            -6.2003457546234131e-01 6.4169353246688843e-01</leafValues></_>
        <_>
          <internalNodes>
            0 -1 35 1478217823 -1894776704 117441050 -1735393006
            1073808537 805306497 1073840282 -58030045</internalNodes>
          <leafValues>
            -6.8166315555572510e-01 5.8237314224243164e-01</leafValues></_></weakClassifiers></_>
    <!-- stage 12 -->
    <_>
      <maxWeakCount>5</maxWeakCount>
      <stageThreshold>-9.3718302249908447e-01</stageThreshold>
      <weakClassifiers>
        <_>
          <internalNodes>
            0 -1 66 539882908 822251544 -939505320 -1627324275
            -2147448687 -1953890295 -2122118784 -91717504</internalNodes>
          <leafValues>
            -7.4380165338516235e-01 6.5594059228897095e-01</leafValues></_>
        <_>
          <internalNodes>
            0 -1 77 -1056644452 285253825 -1862254553 -2004860741
            -2147448689 268453896 268468363 -360083389</internalNodes>
          <leafValues>
            -6.8153965473175049e-01 5.9610784053802490e-01</leafValues></_>
        <_>
          <internalNodes>
            0 -1 38 1929900162 537985039 100352 -2079791871 65538 65664
            -1476214117 2021911227</internalNodes>
          <leafValues>
            -6.8011093139648438e-01 5.4742437601089478e-01</leafValues></_>
        <_>
          <internalNodes>
            0 -1 46 291012933 386990087 -1862270959 360775705
            -2130705791 -922746879 -1828550165 413934344</internalNodes>
          <leafValues>
            -7.4629485607147217e-01 5.2019399404525757e-01</leafValues></_>
        <_>
          <internalNodes>
            0 -1 89 -624050030 -1945075710 -2143256192 -721350630
            696778762 1207959560 -804749182 -41622655</internalNodes>
          <leafValues>
            -7.4765241146087646e-01 5.1482182741165161e-01</leafValues></_></weakClassifiers></_>
    <!-- stage 13 -->
    <_>
      <maxWeakCount>4</maxWeakCount>
      <stageThreshold>-9.3445539474487305e-02</stageThreshold>
      <weakClassifiers>
        <_>
          <internalNodes>
            0 -1 64 -1107349627 939523967 2147483639 1610612735
            2113916911 1870659583 -1342275651 950807981</internalNodes>
          <leafValues>
            -6.4705884456634521e-01 6.7609256505966187e-01</leafValues></_>
        <_>
          <internalNodes>
            0 -1 30 -571043915 -1610776577 -81 -268435457 1333231607
            2012708863 -9 -1</internalNodes>
          <leafValues>
            -5.4034787416458130e-01 6.8769896030426025e-01</leafValues></_>
        <_>
          <internalNodes>
            0 -1 41 486552513 1880147968 1159726405 -1861203696
            268533939 -1702885238 -2147450725 2065696900</internalNodes>
          <leafValues>
            -6.5050423145294189e-01 5.8170521259307861e-01</leafValues></_>
        <_>
          <internalNodes>
            0 -1 88 -1034558526 98323 134218160 -717224813 65547
            -2147384254 -1996471804 -125654414</internalNodes>
          <leafValues>
            -6.9684976339340210e-01 5.1641857624053955e-01</leafValues></_></weakClassifiers></_>
    <!-- stage 14 -->
    <_>
      <maxWeakCount>4</maxWeakCount>
      <stageThreshold>-2.6601198315620422e-01</stageThreshold>
      <weakClassifiers>
        <_>
          <internalNodes>
            0 -1 63 -65539 133103615 -131073 402653181 -3 788529151
            -50479876 150796799</internalNodes>
          <leafValues>
            -5.7679182291030884e-01 6.8560105562210083e-01</leafValues></_>
        <_>
          <internalNodes>
            0 -1 12 -1610358373 -1609400175 540038166 -526743397
            -780041854 1209139200 -2143120766 -401804543</internalNodes>
          <leafValues>
            -7.4873858690261841e-01 5.4520207643508911e-01</leafValues></_>
        <_>
          <internalNodes>
            0 -1 49 -1342161412 -1862238191 19992787 1963003905
            -2113363541 -1181220856 -1534539522 -1430640384</internalNodes>
          <leafValues>
            -5.9639132022857666e-01 6.0359269380569458e-01</leafValues></_>
        <_>
          <internalNodes>
            0 -1 14 -972767148 1091125249 805310738 -973045494
            -2004811641 0 -402552693 -1601503229</internalNodes>
          <leafValues>
            -8.0646711587905884e-01 4.5853662490844727e-01</leafValues></_></weakClassifiers></_>
    <!-- stage 15 -->
    <_>
      <maxWeakCount>4</maxWeakCount>
      <stageThreshold>-2.3789235949516296e-01</stageThreshold>
      <weakClassifiers>
        <_>
          <internalNodes>
            0 -1 53 732970484 -1073905668 2013245167 -1073774595
            -268500993 -540673 -536969219 1425293300</internalNodes>
          <leafValues>
            -6.0727274417877197e-01 6.6709679365158081e-01</leafValues></_>
        <_>
          <internalNodes>
            0 -1 20 -565206400 1480687750 402665621 860954882
            -2146959200 -2004844536 8442042 1942188867</internalNodes>
          <leafValues>
            -7.5705265998840332e-01 5.0850737094879150e-01</leafValues></_>
        <_>
          <internalNodes>
            0 -1 81 -128654974 134381586 -2147483647 -1669216229 163970
            67108992 -2147384689 -1790476133</internalNodes>
          <leafValues>
            -6.2989294528961182e-01 6.3018548488616943e-01</leafValues></_>
        <_>
          <internalNodes>
            0 -1 29 1145487810 67158146 1140850688 -1060499454
            -1073741688 536903681 16941186 -161759206</internalNodes>
          <leafValues>
            -7.3757874965667725e-01 4.9624750018119812e-01</leafValues></_></weakClassifiers></_>
    <!-- stage 16 -->
    <_>
      <maxWeakCount>4</maxWeakCount>
      <stageThreshold>-1.1768869161605835e+00</stageThreshold>
      <weakClassifiers>
        <_>
          <internalNodes>
            0 -1 52 767049485 1040138239 -16385 -1073823745 2147483647
            -1 2147434495 -16385</internalNodes>
          <leafValues>
            -5.6610167026519775e-01 6.8476819992065430e-01</leafValues></_>
        <_>
          <internalNodes>
            0 -1 56 1272835974 2138501119 -2162689 2147450743 669970327
            -1078034434 2138945527 -1078452292</internalNodes>
          <leafValues>
            -4.7235623002052307e-01 6.5367168188095093e-01</leafValues></_>
        <_>
          <internalNodes>
            0 -1 33 -255352314 134840576 2165764 -1876950766 8620601
            75595939 -517766983 -695750120</internalNodes>
          <leafValues>
            -6.4258241653442383e-01 5.4126685857772827e-01</leafValues></_>
        <_>
          <internalNodes>
            0 -1 60 272639476 424771608 17171731 -149880831 -939515751
            -1719599104 1073805338 1176506880</internalNodes>
          <leafValues>
            -7.4671643972396851e-01 4.6185588836669922e-01</leafValues></_></weakClassifiers></_>
    <!-- stage 17 -->
    <_>
      <maxWeakCount>4</maxWeakCount>
      <stageThreshold>-2.7643537521362305e-01</stageThreshold>
      <weakClassifiers>
        <_>
          <internalNodes>
            0 -1 37 68285321 285773842 524369 2097414164 33818856
            260046976 133262 799359169</internalNodes>
          <leafValues>
            -7.0491802692413330e-01 6.4764267206192017e-01</leafValues></_>
        <_>
          <internalNodes>
            0 -1 23 -746077753 89391369 -1876946535 -1006239592
            -1073708888 -1920989056 -2147346278 -58685275</internalNodes>
          <leafValues>
            -6.9295495748519897e-01 5.2825576066970825e-01</leafValues></_>
        <_>
          <internalNodes>
            0 -1 31 -400310082 269516996 -1879048176 -1878980607 90113
            131088 1078034562 -327044832</internalNodes>
          <leafValues>
            -6.3680911064147949e-01 5.7616120576858521e-01</leafValues></_>
        <_>
          <internalNodes>
            0 -1 59 308547985 -805269504 1476461825 -1692856061
            -938831717 -2004746240 169986191 -132373888</internalNodes>
          <leafValues>
            -6.3481914997100830e-01 5.4527646303176880e-01</leafValues></_></weakClassifiers></_>
    <!-- stage 18 -->
    <_>
      <maxWeakCount>4</maxWeakCount>
      <stageThreshold>-3.6156404018402100e-01</stageThreshold>
      <weakClassifiers>
        <_>
          <internalNodes>
            0 -1 73 -2621512 994049855 -5308501 -1079050241 2139095039
            2139095039 -1073758289 247459839</internalNodes>
          <leafValues>
            -5.7664233446121216e-01 6.5463918447494507e-01</leafValues></_>
        <_>
          <internalNodes>
            0 -1 15 -1072414703 285278213 269522392 -1877340142
            134349210 -2004877184 -2130706294 -74776279</internalNodes>
          <leafValues>
            -7.2464936971664429e-01 4.9906450510025024e-01</leafValues></_>
        <_>
          <internalNodes>
            0 -1 25 -787951344 -2147481598 81 -1961533308 -2146926422
            130 -939474760 2059485348</internalNodes>
          <leafValues>
            -8.5082644224166870e-01 4.4226816296577454e-01</leafValues></_>
        <_>
          <internalNodes>
            0 -1 86 -246156918 1862389898 -2147483646 -778043195
            1074380811 1082130432 -1073741693 -891055453</internalNodes>
          <leafValues>
            -5.9842163324356079e-01 5.6684023141860962e-01</leafValues></_></weakClassifiers></_>
    <!-- stage 19 -->
    <_>
      <maxWeakCount>4</maxWeakCount>
      <stageThreshold>-2.6069024205207825e-01</stageThreshold>
      <weakClassifiers>
        <_>
          <internalNodes>
            0 -1 51 806944896 272711697 -2147483568 -142556927 557193
            -1996488528 -1740340807 1028131340</internalNodes>
          <leafValues>
            -7.5609755516052246e-01 5.9763312339782715e-01</leafValues></_>
        <_>
          <internalNodes>
            0 -1 78 -1014761524 1358955136 16777217 1426063366
            1392608168 536870976 -1740406610 2022158987</internalNodes>
          <leafValues>
            -6.0814672708511353e-01 5.6287014484405518e-01</leafValues></_>
        <_>
          <internalNodes>
            0 -1 8 -803618670 1426128896 402735105 65540 1082345659
            537001984 -2147466751 -234833918</internalNodes>
          <leafValues>
            -6.2007826566696167e-01 5.7203459739685059e-01</leafValues></_>
        <_>
          <internalNodes>
            0 -1 72 994108363 432029953 721490321 -1123544811
            -2143271654 32784 43681929 -1146615416</internalNodes>
          <leafValues>
            -6.2778580188751221e-01 5.5261546373367310e-01</leafValues></_></weakClassifiers></_>
    <!-- stage 20 -->
    <_>
      <maxWeakCount>5</maxWeakCount>
      <stageThreshold>-6.9809567928314209e-01</stageThreshold>
      <weakClassifiers>
        <_>
          <internalNodes>
            0 -1 67 519847864 -1073905679 -33570822 -50528274 -196609
            -262145 -2 -59441164</internalNodes>
          <leafValues>
            -5.9245282411575317e-01 6.4585989713668823e-01</leafValues></_>
        <_>
          <internalNodes>
            0 -1 27 2129651406 -1440223667 -1224749522 -1090523344
            -268435505 133168726 -150995725 -318767273</internalNodes>
          <leafValues>
            -4.9074941873550415e-01 6.8109732866287231e-01</leafValues></_>
        <_>
          <internalNodes>
            0 -1 13 1086435710 -754909179 -2129559469 -787415039
            2021683899 1887545472 -2147385183 98433</internalNodes>
          <leafValues>
            -7.0646494626998901e-01 4.7567021846771240e-01</leafValues></_>
        <_>
          <internalNodes>
            0 -1 70 -1807732275 -1995407327 16830865 -384823167
            -2147440200 -956300750 -2145187784 -1626664753</internalNodes>
          <leafValues>
            -5.7154065370559692e-01 6.5467560291290283e-01</leafValues></_>
        <_>
          <internalNodes>
            0 -1 2 22298896 84213779 134545669 224133126 -1669233768
            -2004342776 537723018 1875837571</internalNodes>
          <leafValues>
            -7.3495078086853027e-01 4.7985738515853882e-01</leafValues></_></weakClassifiers></_>
    <!-- stage 21 -->
    <_>
      <maxWeakCount>4</maxWeakCount>
      <stageThreshold>-2.8088977932929993e-01</stageThreshold>
      <weakClassifiers>
        <_>
          <internalNodes>
            0 -1 32 2147454668 -1090519041 -16887988 -268435458
            1560104444 -1 -45315 -50462721</internalNodes>
          <leafValues>
            -4.9358972907066345e-01 6.8292683362960815e-01</leafValues></_>
        <_>
          <internalNodes>
            0 -1 1 -1069093930 1074823441 16793873 226689298 1217399227
            -1475870584 143329419 948109314</internalNodes>
          <leafValues>
            -6.7220163345336914e-01 5.4292905330657959e-01</leafValues></_>
        <_>
          <internalNodes>
            0 -1 57 541657099 1361249025 268439825 -754904814 1073791130
            676331673 136595595 1049103128</internalNodes>
          <leafValues>
            -7.6000922918319702e-01 4.8504778742790222e-01</leafValues></_>
        <_>
          <internalNodes>
            0 -1 76 -766386150 856113304 114701 -2013200383 -1072660343
            134234112 -1341521768 -1966309246</internalNodes>
          <leafValues>
            -7.1340781450271606e-01 4.6839424967765808e-01</leafValues></_></weakClassifiers></_>
    <!-- stage 22 -->
    <_>
      <maxWeakCount>4</maxWeakCount>
      <stageThreshold>-1.6520429402589798e-02</stageThreshold>
      <weakClassifiers>
        <_>
          <internalNodes>
            0 -1 5 1375859027 318861312 -2147483221 -2147385214
            268469040 -2147450752 -1610592085 2039831043</internalNodes>
          <leafValues>
            -6.8464732170104980e-01 6.3658839464187622e-01</leafValues></_>
        <_>
          <internalNodes>
            0 -1 74 877854789 1595097233 -1878994943 -770535415
            1619001508 -939521920 -536788847 -640965241</internalNodes>
          <leafValues>
            -5.7651889324188232e-01 6.1534410715103149e-01</leafValues></_>
        <_>
          <internalNodes>
            0 -1 19 1136897899 1141113091 268435537 1207959812 134709448
            36992 1111556260 -1005862387</internalNodes>
          <leafValues>
            -6.2365853786468506e-01 6.0457319021224976e-01</leafValues></_>
        <_>
          <internalNodes>
            0 -1 65 914337057 1006073725 2013232895 536870911
            -1486880873 -1612201985 1073725373 -1141604387</internalNodes>
          <leafValues>
            -5.1399528980255127e-01 6.7644131183624268e-01</leafValues></_></weakClassifiers></_>
    <!-- stage 23 -->
    <_>
      <maxWeakCount>4</maxWeakCount>
      <stageThreshold>-2.4623464047908783e-01</stageThreshold>
      <weakClassifiers>
        <_>
          <internalNodes>
            0 -1 62 273711477 957415681 33837073 2016489740 835744
            1224737321 426803355 432542856</internalNodes>
          <leafValues>
            -7.3205739259719849e-01 5.9809750318527222e-01</leafValues></_>
        <_>
          <internalNodes>
            0 -1 84 -805179229 -601882528 268468688 -1725825023
            -2146942445 1224901513 -2146925932 -38566270</internalNodes>
          <leafValues>
            -6.1444246768951416e-01 6.0098040103912354e-01</leafValues></_>
        <_>
          <internalNodes>
            0 -1 24 -185616646 -1548959745 -1292025925 -1543848967
            -131076 -32771 -134400065 1069367295</internalNodes>
          <leafValues>
            -5.8194530010223389e-01 6.1941975355148315e-01</leafValues></_>
        <_>
          <internalNodes>
            0 -1 39 1364585156 537067522 1073807362 -1862201342 89520
            268566528 -1602158272 -1735802879</internalNodes>
          <leafValues>
            -7.5152605772018433e-01 4.8084548115730286e-01</leafValues></_></weakClassifiers></_>
    <!-- stage 24 -->
    <_>
      <maxWeakCount>4</maxWeakCount>
      <stageThreshold>-3.0104565620422363e-01</stageThreshold>
      <weakClassifiers>
        <_>
          <internalNodes>
            0 -1 48 269484816 -1862201326 268507448 286326784
            -2139062086 -1602224127 -2097119056 -1148714992</internalNodes>
          <leafValues>
            -6.4957267045974731e-01 6.1519604921340942e-01</leafValues></_>
        <_>
          <internalNodes>
            0 -1 55 814764317 1369113620 67207387 -1862205433
            -2147434310 -2147282944 1118505514 -1677983347</internalNodes>
          <leafValues>
            -5.8048379421234131e-01 5.3284609317779541e-01</leafValues></_>
        <_>
          <internalNodes>
            0 -1 21 -1043480572 4214786 16793860 -468643838 285245666
            1174568960 67143122 -1070882421</internalNodes>
          <leafValues>
            -6.5922671556472778e-01 5.6861561536788940e-01</leafValues></_>
        <_>
          <internalNodes>
            0 -1 85 2074550730 -2147479548 352325728 1484849282
            -2147401718 2293888 -1442692882 -234651645</internalNodes>
          <leafValues>
            -6.4353752136230469e-01 4.7490760684013367e-01</leafValues></_></weakClassifiers></_></stages>
  <features>
    <_>
      <rect>
        0 1 8 5</rect></_>
    <_>
      <rect>
        0 2 4 2</rect></_>
    <_>
      <rect>
        0 2 5 3</rect></_>
    <_>
      <rect>
        0 2 7 7</rect></_>
    <_>
      <rect>
        0 3 2 6</rect></_>
    <_>
      <rect>
        0 3 5 7</rect></_>
    <_>
      <rect>
        0 11 1 3</rect></_>
    <_>
      <rect>
        0 11 1 4</rect></_>
    <_>
      <rect>
        0 11 3 4</rect></_>
    <_>
      <rect>
        0 12 2 3</rect></_>
    <_>
      <rect>
        0 12 4 4</rect></_>
    <_>
      <rect>
        0 13 5 3</rect></_>
    <_>
      <rect>
        0 14 1 3</rect></_>
    <_>
      <rect>
        0 14 8 2</rect></_>
    <_>
      <rect>
        0 18 3 2</rect></_>
    <_>
      <rect>
        0 20 4 1</rect></_>
    <_>
      <rect>
        0 21 3 1</rect></_>
    <_>
      <rect>
        0 21 8 1</rect></_>
    <_>
      <rect>
        1 0 3 4</rect></_>
    <_>
      <rect>
        1 3 1 1</rect></_>
    <_>
      <rect>
        1 3 3 5</rect></_>
    <_>
      <rect>
        1 5 1 1</rect></_>
    <_>
      <rect>
        1 6 4 3</rect></_>
    <_>
      <rect>
        1 21 1 1</rect></_>
    <_>
      <rect>
        2 0 7 3</rect></_>
    <_>
      <rect>
        2 2 4 5</rect></_>
    <_>
      <rect>
        2 3 7 6</rect></_>
    <_>
      <rect>
        2 4 1 4</rect></_>
    <_>
      <rect>
        2 4 4 6</rect></_>
    <_>
      <rect>
        2 5 1 1</rect></_>
    <_>
      <rect>
        2 11 4 3</rect></_>
    <_>
      <rect>
        2 12 1 3</rect></_>
    <_>
      <rect>
        2 12 2 4</rect></_>
    <_>
      <rect>
        2 15 1 1</rect></_>
    <_>
      <rect>
        2 18 1 1</rect></_>
    <_>
      <rect>
        2 20 1 1</rect></_>
    <_>
      <rect>
        3 5 5 3</rect></_>
    <_>
      <rect>
        3 8 4 2</rect></_>
    <_>
      <rect>
        3 10 1 3</rect></_>
    <_>
      <rect>
        3 13 2 3</rect></_>
    <_>
      <rect>
        4 11 2 3</rect></_>
    <_>
      <rect>
        4 17 4 1</rect></_>
    <_>
      <rect>
        5 3 3 2</rect></_>
    <_>
      <rect>
        5 3 4 2</rect></_>
    <_>
      <rect>
        6 3 5 1</rect></_>
    <_>
      <rect>
        6 3 6 7</rect></_>
    <_>
      <rect>
        6 6 5 2</rect></_>
    <_>
      <rect>
        6 20 2 1</rect></_>
    <_>
      <rect>
        6 21 6 1</rect></_>
    <_>
      <rect>
        7 3 4 1</rect></_>
    <_>
      <rect>
        7 5 2 1</rect></_>
    <_>
      <rect>
        7 7 4 3</rect></_>
    <_>
      <rect>
        7 12 2 3</rect></_>
    <_>
      <rect>
        7 18 3 1</rect></_>
    <_>
      <rect>
        8 4 3 1</rect></_>
    <_>
      <rect>
        8 5 3 1</rect></_>
    <_>
      <rect>
        8 7 3 1</rect></_>
    <_>
      <rect>
        8 8 3 1</rect></_>
    <_>
      <rect>
        8 12 5 4</rect></_>
    <_>
      <rect>
        8 18 3 1</rect></_>
    <_>
      <rect>
        8 19 4 1</rect></_>
    <_>
      <rect>
        9 4 3 1</rect></_>
    <_>
      <rect>
        9 6 2 1</rect></_>
    <_>
      <rect>
        9 6 5 2</rect></_>
    <_>
      <rect>
        9 7 4 2</rect></_>
    <_>
      <rect>
        9 8 3 1</rect></_>
    <_>
      <rect>
        9 18 5 2</rect></_>
    <_>
      <rect>
        9 20 3 1</rect></_>
    <_>
      <rect>
        9 21 1 1</rect></_>
    <_>
      <rect>
        10 21 3 1</rect></_>
    <_>
      <rect>
        11 2 3 1</rect></_>
    <_>
      <rect>
        12 1 4 3</rect></_>
    <_>
      <rect>
        12 5 2 1</rect></_>
    <_>
      <rect>
        12 8 4 5</rect></_>
    <_>
      <rect>
        12 10 2 3</rect></_>
    <_>
      <rect>
        13 21 2 1</rect></_>
    <_>
      <rect>
        14 11 3 3</rect></_>
    <_>
      <rect>
        14 12 3 3</rect></_>
    <_>
      <rect>
        15 2 3 4</rect></_>
    <_>
      <rect>
        15 15 3 3</rect></_>
    <_>
      <rect>
        16 11 1 3</rect></_>
    <_>
      <rect>
        17 12 2 3</rect></_>
    <_>
      <rect>
        18 2 2 6</rect></_>
    <_>
      <rect>
        18 12 2 3</rect></_>
    <_>
      <rect>
        18 20 2 1</rect></_>
    <_>
      <rect>
        20 7 1 1</rect></_>
    <_>
      <rect>
        20 8 1 3</rect></_>
    <_>
      <rect>
        20 9 1 3</rect></_>
    <_>
      <rect>
        20 19 1 1</rect></_>
    <_>
      <rect>
        21 13 1 2</rect></_></features></cascade>
</opencv_storage>
