<?xml version="1.0"?>
<opencv_storage>
<cascade>
  <stageType>BOOST</stageType>
  <featureType>HAAR</featureType>
  <height>24</height>
  <width>24</width>
  <stageParams>
    <boostType>GAB</boostType>
    <minHitRate>9.9500000476837158e-01</minHitRate>
    <maxFalseAlarm>5.0000000000000000e-01</maxFalseAlarm>
    <weightTrimRate>9.4999999999999996e-01</weightTrimRate>
    <maxDepth>1</maxDepth>
    <maxWeakCount>100</maxWeakCount></stageParams>
  <featureParams>
    <maxCatCount>0</maxCatCount>
    <featSize>1</featSize>
    <mode>BASIC</mode></featureParams>
  <stageNum>25</stageNum>
  <stages>
    <!-- stage 0 -->
    <_>
      <maxWeakCount>4</maxWeakCount>
      <stageThreshold>-8.0428498983383179e-01</stageThreshold>
      <weakClassifiers>
        <_>
          <internalNodes>
            0 -1 35 -5.6344640254974365e-01</internalNodes>
          <leafValues>
            8.9200866222381592e-01 -8.5185188055038452e-01</leafValues></_>
        <_>
          <internalNodes>
            0 -1 183 1.7447405261918902e-03</internalNodes>
          <leafValues>
            -5.8571916818618774e-01 7.5217205286026001e-01</leafValues></_>
        <_>
          <internalNodes>
            0 -1 39 -1.6282590804621577e-03</internalNodes>
          <leafValues>
            6.4309978485107422e-01 -6.0387635231018066e-01</leafValues></_>
        <_>
          <internalNodes>
            0 -1 30 -4.0588979609310627e-03</internalNodes>
          <leafValues>
            7.4770563840866089e-01 -5.0669807195663452e-01</leafValues></_></weakClassifiers></_>
    <!-- stage 1 -->
    <_>
      <maxWeakCount>4</maxWeakCount>
      <stageThreshold>-7.7551341056823730e-01</stageThreshold>
      <weakClassifiers>
        <_>
          <internalNodes>
            0 -1 13 2.0504439249634743e-02</internalNodes>
          <leafValues>
            -6.1494255065917969e-01 8.4700667858123779e-01</leafValues></_>
        <_>
          <internalNodes>
            0 -1 147 -5.6959994137287140e-02</internalNodes>
          <leafValues>
            8.8854205608367920e-01 -4.3354436755180359e-01</leafValues></_>
        <_>
          <internalNodes>
            0 -1 227 -6.0023404657840729e-03</internalNodes>
          <leafValues>
            8.3243709802627563e-01 -3.0205500125885010e-01</leafValues></_>
        <_>
          <internalNodes>
            0 -1 3 -2.2937932983040810e-02</internalNodes>
          <leafValues>
            5.7502847909927368e-01 -5.2459216117858887e-01</leafValues></_></weakClassifiers></_>
    <!-- stage 2 -->
    <_>
      <maxWeakCount>5</maxWeakCount>
      <stageThreshold>-1.0893766880035400e+00</stageThreshold>
      <weakClassifiers>
        <_>
          <internalNodes>
            0 -1 149 4.7925831750035286e-03</internalNodes>
          <leafValues>
            -6.3763064146041870e-01 7.6116305589675903e-01</leafValues></_>
        <_>
          <internalNodes>
            0 -1 2 -3.0587315559387207e-02</internalNodes>
          <leafValues>
            6.9784456491470337e-01 -5.3275841474533081e-01</leafValues></_>
        <_>
          <internalNodes>
            0 -1 143 -7.1783848106861115e-03</internalNodes>
          <leafValues>
            -4.6060049533843994e-01 6.7610710859298706e-01</leafValues></_>
        <_>
          <internalNodes>
            0 -1 215 -2.7371507138013840e-02</internalNodes>
          <leafValues>
            8.6580002307891846e-01 -3.8421919941902161e-01</leafValues></_>
        <_>
          <internalNodes>
            0 -1 200 4.8618290573358536e-02</internalNodes>
          <leafValues>
            -3.2418709993362427e-01 9.3290114402770996e-01</leafValues></_></weakClassifiers></_>
    <!-- stage 3 -->
    <_>
      <maxWeakCount>6</maxWeakCount>
      <stageThreshold>-9.5015347003936768e-01</stageThreshold>
      <weakClassifiers>
        <_>
          <internalNodes>
            0 -1 92 -1.0018963366746902e-01</internalNodes>
          <leafValues>
            8.7945878505706787e-01 -3.7757438421249390e-01</leafValues></_>
        <_>
          <internalNodes>
            0 -1 158 -2.7430616319179535e-04</internalNodes>
          <leafValues>
            6.2598615884780884e-01 -6.2645715475082397e-01</leafValues></_>
        <_>
          <internalNodes>
            0 -1 49 1.0470994748175144e-03</internalNodes>
          <leafValues>
            -4.0994447469711304e-01 6.5404307842254639e-01</leafValues></_>
        <_>
          <internalNodes>
            0 -1 105 -1.3969829678535461e-01</internalNodes>
          <leafValues>
            8.5802352428436279e-01 -3.4200772643089294e-01</leafValues></_>
        <_>
          <internalNodes>
            0 -1 50 -2.5387440473423339e-05</internalNodes>
          <leafValues>
            4.3484151363372803e-01 -5.8136856555938721e-01</leafValues></_>
        <_>
          <internalNodes>
            0 -1 135 -1.0508703999221325e-03</internalNodes>
          <leafValues>
            -8.6256337165832520e-01 3.2321128249168396e-01</leafValues></_></weakClassifiers></_>
    <!-- stage 4 -->
    <_>
      <maxWeakCount>5</maxWeakCount>
      <stageThreshold>-2.1451352536678314e-01</stageThreshold>
      <weakClassifiers>
        <_>
          <internalNodes>
            0 -1 44 -3.9464556612074375e-03</internalNodes>
          <leafValues>
            8.3138173818588257e-01 -4.0404039621353149e-01</leafValues></_>
        <_>
          <internalNodes>
            0 -1 178 1.2559452094137669e-02</internalNodes>
          <leafValues>
            -3.3814150094985962e-01 8.3477747440338135e-01</leafValues></_>
        <_>
          <internalNodes>
            0 -1 82 -2.0876549184322357e-02</internalNodes>
          <leafValues>
            7.8889882564544678e-01 -3.4279492497444153e-01</leafValues></_>
        <_>
          <internalNodes>
            0 -1 29 2.8149792924523354e-03</internalNodes>
          <leafValues>
            -4.7883835434913635e-01 5.5699247121810913e-01</leafValues></_>
        <_>
          <internalNodes>
            0 -1 104 1.7553424462676048e-02</internalNodes>
          <leafValues>
            3.1347081065177917e-01 -8.6540681123733521e-01</leafValues></_></weakClassifiers></_>
    <!-- stage 5 -->
    <_>
      <maxWeakCount>5</maxWeakCount>
      <stageThreshold>-7.0788520574569702e-01</stageThreshold>
      <weakClassifiers>
        <_>
          <internalNodes>
            0 -1 170 1.1887920554727316e-03</internalNodes>
          <leafValues>
            -5.5033558607101440e-01 7.5000000000000000e-01</leafValues></_>
        <_>
          <internalNodes>
            0 -1 106 -1.3894702494144440e-01</internalNodes>
          <leafValues>
            8.5799252986907959e-01 -3.2757291197776794e-01</leafValues></_>
        <_>
          <internalNodes>
            0 -1 25 3.3990722149610519e-03</internalNodes>
          <leafValues>
            -6.0213595628738403e-01 5.5173772573471069e-01</leafValues></_>
        <_>
          <internalNodes>
            0 -1 185 -3.9977111737243831e-04</internalNodes>
          <leafValues>
            3.9343765377998352e-01 -7.0880013704299927e-01</leafValues></_>
        <_>
          <internalNodes>
            0 -1 99 -6.4666843973100185e-03</internalNodes>
          <leafValues>
            -7.1709245443344116e-01 3.2708567380905151e-01</leafValues></_></weakClassifiers></_>
    <!-- stage 6 -->
    <_>
      <maxWeakCount>8</maxWeakCount>
      <stageThreshold>-7.1614378690719604e-01</stageThreshold>
      <weakClassifiers>
        <_>
          <internalNodes>
            0 -1 116 -7.6869730837643147e-03</internalNodes>
          <leafValues>
            7.9795688390731812e-01 -4.1463413834571838e-01</leafValues></_>
        <_>
          <internalNodes>
            0 -1 212 -1.0472187568666413e-04</internalNodes>
          <leafValues>
            5.2707201242446899e-01 -5.9850031137466431e-01</leafValues></_>
        <_>
          <internalNodes>
            0 -1 0 -5.8671280741691589e-02</internalNodes>
          <leafValues>
            -8.0555009841918945e-01 3.0356553196907043e-01</leafValues></_>
        <_>
          <internalNodes>
            0 -1 153 -6.5683387219905853e-02</internalNodes>
          <leafValues>
            2.9050129652023315e-01 -8.8215839862823486e-01</leafValues></_>
        <_>
          <internalNodes>
            0 -1 75 -2.8584541752934456e-02</internalNodes>
          <leafValues>
            7.9269587993621826e-01 -3.7831056118011475e-01</leafValues></_>
        <_>
          <internalNodes>
            0 -1 34 2.8242427855730057e-02</internalNodes>
          <leafValues>
            -3.1047827005386353e-01 7.2717082500457764e-01</leafValues></_>
        <_>
          <internalNodes>
            0 -1 107 -7.7340975403785706e-02</internalNodes>
          <leafValues>
            8.3760911226272583e-01 -1.9876030087471008e-01</leafValues></_>
        <_>
          <internalNodes>
            0 -1 166 1.3863855972886086e-02</internalNodes>
          <leafValues>
            -2.9685351252555847e-01 5.9047299623489380e-01</leafValues></_></weakClassifiers></_>
    <!-- stage 7 -->
    <_>
      <maxWeakCount>7</maxWeakCount>
      <stageThreshold>-4.6073701977729797e-01</stageThreshold>
      <weakClassifiers>
        <_>
          <internalNodes>
            0 -1 173 -1.4492599293589592e-02</internalNodes>
          <leafValues>
            7.4057650566101074e-01 -3.3908045291900635e-01</leafValues></_>
        <_>
          <internalNodes>
            0 -1 146 -2.7650204719975591e-04</internalNodes>
          <leafValues>
            5.6042480468750000e-01 -5.0473541021347046e-01</leafValues></_>
        <_>
          <internalNodes>
            0 -1 218 -1.8676254898309708e-02</internalNodes>
          <leafValues>
            6.4128357172012329e-01 -3.3875948190689087e-01</leafValues></_>
        <_>
          <internalNodes>
            0 -1 195 3.7557799369096756e-03</internalNodes>
          <leafValues>
            -4.0703415870666504e-01 5.0344175100326538e-01</leafValues></_>
        <_>
          <internalNodes>
            0 -1 32 2.7882441878318787e-02</internalNodes>
          <leafValues>
            -3.5046356916427612e-01 5.6328493356704712e-01</leafValues></_>
        <_>
          <internalNodes>
            0 -1 129 -1.9156144117005169e-04</internalNodes>
          <leafValues>
            -7.1965378522872925e-01 2.7948039770126343e-01</leafValues></_>
        <_>
          <internalNodes>
            0 -1 61 -5.6328163482248783e-03</internalNodes>
          <leafValues>
            2.8937971591949463e-01 -6.6316992044448853e-01</leafValues></_></weakClassifiers></_>
    <!-- stage 8 -->
    <_>
      <maxWeakCount>7</maxWeakCount>
      <stageThreshold>-9.7052878141403198e-01</stageThreshold>
      <weakClassifiers>
        <_>
          <internalNodes>
            0 -1 229 -8.2705497741699219e-02</internalNodes>
          <leafValues>
            -7.6315790414810181e-01 6.0655736923217773e-01</leafValues></_>
        <_>
          <internalNodes>
            0 -1 98 -1.1534439027309418e-01</internalNodes>
          <leafValues>
            3.8295298814773560e-01 -7.1101009845733643e-01</leafValues></_>
        <_>
          <internalNodes>
            0 -1 36 -9.2856474220752716e-03</internalNodes>
          <leafValues>
            3.6286222934722900e-01 -5.8224803209304810e-01</leafValues></_>
        <_>
          <internalNodes>
            0 -1 219 -1.9422969780862331e-03</internalNodes>
          <leafValues>
            5.4163658618927002e-01 -3.9302980899810791e-01</leafValues></_>
        <_>
          <internalNodes>
            0 -1 67 5.9568003052845597e-04</internalNodes>
          <leafValues>
            -4.6005555987358093e-01 4.0597864985466003e-01</leafValues></_>
        <_>
          <internalNodes>
            0 -1 120 -2.1986905485391617e-02</internalNodes>
          <leafValues>
            -8.4698498249053955e-01 2.3693317174911499e-01</leafValues></_>
        <_>
          <internalNodes>
            0 -1 181 2.7570177917368710e-04</internalNodes>
          <leafValues>
            2.0961362123489380e-01 -7.6163887977600098e-01</leafValues></_></weakClassifiers></_>
    <!-- stage 9 -->
    <_>
      <maxWeakCount>10</maxWeakCount>
      <stageThreshold>-7.9392659664154053e-01</stageThreshold>
      <weakClassifiers>
        <_>
          <internalNodes>
            0 -1 169 1.4327756129205227e-02</internalNodes>
          <leafValues>
            -4.6666666865348816e-01 6.8979591131210327e-01</leafValues></_>
        <_>
          <internalNodes>
            0 -1 40 -8.7274834513664246e-03</internalNodes>
          <leafValues>
            -8.4615623950958252e-01 3.2159349322319031e-01</leafValues></_>
        <_>
          <internalNodes>
            0 -1 226 -7.4436976574361324e-03</internalNodes>
          <leafValues>
            5.9044486284255981e-01 -3.8697800040245056e-01</leafValues></_>
        <_>
          <internalNodes>
            0 -1 55 4.7105602920055389e-02</internalNodes>
          <leafValues>
            -2.4111831188201904e-01 7.8180962800979614e-01</leafValues></_>
        <_>
          <internalNodes>
            0 -1 42 -3.3577163703739643e-03</internalNodes>
          <leafValues>
            3.0467376112937927e-01 -6.6182035207748413e-01</leafValues></_>
        <_>
          <internalNodes>
            0 -1 177 4.3208734132349491e-04</internalNodes>
          <leafValues>
            2.2276909649372101e-01 -7.1082603931427002e-01</leafValues></_>
        <_>
          <internalNodes>
            0 -1 221 4.4453591108322144e-02</internalNodes>
          <leafValues>
            1.7405869066715240e-01 -8.4681910276412964e-01</leafValues></_>
        <_>
          <internalNodes>
            0 -1 172 -5.7973820716142654e-02</internalNodes>
          <leafValues>
            1.3548126816749573e-01 -9.1551184654235840e-01</leafValues></_>
        <_>
          <internalNodes>
            0 -1 136 -1.2143324129283428e-02</internalNodes>
          <leafValues>
            -5.7752209901809692e-01 3.8032275438308716e-01</leafValues></_>
        <_>
          <internalNodes>
            0 -1 56 8.3202337846159935e-03</internalNodes>
          <leafValues>
            -3.0446752905845642e-01 7.2211343050003052e-01</leafValues></_></weakClassifiers></_>
    <!-- stage 10 -->
    <_>
      <maxWeakCount>10</maxWeakCount>
      <stageThreshold>-2.5293171405792236e-01</stageThreshold>
      <weakClassifiers>
        <_>
          <internalNodes>
            0 -1 183 1.7222743481397629e-03</internalNodes>
          <leafValues>
            -4.0441176295280457e-01 6.7484664916992188e-01</leafValues></_>
        <_>
          <internalNodes>
            0 -1 69 -3.0481421947479248e-01</internalNodes>
          <leafValues>
            3.5294127464294434e-01 -7.9588663578033447e-01</leafValues></_>
        <_>
          <internalNodes>
            0 -1 207 -6.6651636734604836e-03</internalNodes>
          <leafValues>
            -8.5344350337982178e-01 2.6721599698066711e-01</leafValues></_>
        <_>
          <internalNodes>
            0 -1 228 -6.8658628151752055e-05</internalNodes>
          <leafValues>
            2.8119820356369019e-01 -5.9308779239654541e-01</leafValues></_>
        <_>
          <internalNodes>
            0 -1 88 -6.6868074238300323e-02</internalNodes>
          <leafValues>
            3.2984638214111328e-01 -5.4952424764633179e-01</leafValues></_>
        <_>
          <internalNodes>
            0 -1 6 -5.6855776347219944e-04</internalNodes>
          <leafValues>
            -5.7624769210815430e-01 2.6995196938514709e-01</leafValues></_>
        <_>
          <internalNodes>
            0 -1 138 -1.2604775838553905e-02</internalNodes>
          <leafValues>
            1.9917553663253784e-01 -7.5437486171722412e-01</leafValues></_>
        <_>
          <internalNodes>
            0 -1 189 8.1226101610809565e-04</internalNodes>
          <leafValues>
            2.9009354114532471e-01 -5.9207338094711304e-01</leafValues></_>
        <_>
          <internalNodes>
            0 -1 126 6.6938130185008049e-03</internalNodes>
          <leafValues>
            -6.5228658914566040e-01 2.2859118878841400e-01</leafValues></_>
        <_>
          <internalNodes>
            0 -1 199 -3.4167308360338211e-02</internalNodes>
          <leafValues>
            9.6293181180953979e-01 -1.9821447134017944e-01</leafValues></_></weakClassifiers></_>
    <!-- stage 11 -->
    <_>
      <maxWeakCount>9</maxWeakCount>
      <stageThreshold>-7.6124542951583862e-01</stageThreshold>
      <weakClassifiers>
        <_>
          <internalNodes>
            0 -1 83 -7.0581294130533934e-04</internalNodes>
          <leafValues>
            6.9989049434661865e-01 -2.6409494876861572e-01</leafValues></_>
        <_>
          <internalNodes>
            0 -1 86 -1.5946823358535767e-01</internalNodes>
          <leafValues>
            6.0681289434432983e-01 -3.1023269891738892e-01</leafValues></_>
        <_>
          <internalNodes>
            0 -1 176 -2.0485070347785950e-01</internalNodes>
          <leafValues>
            2.4411894381046295e-01 -7.7307331562042236e-01</leafValues></_>
        <_>
          <internalNodes>
            0 -1 161 1.2510388623923063e-03</internalNodes>
          <leafValues>
            2.1355277299880981e-01 -7.7602106332778931e-01</leafValues></_>
        <_>
          <internalNodes>
            0 -1 112 -3.8558139931410551e-03</internalNodes>
          <leafValues>
            -5.2085298299789429e-01 3.0891627073287964e-01</leafValues></_>
        <_>
          <internalNodes>
            0 -1 23 7.8138187527656555e-03</internalNodes>
          <leafValues>
            -4.2659908533096313e-01 4.0473544597625732e-01</leafValues></_>
        <_>
          <internalNodes>
            0 -1 96 9.2253573238849640e-03</internalNodes>
          <leafValues>
            1.4413809776306152e-01 -8.5597515106201172e-01</leafValues></_>
        <_>
          <internalNodes>
            0 -1 20 -9.3068242073059082e-02</internalNodes>
          <leafValues>
            1.7309357225894928e-01 -7.9716467857360840e-01</leafValues></_>
        <_>
          <internalNodes>
            0 -1 117 -1.3423934578895569e-03</internalNodes>
          <leafValues>
            -7.7108007669448853e-01 1.7932675778865814e-01</leafValues></_></weakClassifiers></_>
    <!-- stage 12 -->
    <_>
      <maxWeakCount>9</maxWeakCount>
      <stageThreshold>-9.2780983448028564e-01</stageThreshold>
      <weakClassifiers>
        <_>
          <internalNodes>
            0 -1 9 5.8671338483691216e-03</internalNodes>
          <leafValues>
            6.0664820671081543e-01 -6.4071857929229736e-01</leafValues></_>
        <_>
          <internalNodes>
            0 -1 5 -2.8821669518947601e-02</internalNodes>
          <leafValues>
            4.4389256834983826e-01 -5.1700031757354736e-01</leafValues></_>
        <_>
          <internalNodes>
            0 -1 171 -1.1193693353561684e-04</internalNodes>
          <leafValues>
            3.3199292421340942e-01 -6.2787854671478271e-01</leafValues></_>
        <_>
          <internalNodes>
            0 -1 95 -1.7952833324670792e-02</internalNodes>
          <leafValues>
            -7.6927560567855835e-01 1.9331969320774078e-01</leafValues></_>
        <_>
          <internalNodes>
            0 -1 204 8.9206645498052239e-04</internalNodes>
          <leafValues>
            -2.8537353873252869e-01 6.4289391040802002e-01</leafValues></_>
        <_>
          <internalNodes>
            0 -1 68 6.0234044212847948e-04</internalNodes>
          <leafValues>
            -4.4815790653228760e-01 3.3489489555358887e-01</leafValues></_>
        <_>
          <internalNodes>
            0 -1 10 -8.0641560256481171e-02</internalNodes>
          <leafValues>
            1.3690729439258575e-01 -9.0663331747055054e-01</leafValues></_>
        <_>
          <internalNodes>
            0 -1 144 -7.2028944268822670e-03</internalNodes>
          <leafValues>
            -6.2617909908294678e-01 2.9726767539978027e-01</leafValues></_>
        <_>
          <internalNodes>
            0 -1 110 2.4154152924893424e-05</internalNodes>
          <leafValues>
            -2.8354239463806152e-01 5.4295563697814941e-01</leafValues></_></weakClassifiers></_>
    <!-- stage 13 -->
    <_>
      <maxWeakCount>11</maxWeakCount>
      <stageThreshold>-6.3892763853073120e-01</stageThreshold>
      <weakClassifiers>
        <_>
          <internalNodes>
            0 -1 139 -2.3938424419611692e-05</internalNodes>
          <leafValues>
            6.4227640628814697e-01 -3.0827066302299500e-01</leafValues></_>
        <_>
          <internalNodes>
            0 -1 155 8.2543573807924986e-04</internalNodes>
          <leafValues>
            -2.8171995282173157e-01 6.2208414077758789e-01</leafValues></_>
        <_>
          <internalNodes>
            0 -1 84 -1.3129058480262756e-01</internalNodes>
          <leafValues>
            2.5802263617515564e-01 -6.2376564741134644e-01</leafValues></_>
        <_>
          <internalNodes>
            0 -1 59 -5.0241846591234207e-02</internalNodes>
          <leafValues>
            5.2083629369735718e-01 -3.4467208385467529e-01</leafValues></_>
        <_>
          <internalNodes>
            0 -1 51 5.2760057151317596e-03</internalNodes>
          <leafValues>
            -4.0203976631164551e-01 3.8775002956390381e-01</leafValues></_>
        <_>
          <internalNodes>
            0 -1 130 -3.6093231756240129e-03</internalNodes>
          <leafValues>
            -5.3648412227630615e-01 3.0466696619987488e-01</leafValues></_>
        <_>
          <internalNodes>
            0 -1 213 -2.8472140431404114e-02</internalNodes>
          <leafValues>
            5.2002990245819092e-01 -3.2436951994895935e-01</leafValues></_>
        <_>
          <internalNodes>
            0 -1 186 -8.5252739489078522e-02</internalNodes>
          <leafValues>
            2.3199717700481415e-01 -5.3840774297714233e-01</leafValues></_>
        <_>
          <internalNodes>
            0 -1 134 -2.0105790346860886e-02</internalNodes>
          <leafValues>
            7.3912632465362549e-01 -1.8938128650188446e-01</leafValues></_>
        <_>
          <internalNodes>
            0 -1 231 -2.3618862542207353e-05</internalNodes>
          <leafValues>
            2.7410843968391418e-01 -5.2054429054260254e-01</leafValues></_>
        <_>
          <internalNodes>
            0 -1 18 -5.4620327427983284e-03</internalNodes>
          <leafValues>
            -8.9658427238464355e-01 1.4273044466972351e-01</leafValues></_></weakClassifiers></_>
    <!-- stage 14 -->
    <_>
      <maxWeakCount>12</maxWeakCount>
      <stageThreshold>-1.0516506433486938e+00</stageThreshold>
      <weakClassifiers>
        <_>
          <internalNodes>
            0 -1 14 3.7301152944564819e-02</internalNodes>
          <leafValues>
            -3.8211381435394287e-01 6.4143425226211548e-01</leafValues></_>
        <_>
          <internalNodes>
            0 -1 101 -9.4862086698412895e-03</internalNodes>
          <leafValues>
            4.0672928094863892e-01 -4.1349545121192932e-01</leafValues></_>
        <_>
          <internalNodes>
            0 -1 211 -2.7459562988951802e-04</internalNodes>
          <leafValues>
            3.5455816984176636e-01 -5.0517165660858154e-01</leafValues></_>
        <_>
          <internalNodes>
            0 -1 122 -1.6414688434451818e-03</internalNodes>
          <leafValues>
            -6.7431730031967163e-01 2.0736718177795410e-01</leafValues></_>
        <_>
          <internalNodes>
            0 -1 19 -1.7413243651390076e-02</internalNodes>
          <leafValues>
            1.7950730025768280e-01 -8.5236132144927979e-01</leafValues></_>
        <_>
          <internalNodes>
            0 -1 206 7.8683523461222649e-03</internalNodes>
          <leafValues>
            1.7217327654361725e-01 -7.3357546329498291e-01</leafValues></_>
        <_>
          <internalNodes>
            0 -1 214 -9.8577719181776047e-03</internalNodes>
          <leafValues>
            6.7395335435867310e-01 -2.4136431515216827e-01</leafValues></_>
        <_>
          <internalNodes>
            0 -1 54 -8.6069501936435699e-02</internalNodes>
          <leafValues>
            -7.3007464408874512e-01 1.8909235298633575e-01</leafValues></_>
        <_>
          <internalNodes>
            0 -1 128 -6.8939909397158772e-05</internalNodes>
          <leafValues>
            1.0821109265089035e-01 -1.</leafValues></_>
        <_>
          <internalNodes>
            0 -1 43 -2.4397626984864473e-03</internalNodes>
          <leafValues>
            2.1259512007236481e-01 -6.6741997003555298e-01</leafValues></_>
        <_>
          <internalNodes>
            0 -1 37 7.0828110910952091e-03</internalNodes>
          <leafValues>
            1.8126057088375092e-01 -7.8868216276168823e-01</leafValues></_>
        <_>
          <internalNodes>
            0 -1 22 3.5161287523806095e-03</internalNodes>
          <leafValues>
            1.2415216863155365e-01 -8.5670095682144165e-01</leafValues></_></weakClassifiers></_>
    <!-- stage 15 -->
    <_>
      <maxWeakCount>14</maxWeakCount>
      <stageThreshold>-8.0516648292541504e-01</stageThreshold>
      <weakClassifiers>
        <_>
          <internalNodes>
            0 -1 182 3.1661675311625004e-03</internalNodes>
          <leafValues>
            -1.8654434382915497e-01 6.6197180747985840e-01</leafValues></_>
        <_>
          <internalNodes>
            0 -1 80 1.3589528203010559e-01</internalNodes>
          <leafValues>
            -1.5541994571685791e-01 7.3939770460128784e-01</leafValues></_>
        <_>
          <internalNodes>
            0 -1 102 -2.4693258106708527e-02</internalNodes>
          <leafValues>
            6.6183012723922729e-01 -1.9991432130336761e-01</leafValues></_>
        <_>
          <internalNodes>
            0 -1 152 -1.5486046904698014e-03</internalNodes>
          <leafValues>
            1.3217598199844360e-01 -9.2391622066497803e-01</leafValues></_>
        <_>
          <internalNodes>
            0 -1 65 5.2507519721984863e-03</internalNodes>
          <leafValues>
            -2.4629889428615570e-01 5.7878017425537109e-01</leafValues></_>
        <_>
          <internalNodes>
            0 -1 57 -3.8420639932155609e-02</internalNodes>
          <leafValues>
            6.4872258901596069e-01 -2.2289477288722992e-01</leafValues></_>
        <_>
          <internalNodes>
            0 -1 78 2.3883640766143799e-02</internalNodes>
          <leafValues>
            -2.2782224416732788e-01 5.5398654937744141e-01</leafValues></_>
        <_>
          <internalNodes>
            0 -1 137 -2.0538683747872710e-04</internalNodes>
          <leafValues>
            1.3450427353382111e-01 -9.8128384351730347e-01</leafValues></_>
        <_>
          <internalNodes>
            0 -1 179 1.5071660163812339e-04</internalNodes>
          <leafValues>
            1.3308523595333099e-01 -7.5018852949142456e-01</leafValues></_>
        <_>
          <internalNodes>
            0 -1 100 -9.3446582555770874e-02</internalNodes>
          <leafValues>
            8.2431703805923462e-01 -1.6544517874717712e-01</leafValues></_>
        <_>
          <internalNodes>
            0 -1 12 -2.3960219696164131e-03</internalNodes>
          <leafValues>
            -7.6928400993347168e-01 1.7578043043613434e-01</leafValues></_>
        <_>
          <internalNodes>
            0 -1 93 -7.4749916791915894e-02</internalNodes>
          <leafValues>
            4.2551213502883911e-01 -2.9745393991470337e-01</leafValues></_>
        <_>
          <internalNodes>
            0 -1 27 5.0684181042015553e-03</internalNodes>
          <leafValues>
            -5.1151531934738159e-01 2.6429158449172974e-01</leafValues></_>
        <_>
          <internalNodes>
            0 -1 132 -2.4222980719059706e-03</internalNodes>
          <leafValues>
            -7.9772841930389404e-01 1.3774627447128296e-01</leafValues></_></weakClassifiers></_>
    <!-- stage 16 -->
    <_>
      <maxWeakCount>12</maxWeakCount>
      <stageThreshold>-9.2397248744964600e-01</stageThreshold>
      <weakClassifiers>
        <_>
          <internalNodes>
            0 -1 165 4.1843280196189880e-02</internalNodes>
          <leafValues>
            -1.1428571492433548e-01 7.2048193216323853e-01</leafValues></_>
        <_>
          <internalNodes>
            0 -1 109 -1.6471993923187256e-01</internalNodes>
          <leafValues>
            7.8795218467712402e-01 -1.1831298470497131e-01</leafValues></_>
        <_>
          <internalNodes>
            0 -1 142 3.0306979169836268e-05</internalNodes>
          <leafValues>
            -6.9940078258514404e-01 2.3689940571784973e-01</leafValues></_>
        <_>
          <internalNodes>
            0 -1 123 -4.3600093340501189e-04</internalNodes>
          <leafValues>
            -6.9103258848190308e-01 1.9159781932830811e-01</leafValues></_>
        <_>
          <internalNodes>
            0 -1 52 -3.1871764804236591e-05</internalNodes>
          <leafValues>
            2.2929383814334869e-01 -5.6291353702545166e-01</leafValues></_>
        <_>
          <internalNodes>
            0 -1 73 6.3519114628434181e-03</internalNodes>
          <leafValues>
            -2.6656514406204224e-01 5.7805269956588745e-01</leafValues></_>
        <_>
          <internalNodes>
            0 -1 7 -7.4116159230470657e-03</internalNodes>
          <leafValues>
            1.7414648830890656e-01 -9.2078620195388794e-01</leafValues></_>
        <_>
          <internalNodes>
            0 -1 74 -3.0518278945237398e-03</internalNodes>
          <leafValues>
            4.9597504734992981e-01 -2.8041961789131165e-01</leafValues></_>
        <_>
          <internalNodes>
            0 -1 234 5.5376731324940920e-04</internalNodes>
          <leafValues>
            1.3189135491847992e-01 -8.5877567529678345e-01</leafValues></_>
        <_>
          <internalNodes>
            0 -1 141 -3.9533418416976929e-01</internalNodes>
          <leafValues>
            1.7118956148624420e-01 -6.5284585952758789e-01</leafValues></_>
        <_>
          <internalNodes>
            0 -1 118 1.2036686530336738e-03</internalNodes>
          <leafValues>
            2.1292564272880554e-01 -5.3815692663192749e-01</leafValues></_>
        <_>
          <internalNodes>
            0 -1 167 6.5602757968008518e-04</internalNodes>
          <leafValues>
            1.2390964478254318e-01 -7.9823940992355347e-01</leafValues></_></weakClassifiers></_>
    <!-- stage 17 -->
    <_>
      <maxWeakCount>13</maxWeakCount>
      <stageThreshold>-4.5794799923896790e-01</stageThreshold>
      <weakClassifiers>
        <_>
          <internalNodes>
            0 -1 125 2.3919983505038545e-05</internalNodes>
          <leafValues>
            -2.4070022627711296e-02 7.0744007825851440e-01</leafValues></_>
        <_>
          <internalNodes>
            0 -1 90 3.8018012419342995e-03</internalNodes>
          <leafValues>
            -2.2370582818984985e-01 5.9242260456085205e-01</leafValues></_>
        <_>
          <internalNodes>
            0 -1 184 3.8820793852210045e-03</internalNodes>
          <leafValues>
            -4.6129751205444336e-01 3.3345329761505127e-01</leafValues></_>
        <_>
          <internalNodes>
            0 -1 230 5.4622525349259377e-03</internalNodes>
          <leafValues>
            1.7335224151611328e-01 -8.2069557905197144e-01</leafValues></_>
        <_>
          <internalNodes>
            0 -1 154 -9.2895895242691040e-02</internalNodes>
          <leafValues>
            1.3698576390743256e-01 -7.1520501375198364e-01</leafValues></_>
        <_>
          <internalNodes>
            0 -1 33 -4.2703442275524139e-02</internalNodes>
          <leafValues>
            4.3615224957466125e-01 -3.0447113513946533e-01</leafValues></_>
        <_>
          <internalNodes>
            0 -1 8 3.5588925238698721e-03</internalNodes>
          <leafValues>
            1.1847610771656036e-01 -8.3599400520324707e-01</leafValues></_>
        <_>
          <internalNodes>
            0 -1 77 -3.2230042852461338e-03</internalNodes>
          <leafValues>
            -7.7236711978912354e-01 1.2654219567775726e-01</leafValues></_>
        <_>
          <internalNodes>
            0 -1 233 -6.3804225064814091e-03</internalNodes>
          <leafValues>
            9.6410736441612244e-02 -9.2190217971801758e-01</leafValues></_>
        <_>
          <internalNodes>
            0 -1 79 -9.1163173317909241e-02</internalNodes>
          <leafValues>
            5.5873560905456543e-01 -2.1725708246231079e-01</leafValues></_>
        <_>
          <internalNodes>
            0 -1 156 2.4596152798039839e-05</internalNodes>
          <leafValues>
            -2.8724256157875061e-01 5.0532639026641846e-01</leafValues></_>
        <_>
          <internalNodes>
            0 -1 188 4.2067952454090118e-03</internalNodes>
          <leafValues>
            -1.9684065878391266e-01 6.6765242815017700e-01</leafValues></_>
        <_>
          <internalNodes>
            0 -1 89 -4.3617874383926392e-02</internalNodes>
          <leafValues>
            -7.5969189405441284e-01 1.7929697036743164e-01</leafValues></_></weakClassifiers></_>
    <!-- stage 18 -->
    <_>
      <maxWeakCount>12</maxWeakCount>
      <stageThreshold>-8.2408791780471802e-01</stageThreshold>
      <weakClassifiers>
        <_>
          <internalNodes>
            0 -1 11 -7.5123608112335205e-03</internalNodes>
          <leafValues>
            6.2648218870162964e-01 -3.5294118523597717e-01</leafValues></_>
        <_>
          <internalNodes>
            0 -1 87 1.4550927281379700e-01</internalNodes>
          <leafValues>
            -2.6449549198150635e-01 5.8493399620056152e-01</leafValues></_>
        <_>
          <internalNodes>
            0 -1 217 -1.1006839573383331e-02</internalNodes>
          <leafValues>
            6.7867803573608398e-01 -1.8756785988807678e-01</leafValues></_>
        <_>
          <internalNodes>
            0 -1 31 6.0573435621336102e-04</internalNodes>
          <leafValues>
            -4.8727002739906311e-01 2.6344439387321472e-01</leafValues></_>
        <_>
          <internalNodes>
            0 -1 190 1.7934007337316871e-04</internalNodes>
          <leafValues>
            2.6374807953834534e-01 -4.9542495608329773e-01</leafValues></_>
        <_>
          <internalNodes>
            0 -1 113 7.1495381416752934e-04</internalNodes>
          <leafValues>
            2.4082116782665253e-01 -5.1224440336227417e-01</leafValues></_>
        <_>
          <internalNodes>
            0 -1 191 -1.3343503815121949e-04</internalNodes>
          <leafValues>
            1.0139037668704987e-01 -9.8553681373596191e-01</leafValues></_>
        <_>
          <internalNodes>
            0 -1 133 7.3237651959061623e-03</internalNodes>
          <leafValues>
            -2.8213438391685486e-01 5.0558286905288696e-01</leafValues></_>
        <_>
          <internalNodes>
            0 -1 91 -6.5759614109992981e-02</internalNodes>
          <leafValues>
            8.8485276699066162e-01 -1.3596530258655548e-01</leafValues></_>
        <_>
          <internalNodes>
            0 -1 162 3.2962178811430931e-03</internalNodes>
          <leafValues>
            -4.6089807152748108e-01 3.0035305023193359e-01</leafValues></_>
        <_>
          <internalNodes>
            0 -1 131 -1.5119363088160753e-03</internalNodes>
          <leafValues>
            1.0684878379106522e-01 -9.5801961421966553e-01</leafValues></_>
        <_>
          <internalNodes>
            0 -1 1 3.1991781725082546e-05</internalNodes>
          <leafValues>
            -3.5323292016983032e-01 3.1959927082061768e-01</leafValues></_></weakClassifiers></_>
    <!-- stage 19 -->
    <_>
      <maxWeakCount>12</maxWeakCount>
      <stageThreshold>-8.8817912340164185e-01</stageThreshold>
      <weakClassifiers>
        <_>
          <internalNodes>
            0 -1 97 -6.7781731486320496e-03</internalNodes>
          <leafValues>
            5.7470208406448364e-01 -4.8427674174308777e-01</leafValues></_>
        <_>
          <internalNodes>
            0 -1 24 -2.1577866282314062e-03</internalNodes>
          <leafValues>
            4.5981109142303467e-01 -3.0509465932846069e-01</leafValues></_>
        <_>
          <internalNodes>
            0 -1 192 1.2711322051472962e-04</internalNodes>
          <leafValues>
            2.8344106674194336e-01 -5.1768666505813599e-01</leafValues></_>
        <_>
          <internalNodes>
            0 -1 216 -1.1336304247379303e-02</internalNodes>
          <leafValues>
            6.7375081777572632e-01 -2.0422652363777161e-01</leafValues></_>
        <_>
          <internalNodes>
            0 -1 220 1.1071165092289448e-02</internalNodes>
          <leafValues>
            -1.9496382772922516e-01 6.7508566379547119e-01</leafValues></_>
        <_>
          <internalNodes>
            0 -1 180 -1.0014728456735611e-01</internalNodes>
          <leafValues>
            1.7682844400405884e-01 -9.1330260038375854e-01</leafValues></_>
        <_>
          <internalNodes>
            0 -1 225 -2.9328067321330309e-03</internalNodes>
          <leafValues>
            -6.9185829162597656e-01 1.5409076213836670e-01</leafValues></_>
        <_>
          <internalNodes>
            0 -1 164 3.6652751266956329e-02</internalNodes>
          <leafValues>
            -2.8171119093894958e-01 4.9915072321891785e-01</leafValues></_>
        <_>
          <internalNodes>
            0 -1 45 -3.2765339128673077e-03</internalNodes>
          <leafValues>
            1.9929848611354828e-01 -5.9247952699661255e-01</leafValues></_>
        <_>
          <internalNodes>
            0 -1 66 2.6988878744305111e-05</internalNodes>
          <leafValues>
            -5.0079280138015747e-01 2.3213417828083038e-01</leafValues></_>
        <_>
          <internalNodes>
            0 -1 124 -5.1451832405291498e-05</internalNodes>
          <leafValues>
            9.6972562372684479e-02 -1.</leafValues></_>
        <_>
          <internalNodes>
            0 -1 160 1.0169239249080420e-03</internalNodes>
          <leafValues>
            1.0709308832883835e-01 -8.5985124111175537e-01</leafValues></_></weakClassifiers></_>
    <!-- stage 20 -->
    <_>
      <maxWeakCount>14</maxWeakCount>
      <stageThreshold>-8.3456325531005859e-01</stageThreshold>
      <weakClassifiers>
        <_>
          <internalNodes>
            0 -1 151 -1.0091149306390435e-04</internalNodes>
          <leafValues>
            6.4383560419082642e-01 -2.0265780389308929e-01</leafValues></_>
        <_>
          <internalNodes>
            0 -1 119 -2.0374106243252754e-03</internalNodes>
          <leafValues>
            -5.7761174440383911e-01 2.9869458079338074e-01</leafValues></_>
        <_>
          <internalNodes>
            0 -1 70 -3.2383251935243607e-02</internalNodes>
          <leafValues>
            6.6680192947387695e-01 -2.1251487731933594e-01</leafValues></_>
        <_>
          <internalNodes>
            0 -1 175 3.4248322481289506e-04</internalNodes>
          <leafValues>
            2.7274519205093384e-01 -4.7096803784370422e-01</leafValues></_>
        <_>
          <internalNodes>
            0 -1 121 3.3439159393310547e-02</internalNodes>
          <leafValues>
            -4.4839000701904297e-01 2.3674479126930237e-01</leafValues></_>
        <_>
          <internalNodes>
            0 -1 63 3.6833185004070401e-04</internalNodes>
          <leafValues>
            -4.3435767292976379e-01 2.7324387431144714e-01</leafValues></_>
        <_>
          <internalNodes>
            0 -1 45 -3.1057605519890785e-03</internalNodes>
          <leafValues>
            1.8403041362762451e-01 -6.0670828819274902e-01</leafValues></_>
        <_>
          <internalNodes>
            0 -1 145 -1.0894369916059077e-04</internalNodes>
          <leafValues>
            1.0088967531919479e-01 -1.</leafValues></_>
        <_>
          <internalNodes>
            0 -1 16 9.7949542105197906e-03</internalNodes>
          <leafValues>
            1.7314067482948303e-01 -6.6083693504333496e-01</leafValues></_>
        <_>
          <internalNodes>
            0 -1 76 -6.8509972095489502e-01</internalNodes>
          <leafValues>
            -5.6137931346893311e-01 2.1589842438697815e-01</leafValues></_>
        <_>
          <internalNodes>
            0 -1 187 3.2715625129640102e-03</internalNodes>
          <leafValues>
            -1.7561805248260498e-01 6.8938118219375610e-01</leafValues></_>
        <_>
          <internalNodes>
            0 -1 17 -1.3268555048853159e-03</internalNodes>
          <leafValues>
            -5.5881786346435547e-01 2.0764441788196564e-01</leafValues></_>
        <_>
          <internalNodes>
            0 -1 28 -2.7449132176116109e-05</internalNodes>
          <leafValues>
            2.3716568946838379e-01 -4.4568637013435364e-01</leafValues></_>
        <_>
          <internalNodes>
            0 -1 58 4.9272347241640091e-03</internalNodes>
          <leafValues>
            -2.4495346844196320e-01 4.9728724360466003e-01</leafValues></_></weakClassifiers></_>
    <!-- stage 21 -->
    <_>
      <maxWeakCount>13</maxWeakCount>
      <stageThreshold>-5.6952428817749023e-01</stageThreshold>
      <weakClassifiers>
        <_>
          <internalNodes>
            0 -1 103 2.8901488985866308e-03</internalNodes>
          <leafValues>
            5.6766575574874878e-01 -5.0335568189620972e-01</leafValues></_>
        <_>
          <internalNodes>
            0 -1 109 -1.5382198989391327e-01</internalNodes>
          <leafValues>
            6.0495388507843018e-01 -2.1075356006622314e-01</leafValues></_>
        <_>
          <internalNodes>
            0 -1 198 4.9039606004953384e-02</internalNodes>
          <leafValues>
            -1.6475646197795868e-01 8.0959373712539673e-01</leafValues></_>
        <_>
          <internalNodes>
            0 -1 202 -6.0414534527808428e-04</internalNodes>
          <leafValues>
            2.5734853744506836e-01 -5.0184005498886108e-01</leafValues></_>
        <_>
          <internalNodes>
            0 -1 81 -2.1039631217718124e-02</internalNodes>
          <leafValues>
            6.0462504625320435e-01 -1.9151277840137482e-01</leafValues></_>
        <_>
          <internalNodes>
            0 -1 47 -7.0839519612491131e-03</internalNodes>
          <leafValues>
            5.4351198673248291e-01 -2.3563601076602936e-01</leafValues></_>
        <_>
          <internalNodes>
            0 -1 140 -5.6172996759414673e-02</internalNodes>
          <leafValues>
            1.7903119325637817e-01 -8.5849404335021973e-01</leafValues></_>
        <_>
          <internalNodes>
            0 -1 48 2.0187889458611608e-04</internalNodes>
          <leafValues>
            1.6603195667266846e-01 -6.2404072284698486e-01</leafValues></_>
        <_>
          <internalNodes>
            0 -1 224 2.7399146929383278e-02</internalNodes>
          <leafValues>
            -1.7520937323570251e-01 7.9362696409225464e-01</leafValues></_>
        <_>
          <internalNodes>
            0 -1 205 -2.4261958897113800e-03</internalNodes>
          <leafValues>
            5.1285862922668457e-01 -2.3263099789619446e-01</leafValues></_>
        <_>
          <internalNodes>
            0 -1 222 3.7095332518219948e-03</internalNodes>
          <leafValues>
            1.6973125934600830e-01 -8.3362442255020142e-01</leafValues></_>
        <_>
          <internalNodes>
            0 -1 115 -1.2943380279466510e-03</internalNodes>
          <leafValues>
            -7.4770474433898926e-01 1.1187681555747986e-01</leafValues></_>
        <_>
          <internalNodes>
            0 -1 232 -1.6740836435928941e-03</internalNodes>
          <leafValues>
            -8.1071060895919800e-01 1.0882876813411713e-01</leafValues></_></weakClassifiers></_>
    <!-- stage 22 -->
    <_>
      <maxWeakCount>13</maxWeakCount>
      <stageThreshold>-7.5714480876922607e-01</stageThreshold>
      <weakClassifiers>
        <_>
          <internalNodes>
            0 -1 157 -5.2063813200220466e-05</internalNodes>
          <leafValues>
            5.5172413587570190e-01 -1.</leafValues></_>
        <_>
          <internalNodes>
            0 -1 108 -1.0794478654861450e-01</internalNodes>
          <leafValues>
            8.5228091478347778e-01 -1.8158456683158875e-01</leafValues></_>
        <_>
          <internalNodes>
            0 -1 111 -1.2781028635799885e-04</internalNodes>
          <leafValues>
            -5.6484687328338623e-01 2.5135219097137451e-01</leafValues></_>
        <_>
          <internalNodes>
            0 -1 193 2.6759549655253068e-05</internalNodes>
          <leafValues>
            -6.2155723571777344e-01 2.0239652693271637e-01</leafValues></_>
        <_>
          <internalNodes>
            0 -1 194 -4.1413068771362305e-02</internalNodes>
          <leafValues>
            4.2545244097709656e-01 -3.0783399939537048e-01</leafValues></_>
        <_>
          <internalNodes>
            0 -1 41 4.7333526890724897e-04</internalNodes>
          <leafValues>
            -3.0308485031127930e-01 3.7469509243965149e-01</leafValues></_>
        <_>
          <internalNodes>
            0 -1 21 -7.5661451555788517e-03</internalNodes>
          <leafValues>
            5.6372934579849243e-01 -2.3368558287620544e-01</leafValues></_>
        <_>
          <internalNodes>
            0 -1 209 -8.9316983940079808e-04</internalNodes>
          <leafValues>
            4.6390825510025024e-01 -2.6218035817146301e-01</leafValues></_>
        <_>
          <internalNodes>
            0 -1 71 2.4477387778460979e-03</internalNodes>
          <leafValues>
            -1.9972775876522064e-01 5.9187889099121094e-01</leafValues></_>
        <_>
          <internalNodes>
            0 -1 15 -3.7883473851252347e-05</internalNodes>
          <leafValues>
            3.1628170609474182e-01 -3.8344675302505493e-01</leafValues></_>
        <_>
          <internalNodes>
            0 -1 163 -1.2803098652511835e-03</internalNodes>
          <leafValues>
            1.7987164855003357e-01 -6.3575202226638794e-01</leafValues></_>
        <_>
          <internalNodes>
            0 -1 150 -3.6259773187339306e-03</internalNodes>
          <leafValues>
            -4.6403059363365173e-01 2.8748449683189392e-01</leafValues></_>
        <_>
          <internalNodes>
            0 -1 85 4.1376622393727303e-03</internalNodes>
          <leafValues>
            -2.1225611865520477e-01 6.3336503505706787e-01</leafValues></_></weakClassifiers></_>
    <!-- stage 23 -->
    <_>
      <maxWeakCount>12</maxWeakCount>
      <stageThreshold>-5.7319778203964233e-01</stageThreshold>
      <weakClassifiers>
        <_>
          <internalNodes>
            0 -1 114 -1.0758195072412491e-02</internalNodes>
          <leafValues>
            6.3673466444015503e-01 -2.7407407760620117e-01</leafValues></_>
        <_>
          <internalNodes>
            0 -1 201 2.2238265722990036e-02</internalNodes>
          <leafValues>
            -1.7907635867595673e-01 7.2847098112106323e-01</leafValues></_>
        <_>
          <internalNodes>
            0 -1 26 -4.2678262107074261e-03</internalNodes>
          <leafValues>
            5.6100142002105713e-01 -2.6230207085609436e-01</leafValues></_>
        <_>
          <internalNodes>
            0 -1 40 -7.6032767537981272e-04</internalNodes>
          <leafValues>
            -5.8166974782943726e-01 2.2073996067047119e-01</leafValues></_>
        <_>
          <internalNodes>
            0 -1 196 5.1509551703929901e-03</internalNodes>
          <leafValues>
            -3.2150936126708984e-01 4.2764791846275330e-01</leafValues></_>
        <_>
          <internalNodes>
            0 -1 4 -3.3545118640176952e-04</internalNodes>
          <leafValues>
            -4.6273419260978699e-01 2.9001581668853760e-01</leafValues></_>
        <_>
          <internalNodes>
            0 -1 159 -1.2759878300130367e-03</internalNodes>
          <leafValues>
            1.1824515461921692e-01 -9.8072940111160278e-01</leafValues></_>
        <_>
          <internalNodes>
            0 -1 197 -8.0862967297434807e-03</internalNodes>
          <leafValues>
            7.4414855241775513e-01 -2.0413257181644440e-01</leafValues></_>
        <_>
          <internalNodes>
            0 -1 72 -1.0277865082025528e-01</internalNodes>
          <leafValues>
            7.7537924051284790e-01 -1.6708895564079285e-01</leafValues></_>
        <_>
          <internalNodes>
            0 -1 203 -1.2849128688685596e-04</internalNodes>
          <leafValues>
            2.4959321320056915e-01 -5.6636470556259155e-01</leafValues></_>
        <_>
          <internalNodes>
            0 -1 60 1.6092348378151655e-03</internalNodes>
          <leafValues>
            -2.1290811896324158e-01 6.6411048173904419e-01</leafValues></_>
        <_>
          <internalNodes>
            0 -1 168 -1.9661423284560442e-03</internalNodes>
          <leafValues>
            -5.8640879392623901e-01 2.2255201637744904e-01</leafValues></_></weakClassifiers></_>
    <!-- stage 24 -->
    <_>
      <maxWeakCount>12</maxWeakCount>
      <stageThreshold>-5.3700405359268188e-01</stageThreshold>
      <weakClassifiers>
        <_>
          <internalNodes>
            0 -1 62 -1.3914215378463268e-03</internalNodes>
          <leafValues>
            6.5128207206726074e-01 -3.0909091234207153e-01</leafValues></_>
        <_>
          <internalNodes>
            0 -1 174 3.4379500895738602e-02</internalNodes>
          <leafValues>
            -3.8556590676307678e-01 4.2119240760803223e-01</leafValues></_>
        <_>
          <internalNodes>
            0 -1 148 -1.9155414775013924e-02</internalNodes>
          <leafValues>
            2.3613803088665009e-01 -6.6362524032592773e-01</leafValues></_>
        <_>
          <internalNodes>
            0 -1 223 -1.3455554842948914e-02</internalNodes>
          <leafValues>
            -7.8033125400543213e-01 1.3681016862392426e-01</leafValues></_>
        <_>
          <internalNodes>
            0 -1 127 -4.4553875341080129e-05</internalNodes>
          <leafValues>
            -7.2485989332199097e-01 1.2577039003372192e-01</leafValues></_>
        <_>
          <internalNodes>
            0 -1 38 1.3607223518192768e-03</internalNodes>
          <leafValues>
            1.0636968910694122e-01 -8.0834800004959106e-01</leafValues></_>
        <_>
          <internalNodes>
            0 -1 94 -3.1647902727127075e-01</internalNodes>
          <leafValues>
            -5.7415062189102173e-01 1.6226422786712646e-01</leafValues></_>
        <_>
          <internalNodes>
            0 -1 46 -7.3784247040748596e-02</internalNodes>
          <leafValues>
            1.8945987522602081e-01 -7.1106487512588501e-01</leafValues></_>
        <_>
          <internalNodes>
            0 -1 53 -1.6499426215887070e-02</internalNodes>
          <leafValues>
            -8.5326921939849854e-01 9.9598869681358337e-02</leafValues></_>
        <_>
          <internalNodes>
            0 -1 210 -4.1120537207461894e-04</internalNodes>
          <leafValues>
            3.9471536874771118e-01 -2.6865127682685852e-01</leafValues></_>
        <_>
          <internalNodes>
            0 -1 208 5.5632600560784340e-03</internalNodes>
          <leafValues>
            -1.9939543306827545e-01 6.7541044950485229e-01</leafValues></_>
        <_>
          <internalNodes>
            0 -1 64 5.5408757179975510e-03</internalNodes>
          <leafValues>
            -1.3306505978107452e-01 6.2270444631576538e-01</leafValues></_></weakClassifiers></_></stages>
  <features>
    <_>
      <rects>
        <_>
          0 0 1 24 -1.</_>
        <_>
          0 8 1 8 2.</_></rects>
      <tilted>0</tilted></_>
    <_>
      <rects>
        <_>
          0 2 2 1 -1.</_>
        <_>
          1 2 1 1 2.</_></rects>
      <tilted>0</tilted></_>
    <_>
      <rects>
        <_>
          0 3 10 12 -1.</_>
        <_>
          0 3 5 6 2.</_>
        <_>
          5 9 5 6 2.</_></rects>
      <tilted>0</tilted></_>
    <_>
      <rects>
        <_>
          0 3 12 12 -1.</_>
        <_>
          0 3 6 6 2.</_>
        <_>
          6 9 6 6 2.</_></rects>
      <tilted>0</tilted></_>
    <_>
      <rects>
        <_>
          0 4 2 10 -1.</_>
        <_>
          0 4 1 5 2.</_>
        <_>
          1 9 1 5 2.</_></rects>
      <tilted>0</tilted></_>
    <_>
      <rects>
        <_>
          0 4 10 10 -1.</_>
        <_>
          0 4 5 5 2.</_>
        <_>
          5 9 5 5 2.</_></rects>
      <tilted>0</tilted></_>
    <_>
      <rects>
        <_>
          0 8 1 4 -1.</_>
        <_>
          0 10 1 2 2.</_></rects>
      <tilted>0</tilted></_>
    <_>
      <rects>
        <_>
          0 8 1 15 -1.</_>
        <_>
          0 13 1 5 2.</_></rects>
      <tilted>0</tilted></_>
    <_>
      <rects>
        <_>
          0 8 3 4 -1.</_>
        <_>
          0 10 3 2 2.</_></rects>
      <tilted>0</tilted></_>
    <_>
      <rects>
        <_>
          0 8 4 6 -1.</_>
        <_>
          0 11 4 3 2.</_></rects>
      <tilted>0</tilted></_>
    <_>
      <rects>
        <_>
          0 8 7 12 -1.</_>
        <_>
          0 12 7 4 2.</_></rects>
      <tilted>0</tilted></_>
    <_>
      <rects>
        <_>
          0 9 18 3 -1.</_>
        <_>
          9 9 9 3 2.</_></rects>
      <tilted>0</tilted></_>
    <_>
      <rects>
        <_>
          0 10 2 4 -1.</_>
        <_>
          0 12 2 2 2.</_></rects>
      <tilted>0</tilted></_>
    <_>
      <rects>
        <_>
          0 10 10 14 -1.</_>
        <_>
          0 10 5 7 2.</_>
        <_>
          5 17 5 7 2.</_></rects>
      <tilted>0</tilted></_>
    <_>
      <rects>
        <_>
          0 10 18 14 -1.</_>
        <_>
          0 10 9 7 2.</_>
        <_>
          9 17 9 7 2.</_></rects>
      <tilted>0</tilted></_>
    <_>
      <rects>
        <_>
          0 11 1 6 -1.</_>
        <_>
          0 14 1 3 2.</_></rects>
      <tilted>0</tilted></_>
    <_>
      <rects>
        <_>
          0 11 6 6 -1.</_>
        <_>
          0 14 6 3 2.</_></rects>
      <tilted>0</tilted></_>
    <_>
      <rects>
        <_>
          0 11 10 2 -1.</_>
        <_>
          0 12 10 1 2.</_></rects>
      <tilted>0</tilted></_>
    <_>
      <rects>
        <_>
          0 12 4 4 -1.</_>
        <_>
          0 14 4 2 2.</_></rects>
      <tilted>0</tilted></_>
    <_>
      <rects>
        <_>
          0 12 7 3 -1.</_>
        <_>
          0 13 7 1 2.</_></rects>
      <tilted>0</tilted></_>
    <_>
      <rects>
        <_>
          0 14 21 4 -1.</_>
        <_>
          7 14 7 4 2.</_></rects>
      <tilted>0</tilted></_>
    <_>
      <rects>
        <_>
          0 17 8 1 -1.</_>
        <_>
          4 17 4 1 2.</_></rects>
      <tilted>0</tilted></_>
    <_>
      <rects>
        <_>
          0 17 4 6 -1.</_>
        <_>
          0 20 4 3 2.</_></rects>
      <tilted>0</tilted></_>
    <_>
      <rects>
        <_>
          0 18 6 3 -1.</_>
        <_>
          3 18 3 3 2.</_></rects>
      <tilted>0</tilted></_>
    <_>
      <rects>
        <_>
          0 20 6 4 -1.</_>
        <_>
          0 20 3 2 2.</_>
        <_>
          3 22 3 2 2.</_></rects>
      <tilted>0</tilted></_>
    <_>
      <rects>
        <_>
          0 20 6 3 -1.</_>
        <_>
          3 20 3 3 2.</_></rects>
      <tilted>0</tilted></_>
    <_>
      <rects>
        <_>
          0 20 8 4 -1.</_>
        <_>
          0 20 4 2 2.</_>
        <_>
          4 22 4 2 2.</_></rects>
      <tilted>0</tilted></_>
    <_>
      <rects>
        <_>
          0 20 8 4 -1.</_>
        <_>
          4 20 4 4 2.</_></rects>
      <tilted>0</tilted></_>
    <_>
      <rects>
        <_>
          0 22 1 2 -1.</_>
        <_>
          0 23 1 1 2.</_></rects>
      <tilted>0</tilted></_>
    <_>
      <rects>
        <_>
          0 22 8 1 -1.</_>
        <_>
          4 22 4 1 2.</_></rects>
      <tilted>0</tilted></_>
    <_>
      <rects>
        <_>
          0 22 23 2 -1.</_>
        <_>
          0 23 23 1 2.</_></rects>
      <tilted>0</tilted></_>
    <_>
      <rects>
        <_>
          0 23 6 1 -1.</_>
        <_>
          3 23 3 1 2.</_></rects>
      <tilted>0</tilted></_>
    <_>
      <rects>
        <_>
          1 1 4 23 -1.</_>
        <_>
          3 1 2 23 2.</_></rects>
      <tilted>0</tilted></_>
    <_>
      <rects>
        <_>
          1 1 8 12 -1.</_>
        <_>
          1 1 4 6 2.</_>
        <_>
          5 7 4 6 2.</_></rects>
      <tilted>0</tilted></_>
    <_>
      <rects>
        <_>
          1 3 22 4 -1.</_>
        <_>
          1 5 22 2 2.</_></rects>
      <tilted>0</tilted></_>
    <_>
      <rects>
        <_>
          1 4 22 18 -1.</_>
        <_>
          1 10 22 6 2.</_></rects>
      <tilted>0</tilted></_>
    <_>
      <rects>
        <_>
          1 11 10 2 -1.</_>
        <_>
          6 11 5 2 2.</_></rects>
      <tilted>0</tilted></_>
    <_>
      <rects>
        <_>
          1 11 7 4 -1.</_>
        <_>
          1 13 7 2 2.</_></rects>
      <tilted>0</tilted></_>
    <_>
      <rects>
        <_>
          1 12 3 2 -1.</_>
        <_>
          1 13 3 1 2.</_></rects>
      <tilted>0</tilted></_>
    <_>
      <rects>
        <_>
          1 12 10 1 -1.</_>
        <_>
          6 12 5 1 2.</_></rects>
      <tilted>0</tilted></_>
    <_>
      <rects>
        <_>
          1 12 7 6 -1.</_>
        <_>
          1 15 7 3 2.</_></rects>
      <tilted>0</tilted></_>
    <_>
      <rects>
        <_>
          1 13 4 1 -1.</_>
        <_>
          3 13 2 1 2.</_></rects>
      <tilted>0</tilted></_>
    <_>
      <rects>
        <_>
          1 13 10 1 -1.</_>
        <_>
          6 13 5 1 2.</_></rects>
      <tilted>0</tilted></_>
    <_>
      <rects>
        <_>
          1 13 12 1 -1.</_>
        <_>
          7 13 6 1 2.</_></rects>
      <tilted>0</tilted></_>
    <_>
      <rects>
        <_>
          1 14 10 1 -1.</_>
        <_>
          6 14 5 1 2.</_></rects>
      <tilted>0</tilted></_>
    <_>
      <rects>
        <_>
          1 14 12 1 -1.</_>
        <_>
          7 14 6 1 2.</_></rects>
      <tilted>0</tilted></_>
    <_>
      <rects>
        <_>
          1 14 21 3 -1.</_>
        <_>
          8 14 7 3 2.</_></rects>
      <tilted>0</tilted></_>
    <_>
      <rects>
        <_>
          1 18 8 1 -1.</_>
        <_>
          5 18 4 1 2.</_></rects>
      <tilted>0</tilted></_>
    <_>
      <rects>
        <_>
          1 19 2 4 -1.</_>
        <_>
          1 19 1 2 2.</_>
        <_>
          2 21 1 2 2.</_></rects>
      <tilted>0</tilted></_>
    <_>
      <rects>
        <_>
          1 19 4 1 -1.</_>
        <_>
          3 19 2 1 2.</_></rects>
      <tilted>0</tilted></_>
    <_>
      <rects>
        <_>
          1 20 2 2 -1.</_>
        <_>
          1 21 2 1 2.</_></rects>
      <tilted>0</tilted></_>
    <_>
      <rects>
        <_>
          1 20 6 2 -1.</_>
        <_>
          4 20 3 2 2.</_></rects>
      <tilted>0</tilted></_>
    <_>
      <rects>
        <_>
          1 22 2 2 -1.</_>
        <_>
          1 23 2 1 2.</_></rects>
      <tilted>0</tilted></_>
    <_>
      <rects>
        <_>
          1 22 18 2 -1.</_>
        <_>
          10 22 9 2 2.</_></rects>
      <tilted>0</tilted></_>
    <_>
      <rects>
        <_>
          2 2 22 14 -1.</_>
        <_>
          13 2 11 14 2.</_></rects>
      <tilted>0</tilted></_>
    <_>
      <rects>
        <_>
          2 2 21 4 -1.</_>
        <_>
          2 4 21 2 2.</_></rects>
      <tilted>0</tilted></_>
    <_>
      <rects>
        <_>
          2 3 2 13 -1.</_>
        <_>
          3 3 1 13 2.</_></rects>
      <tilted>0</tilted></_>
    <_>
      <rects>
        <_>
          2 5 4 16 -1.</_>
        <_>
          4 5 2 16 2.</_></rects>
      <tilted>0</tilted></_>
    <_>
      <rects>
        <_>
          2 6 4 6 -1.</_>
        <_>
          4 6 2 6 2.</_></rects>
      <tilted>0</tilted></_>
    <_>
      <rects>
        <_>
          2 7 6 14 -1.</_>
        <_>
          5 7 3 14 2.</_></rects>
      <tilted>0</tilted></_>
    <_>
      <rects>
        <_>
          2 8 2 2 -1.</_>
        <_>
          3 8 1 2 2.</_></rects>
      <tilted>0</tilted></_>
    <_>
      <rects>
        <_>
          2 8 14 10 -1.</_>
        <_>
          9 8 7 10 2.</_></rects>
      <tilted>0</tilted></_>
    <_>
      <rects>
        <_>
          2 10 8 1 -1.</_>
        <_>
          6 10 4 1 2.</_></rects>
      <tilted>0</tilted></_>
    <_>
      <rects>
        <_>
          2 11 4 6 -1.</_>
        <_>
          2 14 4 3 2.</_></rects>
      <tilted>0</tilted></_>
    <_>
      <rects>
        <_>
          2 14 2 5 -1.</_>
        <_>
          3 14 1 5 2.</_></rects>
      <tilted>0</tilted></_>
    <_>
      <rects>
        <_>
          2 17 4 2 -1.</_>
        <_>
          4 17 2 2 2.</_></rects>
      <tilted>0</tilted></_>
    <_>
      <rects>
        <_>
          2 22 2 1 -1.</_>
        <_>
          3 22 1 1 2.</_></rects>
      <tilted>0</tilted></_>
    <_>
      <rects>
        <_>
          2 22 4 1 -1.</_>
        <_>
          4 22 2 1 2.</_></rects>
      <tilted>0</tilted></_>
    <_>
      <rects>
        <_>
          2 23 8 1 -1.</_>
        <_>
          6 23 4 1 2.</_></rects>
      <tilted>0</tilted></_>
    <_>
      <rects>
        <_>
          3 0 12 23 -1.</_>
        <_>
          7 0 4 23 2.</_></rects>
      <tilted>0</tilted></_>
    <_>
      <rects>
        <_>
          3 1 4 14 -1.</_>
        <_>
          3 1 2 7 2.</_>
        <_>
          5 8 2 7 2.</_></rects>
      <tilted>0</tilted></_>
    <_>
      <rects>
        <_>
          3 3 4 6 -1.</_>
        <_>
          3 3 2 3 2.</_>
        <_>
          5 6 2 3 2.</_></rects>
      <tilted>0</tilted></_>
    <_>
      <rects>
        <_>
          3 3 17 6 -1.</_>
        <_>
          3 6 17 3 2.</_></rects>
      <tilted>0</tilted></_>
    <_>
      <rects>
        <_>
          3 4 2 13 -1.</_>
        <_>
          4 4 1 13 2.</_></rects>
      <tilted>0</tilted></_>
    <_>
      <rects>
        <_>
          3 8 2 5 -1.</_>
        <_>
          4 8 1 5 2.</_></rects>
      <tilted>0</tilted></_>
    <_>
      <rects>
        <_>
          3 8 4 10 -1.</_>
        <_>
          5 8 2 10 2.</_></rects>
      <tilted>0</tilted></_>
    <_>
      <rects>
        <_>
          3 8 21 14 -1.</_>
        <_>
          10 8 7 14 2.</_></rects>
      <tilted>0</tilted></_>
    <_>
      <rects>
        <_>
          3 23 10 1 -1.</_>
        <_>
          8 23 5 1 2.</_></rects>
      <tilted>0</tilted></_>
    <_>
      <rects>
        <_>
          4 3 16 4 -1.</_>
        <_>
          4 5 16 2 2.</_></rects>
      <tilted>0</tilted></_>
    <_>
      <rects>
        <_>
          4 7 15 12 -1.</_>
        <_>
          4 13 15 6 2.</_></rects>
      <tilted>0</tilted></_>
    <_>
      <rects>
        <_>
          4 15 17 8 -1.</_>
        <_>
          4 19 17 4 2.</_></rects>
      <tilted>0</tilted></_>
    <_>
      <rects>
        <_>
          4 18 17 4 -1.</_>
        <_>
          4 20 17 2 2.</_></rects>
      <tilted>0</tilted></_>
    <_>
      <rects>
        <_>
          4 20 19 4 -1.</_>
        <_>
          4 22 19 2 2.</_></rects>
      <tilted>0</tilted></_>
    <_>
      <rects>
        <_>
          4 22 5 2 -1.</_>
        <_>
          4 23 5 1 2.</_></rects>
      <tilted>0</tilted></_>
    <_>
      <rects>
        <_>
          5 0 12 9 -1.</_>
        <_>
          9 0 4 9 2.</_></rects>
      <tilted>0</tilted></_>
    <_>
      <rects>
        <_>
          5 2 5 2 -1.</_>
        <_>
          5 3 5 1 2.</_></rects>
      <tilted>0</tilted></_>
    <_>
      <rects>
        <_>
          5 4 14 10 -1.</_>
        <_>
          5 9 14 5 2.</_></rects>
      <tilted>0</tilted></_>
    <_>
      <rects>
        <_>
          5 13 15 10 -1.</_>
        <_>
          5 18 15 5 2.</_></rects>
      <tilted>0</tilted></_>
    <_>
      <rects>
        <_>
          6 0 6 16 -1.</_>
        <_>
          6 8 6 8 2.</_></rects>
      <tilted>0</tilted></_>
    <_>
      <rects>
        <_>
          6 2 14 18 -1.</_>
        <_>
          13 2 7 18 2.</_></rects>
      <tilted>0</tilted></_>
    <_>
      <rects>
        <_>
          6 3 2 4 -1.</_>
        <_>
          6 5 2 2 2.</_></rects>
      <tilted>0</tilted></_>
    <_>
      <rects>
        <_>
          6 3 7 6 -1.</_>
        <_>
          6 6 7 3 2.</_></rects>
      <tilted>0</tilted></_>
    <_>
      <rects>
        <_>
          6 3 13 12 -1.</_>
        <_>
          6 9 13 6 2.</_></rects>
      <tilted>0</tilted></_>
    <_>
      <rects>
        <_>
          6 6 8 12 -1.</_>
        <_>
          6 12 8 6 2.</_></rects>
      <tilted>0</tilted></_>
    <_>
      <rects>
        <_>
          6 14 18 8 -1.</_>
        <_>
          12 14 6 8 2.</_></rects>
      <tilted>0</tilted></_>
    <_>
      <rects>
        <_>
          6 21 14 3 -1.</_>
        <_>
          13 21 7 3 2.</_></rects>
      <tilted>0</tilted></_>
    <_>
      <rects>
        <_>
          6 22 12 2 -1.</_>
        <_>
          12 22 6 2 2.</_></rects>
      <tilted>0</tilted></_>
    <_>
      <rects>
        <_>
          7 2 2 14 -1.</_>
        <_>
          7 9 2 7 2.</_></rects>
      <tilted>0</tilted></_>
    <_>
      <rects>
        <_>
          7 2 3 21 -1.</_>
        <_>
          7 9 3 7 2.</_></rects>
      <tilted>0</tilted></_>
    <_>
      <rects>
        <_>
          7 2 6 17 -1.</_>
        <_>
          10 2 3 17 2.</_></rects>
      <tilted>0</tilted></_>
    <_>
      <rects>
        <_>
          7 3 13 6 -1.</_>
        <_>
          7 6 13 3 2.</_></rects>
      <tilted>0</tilted></_>
    <_>
      <rects>
        <_>
          7 4 1 12 -1.</_>
        <_>
          7 10 1 6 2.</_></rects>
      <tilted>0</tilted></_>
    <_>
      <rects>
        <_>
          7 4 2 8 -1.</_>
        <_>
          7 8 2 4 2.</_></rects>
      <tilted>0</tilted></_>
    <_>
      <rects>
        <_>
          7 4 4 6 -1.</_>
        <_>
          9 4 2 6 2.</_></rects>
      <tilted>0</tilted></_>
    <_>
      <rects>
        <_>
          7 4 10 8 -1.</_>
        <_>
          12 4 5 8 2.</_></rects>
      <tilted>0</tilted></_>
    <_>
      <rects>
        <_>
          7 4 12 12 -1.</_>
        <_>
          7 10 12 6 2.</_></rects>
      <tilted>0</tilted></_>
    <_>
      <rects>
        <_>
          7 4 13 10 -1.</_>
        <_>
          7 9 13 5 2.</_></rects>
      <tilted>0</tilted></_>
    <_>
      <rects>
        <_>
          7 5 5 12 -1.</_>
        <_>
          7 11 5 6 2.</_></rects>
      <tilted>0</tilted></_>
    <_>
      <rects>
        <_>
          7 5 11 6 -1.</_>
        <_>
          7 8 11 3 2.</_></rects>
      <tilted>0</tilted></_>
    <_>
      <rects>
        <_>
          7 5 13 8 -1.</_>
        <_>
          7 9 13 4 2.</_></rects>
      <tilted>0</tilted></_>
    <_>
      <rects>
        <_>
          7 9 4 4 -1.</_>
        <_>
          7 11 4 2 2.</_></rects>
      <tilted>0</tilted></_>
    <_>
      <rects>
        <_>
          7 10 2 5 -1.</_>
        <_>
          8 10 1 5 2.</_></rects>
      <tilted>0</tilted></_>
    <_>
      <rects>
        <_>
          7 12 1 3 -1.</_>
        <_>
          7 13 1 1 2.</_></rects>
      <tilted>0</tilted></_>
    <_>
      <rects>
        <_>
          7 14 2 10 -1.</_>
        <_>
          7 14 1 5 2.</_>
        <_>
          8 19 1 5 2.</_></rects>
      <tilted>0</tilted></_>
    <_>
      <rects>
        <_>
          8 0 1 16 -1.</_>
        <_>
          8 8 1 8 2.</_></rects>
      <tilted>0</tilted></_>
    <_>
      <rects>
        <_>
          8 1 2 12 -1.</_>
        <_>
          9 1 1 12 2.</_></rects>
      <tilted>0</tilted></_>
    <_>
      <rects>
        <_>
          8 3 1 12 -1.</_>
        <_>
          8 9 1 6 2.</_></rects>
      <tilted>0</tilted></_>
    <_>
      <rects>
        <_>
          8 4 2 17 -1.</_>
        <_>
          9 4 1 17 2.</_></rects>
      <tilted>0</tilted></_>
    <_>
      <rects>
        <_>
          8 4 2 20 -1.</_>
        <_>
          9 4 1 20 2.</_></rects>
      <tilted>0</tilted></_>
    <_>
      <rects>
        <_>
          8 4 8 2 -1.</_>
        <_>
          12 4 4 2 2.</_></rects>
      <tilted>0</tilted></_>
    <_>
      <rects>
        <_>
          8 4 12 7 -1.</_>
        <_>
          14 4 6 7 2.</_></rects>
      <tilted>0</tilted></_>
    <_>
      <rects>
        <_>
          8 4 16 10 -1.</_>
        <_>
          8 4 8 5 2.</_>
        <_>
          16 9 8 5 2.</_></rects>
      <tilted>0</tilted></_>
    <_>
      <rects>
        <_>
          8 6 4 11 -1.</_>
        <_>
          10 6 2 11 2.</_></rects>
      <tilted>0</tilted></_>
    <_>
      <rects>
        <_>
          8 9 2 9 -1.</_>
        <_>
          9 9 1 9 2.</_></rects>
      <tilted>0</tilted></_>
    <_>
      <rects>
        <_>
          8 10 3 1 -1.</_>
        <_>
          9 10 1 1 2.</_></rects>
      <tilted>0</tilted></_>
    <_>
      <rects>
        <_>
          8 10 2 6 -1.</_>
        <_>
          8 13 2 3 2.</_></rects>
      <tilted>0</tilted></_>
    <_>
      <rects>
        <_>
          8 10 16 4 -1.</_>
        <_>
          16 10 8 4 2.</_></rects>
      <tilted>0</tilted></_>
    <_>
      <rects>
        <_>
          8 12 2 1 -1.</_>
        <_>
          9 12 1 1 2.</_></rects>
      <tilted>0</tilted></_>
    <_>
      <rects>
        <_>
          8 12 6 1 -1.</_>
        <_>
          10 12 2 1 2.</_></rects>
      <tilted>0</tilted></_>
    <_>
      <rects>
        <_>
          8 12 4 3 -1.</_>
        <_>
          10 12 2 3 2.</_></rects>
      <tilted>0</tilted></_>
    <_>
      <rects>
        <_>
          8 13 3 1 -1.</_>
        <_>
          9 13 1 1 2.</_></rects>
      <tilted>0</tilted></_>
    <_>
      <rects>
        <_>
          9 0 3 1 -1.</_>
        <_>
          10 0 1 1 2.</_></rects>
      <tilted>0</tilted></_>
    <_>
      <rects>
        <_>
          9 2 2 18 -1.</_>
        <_>
          9 2 1 9 2.</_>
        <_>
          10 11 1 9 2.</_></rects>
      <tilted>0</tilted></_>
    <_>
      <rects>
        <_>
          9 3 3 4 -1.</_>
        <_>
          9 5 3 2 2.</_></rects>
      <tilted>0</tilted></_>
    <_>
      <rects>
        <_>
          9 4 1 16 -1.</_>
        <_>
          9 12 1 8 2.</_></rects>
      <tilted>0</tilted></_>
    <_>
      <rects>
        <_>
          9 6 2 13 -1.</_>
        <_>
          10 6 1 13 2.</_></rects>
      <tilted>0</tilted></_>
    <_>
      <rects>
        <_>
          9 11 3 3 -1.</_>
        <_>
          10 11 1 3 2.</_></rects>
      <tilted>0</tilted></_>
    <_>
      <rects>
        <_>
          9 11 6 1 -1.</_>
        <_>
          11 11 2 1 2.</_></rects>
      <tilted>0</tilted></_>
    <_>
      <rects>
        <_>
          9 13 15 1 -1.</_>
        <_>
          14 13 5 1 2.</_></rects>
      <tilted>0</tilted></_>
    <_>
      <rects>
        <_>
          9 22 1 2 -1.</_>
        <_>
          9 23 1 1 2.</_></rects>
      <tilted>0</tilted></_>
    <_>
      <rects>
        <_>
          10 0 3 23 -1.</_>
        <_>
          11 0 1 23 2.</_></rects>
      <tilted>0</tilted></_>
    <_>
      <rects>
        <_>
          10 4 14 18 -1.</_>
        <_>
          10 10 14 6 2.</_></rects>
      <tilted>0</tilted></_>
    <_>
      <rects>
        <_>
          10 12 1 8 -1.</_>
        <_>
          10 16 1 4 2.</_></rects>
      <tilted>0</tilted></_>
    <_>
      <rects>
        <_>
          10 12 6 1 -1.</_>
        <_>
          12 12 2 1 2.</_></rects>
      <tilted>0</tilted></_>
    <_>
      <rects>
        <_>
          10 13 6 1 -1.</_>
        <_>
          12 13 2 1 2.</_></rects>
      <tilted>0</tilted></_>
    <_>
      <rects>
        <_>
          10 15 6 1 -1.</_>
        <_>
          12 15 2 1 2.</_></rects>
      <tilted>0</tilted></_>
    <_>
      <rects>
        <_>
          10 22 3 2 -1.</_>
        <_>
          10 23 3 1 2.</_></rects>
      <tilted>0</tilted></_>
    <_>
      <rects>
        <_>
          11 4 8 10 -1.</_>
        <_>
          11 9 8 5 2.</_></rects>
      <tilted>0</tilted></_>
    <_>
      <rects>
        <_>
          11 7 1 15 -1.</_>
        <_>
          11 12 1 5 2.</_></rects>
      <tilted>0</tilted></_>
    <_>
      <rects>
        <_>
          11 10 5 14 -1.</_>
        <_>
          11 17 5 7 2.</_></rects>
      <tilted>0</tilted></_>
    <_>
      <rects>
        <_>
          11 14 3 1 -1.</_>
        <_>
          12 14 1 1 2.</_></rects>
      <tilted>0</tilted></_>
    <_>
      <rects>
        <_>
          11 22 1 2 -1.</_>
        <_>
          11 23 1 1 2.</_></rects>
      <tilted>0</tilted></_>
    <_>
      <rects>
        <_>
          12 0 3 1 -1.</_>
        <_>
          13 0 1 1 2.</_></rects>
      <tilted>0</tilted></_>
    <_>
      <rects>
        <_>
          12 0 3 24 -1.</_>
        <_>
          13 0 1 24 2.</_></rects>
      <tilted>0</tilted></_>
    <_>
      <rects>
        <_>
          12 1 9 9 -1.</_>
        <_>
          15 1 3 9 2.</_></rects>
      <tilted>0</tilted></_>
    <_>
      <rects>
        <_>
          12 3 1 4 -1.</_>
        <_>
          12 5 1 2 2.</_></rects>
      <tilted>0</tilted></_>
    <_>
      <rects>
        <_>
          12 9 7 4 -1.</_>
        <_>
          12 11 7 2 2.</_></rects>
      <tilted>0</tilted></_>
    <_>
      <rects>
        <_>
          12 14 2 3 -1.</_>
        <_>
          12 15 2 1 2.</_></rects>
      <tilted>0</tilted></_>
    <_>
      <rects>
        <_>
          12 22 8 2 -1.</_>
        <_>
          12 23 8 1 2.</_></rects>
      <tilted>0</tilted></_>
    <_>
      <rects>
        <_>
          13 0 3 1 -1.</_>
        <_>
          14 0 1 1 2.</_></rects>
      <tilted>0</tilted></_>
    <_>
      <rects>
        <_>
          13 3 2 7 -1.</_>
        <_>
          14 3 1 7 2.</_></rects>
      <tilted>0</tilted></_>
    <_>
      <rects>
        <_>
          13 6 4 6 -1.</_>
        <_>
          15 6 2 6 2.</_></rects>
      <tilted>0</tilted></_>
    <_>
      <rects>
        <_>
          13 12 10 1 -1.</_>
        <_>
          18 12 5 1 2.</_></rects>
      <tilted>0</tilted></_>
    <_>
      <rects>
        <_>
          13 13 3 1 -1.</_>
        <_>
          14 13 1 1 2.</_></rects>
      <tilted>0</tilted></_>
    <_>
      <rects>
        <_>
          14 2 8 10 -1.</_>
        <_>
          14 2 4 5 2.</_>
        <_>
          18 7 4 5 2.</_></rects>
      <tilted>0</tilted></_>
    <_>
      <rects>
        <_>
          14 2 10 12 -1.</_>
        <_>
          14 2 5 6 2.</_>
        <_>
          19 8 5 6 2.</_></rects>
      <tilted>0</tilted></_>
    <_>
      <rects>
        <_>
          14 3 10 6 -1.</_>
        <_>
          14 3 5 3 2.</_>
        <_>
          19 6 5 3 2.</_></rects>
      <tilted>0</tilted></_>
    <_>
      <rects>
        <_>
          14 4 2 8 -1.</_>
        <_>
          15 4 1 8 2.</_></rects>
      <tilted>0</tilted></_>
    <_>
      <rects>
        <_>
          14 4 4 3 -1.</_>
        <_>
          16 4 2 3 2.</_></rects>
      <tilted>0</tilted></_>
    <_>
      <rects>
        <_>
          14 10 4 14 -1.</_>
        <_>
          14 17 4 7 2.</_></rects>
      <tilted>0</tilted></_>
    <_>
      <rects>
        <_>
          14 13 10 1 -1.</_>
        <_>
          19 13 5 1 2.</_></rects>
      <tilted>0</tilted></_>
    <_>
      <rects>
        <_>
          14 22 2 2 -1.</_>
        <_>
          14 23 2 1 2.</_></rects>
      <tilted>0</tilted></_>
    <_>
      <rects>
        <_>
          15 0 3 23 -1.</_>
        <_>
          16 0 1 23 2.</_></rects>
      <tilted>0</tilted></_>
    <_>
      <rects>
        <_>
          15 2 2 12 -1.</_>
        <_>
          15 8 2 6 2.</_></rects>
      <tilted>0</tilted></_>
    <_>
      <rects>
        <_>
          15 2 8 12 -1.</_>
        <_>
          15 2 4 6 2.</_>
        <_>
          19 8 4 6 2.</_></rects>
      <tilted>0</tilted></_>
    <_>
      <rects>
        <_>
          15 4 2 12 -1.</_>
        <_>
          15 4 1 6 2.</_>
        <_>
          16 10 1 6 2.</_></rects>
      <tilted>0</tilted></_>
    <_>
      <rects>
        <_>
          15 4 8 18 -1.</_>
        <_>
          15 10 8 6 2.</_></rects>
      <tilted>0</tilted></_>
    <_>
      <rects>
        <_>
          15 5 2 6 -1.</_>
        <_>
          16 5 1 6 2.</_></rects>
      <tilted>0</tilted></_>
    <_>
      <rects>
        <_>
          15 5 8 6 -1.</_>
        <_>
          15 5 4 3 2.</_>
        <_>
          19 8 4 3 2.</_></rects>
      <tilted>0</tilted></_>
    <_>
      <rects>
        <_>
          15 7 2 2 -1.</_>
        <_>
          16 7 1 2 2.</_></rects>
      <tilted>0</tilted></_>
    <_>
      <rects>
        <_>
          15 8 9 12 -1.</_>
        <_>
          15 12 9 4 2.</_></rects>
      <tilted>0</tilted></_>
    <_>
      <rects>
        <_>
          15 9 2 6 -1.</_>
        <_>
          16 9 1 6 2.</_></rects>
      <tilted>0</tilted></_>
    <_>
      <rects>
        <_>
          15 10 8 1 -1.</_>
        <_>
          19 10 4 1 2.</_></rects>
      <tilted>0</tilted></_>
    <_>
      <rects>
        <_>
          15 11 8 1 -1.</_>
        <_>
          19 11 4 1 2.</_></rects>
      <tilted>0</tilted></_>
    <_>
      <rects>
        <_>
          15 15 8 1 -1.</_>
        <_>
          19 15 4 1 2.</_></rects>
      <tilted>0</tilted></_>
    <_>
      <rects>
        <_>
          15 22 8 2 -1.</_>
        <_>
          15 23 8 1 2.</_></rects>
      <tilted>0</tilted></_>
    <_>
      <rects>
        <_>
          16 0 2 24 -1.</_>
        <_>
          16 8 2 8 2.</_></rects>
      <tilted>0</tilted></_>
    <_>
      <rects>
        <_>
          16 2 3 2 -1.</_>
        <_>
          16 3 3 1 2.</_></rects>
      <tilted>0</tilted></_>
    <_>
      <rects>
        <_>
          16 3 5 2 -1.</_>
        <_>
          16 4 5 1 2.</_></rects>
      <tilted>0</tilted></_>
    <_>
      <rects>
        <_>
          16 4 2 12 -1.</_>
        <_>
          17 4 1 12 2.</_></rects>
      <tilted>0</tilted></_>
    <_>
      <rects>
        <_>
          16 8 2 7 -1.</_>
        <_>
          17 8 1 7 2.</_></rects>
      <tilted>0</tilted></_>
    <_>
      <rects>
        <_>
          16 10 1 3 -1.</_>
        <_>
          16 11 1 1 2.</_></rects>
      <tilted>0</tilted></_>
    <_>
      <rects>
        <_>
          16 11 2 5 -1.</_>
        <_>
          17 11 1 5 2.</_></rects>
      <tilted>0</tilted></_>
    <_>
      <rects>
        <_>
          16 12 1 6 -1.</_>
        <_>
          16 15 1 3 2.</_></rects>
      <tilted>0</tilted></_>
    <_>
      <rects>
        <_>
          16 14 8 10 -1.</_>
        <_>
          16 14 4 5 2.</_>
        <_>
          20 19 4 5 2.</_></rects>
      <tilted>0</tilted></_>
    <_>
      <rects>
        <_>
          16 15 8 1 -1.</_>
        <_>
          20 15 4 1 2.</_></rects>
      <tilted>0</tilted></_>
    <_>
      <rects>
        <_>
          17 3 4 4 -1.</_>
        <_>
          17 5 4 2 2.</_></rects>
      <tilted>0</tilted></_>
    <_>
      <rects>
        <_>
          18 7 1 12 -1.</_>
        <_>
          18 13 1 6 2.</_></rects>
      <tilted>0</tilted></_>
    <_>
      <rects>
        <_>
          18 7 4 11 -1.</_>
        <_>
          20 7 2 11 2.</_></rects>
      <tilted>0</tilted></_>
    <_>
      <rects>
        <_>
          18 8 4 13 -1.</_>
        <_>
          20 8 2 13 2.</_></rects>
      <tilted>0</tilted></_>
    <_>
      <rects>
        <_>
          18 8 6 11 -1.</_>
        <_>
          21 8 3 11 2.</_></rects>
      <tilted>0</tilted></_>
    <_>
      <rects>
        <_>
          18 12 4 6 -1.</_>
        <_>
          20 12 2 6 2.</_></rects>
      <tilted>0</tilted></_>
    <_>
      <rects>
        <_>
          18 21 6 1 -1.</_>
        <_>
          21 21 3 1 2.</_></rects>
      <tilted>0</tilted></_>
    <_>
      <rects>
        <_>
          18 22 2 2 -1.</_>
        <_>
          18 23 2 1 2.</_></rects>
      <tilted>0</tilted></_>
    <_>
      <rects>
        <_>
          19 4 2 2 -1.</_>
        <_>
          19 5 2 1 2.</_></rects>
      <tilted>0</tilted></_>
    <_>
      <rects>
        <_>
          19 9 4 2 -1.</_>
        <_>
          21 9 2 2 2.</_></rects>
      <tilted>0</tilted></_>
    <_>
      <rects>
        <_>
          19 10 5 6 -1.</_>
        <_>
          19 13 5 3 2.</_></rects>
      <tilted>0</tilted></_>
    <_>
      <rects>
        <_>
          19 11 4 6 -1.</_>
        <_>
          19 14 4 3 2.</_></rects>
      <tilted>0</tilted></_>
    <_>
      <rects>
        <_>
          19 17 4 2 -1.</_>
        <_>
          21 17 2 2 2.</_></rects>
      <tilted>0</tilted></_>
    <_>
      <rects>
        <_>
          19 18 1 4 -1.</_>
        <_>
          19 20 1 2 2.</_></rects>
      <tilted>0</tilted></_>
    <_>
      <rects>
        <_>
          19 20 1 2 -1.</_>
        <_>
          19 21 1 1 2.</_></rects>
      <tilted>0</tilted></_>
    <_>
      <rects>
        <_>
          19 21 2 2 -1.</_>
        <_>
          19 22 2 1 2.</_></rects>
      <tilted>0</tilted></_>
    <_>
      <rects>
        <_>
          19 21 5 2 -1.</_>
        <_>
          19 22 5 1 2.</_></rects>
      <tilted>0</tilted></_>
    <_>
      <rects>
        <_>
          20 2 4 22 -1.</_>
        <_>
          22 2 2 22 2.</_></rects>
      <tilted>0</tilted></_>
    <_>
      <rects>
        <_>
          20 3 2 17 -1.</_>
        <_>
          21 3 1 17 2.</_></rects>
      <tilted>0</tilted></_>
    <_>
      <rects>
        <_>
          20 4 4 19 -1.</_>
        <_>
          22 4 2 19 2.</_></rects>
      <tilted>0</tilted></_>
    <_>
      <rects>
        <_>
          20 6 2 13 -1.</_>
        <_>
          21 6 1 13 2.</_></rects>
      <tilted>0</tilted></_>
    <_>
      <rects>
        <_>
          20 6 2 14 -1.</_>
        <_>
          21 6 1 14 2.</_></rects>
      <tilted>0</tilted></_>
    <_>
      <rects>
        <_>
          20 6 4 15 -1.</_>
        <_>
          22 6 2 15 2.</_></rects>
      <tilted>0</tilted></_>
    <_>
      <rects>
        <_>
          20 7 4 2 -1.</_>
        <_>
          22 7 2 2 2.</_></rects>
      <tilted>0</tilted></_>
    <_>
      <rects>
        <_>
          20 8 2 11 -1.</_>
        <_>
          21 8 1 11 2.</_></rects>
      <tilted>0</tilted></_>
    <_>
      <rects>
        <_>
          20 8 4 14 -1.</_>
        <_>
          20 15 4 7 2.</_></rects>
      <tilted>0</tilted></_>
    <_>
      <rects>
        <_>
          20 9 4 4 -1.</_>
        <_>
          20 11 4 2 2.</_></rects>
      <tilted>0</tilted></_>
    <_>
      <rects>
        <_>
          20 10 4 8 -1.</_>
        <_>
          20 14 4 4 2.</_></rects>
      <tilted>0</tilted></_>
    <_>
      <rects>
        <_>
          20 11 4 6 -1.</_>
        <_>
          22 11 2 6 2.</_></rects>
      <tilted>0</tilted></_>
    <_>
      <rects>
        <_>
          20 11 4 4 -1.</_>
        <_>
          20 13 4 2 2.</_></rects>
      <tilted>0</tilted></_>
    <_>
      <rects>
        <_>
          20 17 4 4 -1.</_>
        <_>
          22 17 2 4 2.</_></rects>
      <tilted>0</tilted></_>
    <_>
      <rects>
        <_>
          20 17 4 5 -1.</_>
        <_>
          22 17 2 5 2.</_></rects>
      <tilted>0</tilted></_>
    <_>
      <rects>
        <_>
          20 23 4 1 -1.</_>
        <_>
          22 23 2 1 2.</_></rects>
      <tilted>0</tilted></_>
    <_>
      <rects>
        <_>
          21 15 3 9 -1.</_>
        <_>
          21 18 3 3 2.</_></rects>
      <tilted>0</tilted></_>
    <_>
      <rects>
        <_>
          22 8 2 6 -1.</_>
        <_>
          22 11 2 3 2.</_></rects>
      <tilted>0</tilted></_>
    <_>
      <rects>
        <_>
          22 20 2 2 -1.</_>
        <_>
          22 21 2 1 2.</_></rects>
      <tilted>0</tilted></_>
    <_>
      <rects>
        <_>
          23 7 1 4 -1.</_>
        <_>
          23 9 1 2 2.</_></rects>
      <tilted>0</tilted></_>
    <_>
      <rects>
        <_>
          23 12 1 12 -1.</_>
        <_>
          23 16 1 4 2.</_></rects>
      <tilted>0</tilted></_>
    <_>
      <rects>
        <_>
          23 18 1 4 -1.</_>
        <_>
          23 20 1 2 2.</_></rects>
      <tilted>0</tilted></_></features></cascade>
</opencv_storage>
