<?xml version="1.0"?>
<opencv_storage>
<cascade>
  <stageType>BOOST</stageType>
  <featureType>HAAR</featureType>
  <height>24</height>
  <width>24</width>
  <stageParams>
    <boostType>GAB</boostType>
    <minHitRate>9.9500000476837158e-01</minHitRate>
    <maxFalseAlarm>5.0000000000000000e-01</maxFalseAlarm>
    <weightTrimRate>9.4999999999999996e-01</weightTrimRate>
    <maxDepth>1</maxDepth>
    <maxWeakCount>100</maxWeakCount></stageParams>
  <featureParams>
    <maxCatCount>0</maxCatCount>
    <featSize>1</featSize>
    <mode>BASIC</mode></featureParams>
  <stageNum>25</stageNum>
  <stages>
    <!-- stage 0 -->
    <_>
      <maxWeakCount>4</maxWeakCount>
      <stageThreshold>-9.1077750921249390e-01</stageThreshold>
      <weakClassifiers>
        <_>
          <internalNodes>
            0 -1 31 -5.6344640254974365e-01</internalNodes>
          <leafValues>
            8.7937271595001221e-01 -8.6915886402130127e-01</leafValues></_>
        <_>
          <internalNodes>
            0 -1 167 1.7447405261918902e-03</internalNodes>
          <leafValues>
            -6.4139795303344727e-01 7.3448836803436279e-01</leafValues></_>
        <_>
          <internalNodes>
            0 -1 39 -1.6282590804621577e-03</internalNodes>
          <leafValues>
            6.3406908512115479e-01 -6.2800639867782593e-01</leafValues></_>
        <_>
          <internalNodes>
            0 -1 26 -4.0588979609310627e-03</internalNodes>
          <leafValues>
            7.4730271100997925e-01 -5.2074587345123291e-01</leafValues></_></weakClassifiers></_>
    <!-- stage 1 -->
    <_>
      <maxWeakCount>4</maxWeakCount>
      <stageThreshold>-8.5638058185577393e-01</stageThreshold>
      <weakClassifiers>
        <_>
          <internalNodes>
            0 -1 8 2.3696705698966980e-02</internalNodes>
          <leafValues>
            -6.3896846771240234e-01 8.4019976854324341e-01</leafValues></_>
        <_>
          <internalNodes>
            0 -1 141 -5.6959994137287140e-02</internalNodes>
          <leafValues>
            8.8110524415969849e-01 -4.6316528320312500e-01</leafValues></_>
        <_>
          <internalNodes>
            0 -1 209 -6.0023404657840729e-03</internalNodes>
          <leafValues>
            8.2877701520919800e-01 -3.2632878422737122e-01</leafValues></_>
        <_>
          <internalNodes>
            0 -1 41 -4.3496899306774139e-03</internalNodes>
          <leafValues>
            5.7208198308944702e-01 -5.3430324792861938e-01</leafValues></_></weakClassifiers></_>
    <!-- stage 2 -->
    <_>
      <maxWeakCount>4</maxWeakCount>
      <stageThreshold>-9.5961034297943115e-01</stageThreshold>
      <weakClassifiers>
        <_>
          <internalNodes>
            0 -1 157 -1.6855131834745407e-02</internalNodes>
          <leafValues>
            7.5563466548919678e-01 -6.0912054777145386e-01</leafValues></_>
        <_>
          <internalNodes>
            0 -1 2 -3.3852260559797287e-02</internalNodes>
          <leafValues>
            7.6230657100677490e-01 -5.4161489009857178e-01</leafValues></_>
        <_>
          <internalNodes>
            0 -1 121 -6.8369135260581970e-03</internalNodes>
          <leafValues>
            -4.8552519083023071e-01 7.0300376415252686e-01</leafValues></_>
        <_>
          <internalNodes>
            0 -1 17 4.2447019368410110e-03</internalNodes>
          <leafValues>
            -5.3824865818023682e-01 6.7665022611618042e-01</leafValues></_></weakClassifiers></_>
    <!-- stage 3 -->
    <_>
      <maxWeakCount>6</maxWeakCount>
      <stageThreshold>-7.0607489347457886e-01</stageThreshold>
      <weakClassifiers>
        <_>
          <internalNodes>
            0 -1 110 -9.2968810349702835e-03</internalNodes>
          <leafValues>
            8.3668005466461182e-01 -4.3424317240715027e-01</leafValues></_>
        <_>
          <internalNodes>
            0 -1 111 -1.3816021382808685e-03</internalNodes>
          <leafValues>
            -8.2447195053100586e-01 5.1412916183471680e-01</leafValues></_>
        <_>
          <internalNodes>
            0 -1 73 -4.0387385524809361e-04</internalNodes>
          <leafValues>
            5.1354920864105225e-01 -6.3563787937164307e-01</leafValues></_>
        <_>
          <internalNodes>
            0 -1 181 3.4982193261384964e-02</internalNodes>
          <leafValues>
            -3.5544258356094360e-01 8.1129550933837891e-01</leafValues></_>
        <_>
          <internalNodes>
            0 -1 193 -3.8976300507783890e-02</internalNodes>
          <leafValues>
            9.0089184045791626e-01 -2.6966211199760437e-01</leafValues></_>
        <_>
          <internalNodes>
            0 -1 149 -6.0193315148353577e-03</internalNodes>
          <leafValues>
            -5.9205245971679688e-01 4.7478166222572327e-01</leafValues></_></weakClassifiers></_>
    <!-- stage 4 -->
    <_>
      <maxWeakCount>6</maxWeakCount>
      <stageThreshold>-7.6956087350845337e-01</stageThreshold>
      <weakClassifiers>
        <_>
          <internalNodes>
            0 -1 89 8.2591645419597626e-02</internalNodes>
          <leafValues>
            -3.6992838978767395e-01 8.2763338088989258e-01</leafValues></_>
        <_>
          <internalNodes>
            0 -1 112 -1.1122044920921326e-01</internalNodes>
          <leafValues>
            8.3832889795303345e-01 -3.2083648443222046e-01</leafValues></_>
        <_>
          <internalNodes>
            0 -1 32 9.4788268208503723e-02</internalNodes>
          <leafValues>
            3.9635166525840759e-01 -9.5834136009216309e-01</leafValues></_>
        <_>
          <internalNodes>
            0 -1 190 -4.2448373278602958e-04</internalNodes>
          <leafValues>
            4.5555406808853149e-01 -6.1988443136215210e-01</leafValues></_>
        <_>
          <internalNodes>
            0 -1 53 1.0937700048089027e-02</internalNodes>
          <leafValues>
            -3.0459025502204895e-01 8.4504646062850952e-01</leafValues></_>
        <_>
          <internalNodes>
            0 -1 132 -2.0239639282226563e-01</internalNodes>
          <leafValues>
            -5.7390820980072021e-01 4.4932699203491211e-01</leafValues></_></weakClassifiers></_>
    <!-- stage 5 -->
    <_>
      <maxWeakCount>6</maxWeakCount>
      <stageThreshold>-1.0574200153350830e+00</stageThreshold>
      <weakClassifiers>
        <_>
          <internalNodes>
            0 -1 119 4.1946861892938614e-03</internalNodes>
          <leafValues>
            -6.3513511419296265e-01 7.4707257747650146e-01</leafValues></_>
        <_>
          <internalNodes>
            0 -1 147 -2.4895653128623962e-02</internalNodes>
          <leafValues>
            6.2747544050216675e-01 -5.4753684997558594e-01</leafValues></_>
        <_>
          <internalNodes>
            0 -1 23 3.0891634523868561e-03</internalNodes>
          <leafValues>
            -5.7142680883407593e-01 4.7710922360420227e-01</leafValues></_>
        <_>
          <internalNodes>
            0 -1 60 -1.2520670890808105e-02</internalNodes>
          <leafValues>
            -8.4052634239196777e-01 3.4180921316146851e-01</leafValues></_>
        <_>
          <internalNodes>
            0 -1 205 -1.0059756226837635e-02</internalNodes>
          <leafValues>
            5.5530595779418945e-01 -4.5013505220413208e-01</leafValues></_>
        <_>
          <internalNodes>
            0 -1 179 2.7673818171024323e-02</internalNodes>
          <leafValues>
            -4.0030857920646667e-01 6.1406683921813965e-01</leafValues></_></weakClassifiers></_>
    <!-- stage 6 -->
    <_>
      <maxWeakCount>6</maxWeakCount>
      <stageThreshold>-6.5220659971237183e-01</stageThreshold>
      <weakClassifiers>
        <_>
          <internalNodes>
            0 -1 84 -5.8901779353618622e-02</internalNodes>
          <leafValues>
            6.8135595321655273e-01 -5.7735848426818848e-01</leafValues></_>
        <_>
          <internalNodes>
            0 -1 159 -4.8362929373979568e-04</internalNodes>
          <leafValues>
            5.0965219736099243e-01 -6.4281743764877319e-01</leafValues></_>
        <_>
          <internalNodes>
            0 -1 3 2.4072740226984024e-02</internalNodes>
          <leafValues>
            -2.7822971343994141e-01 8.6340314149856567e-01</leafValues></_>
        <_>
          <internalNodes>
            0 -1 46 1.1831676820293069e-03</internalNodes>
          <leafValues>
            -3.9507451653480530e-01 5.7152026891708374e-01</leafValues></_>
        <_>
          <internalNodes>
            0 -1 14 -7.7943038195371628e-03</internalNodes>
          <leafValues>
            4.5247048139572144e-01 -5.3141772747039795e-01</leafValues></_>
        <_>
          <internalNodes>
            0 -1 211 -4.1814958676695824e-03</internalNodes>
          <leafValues>
            6.3035696744918823e-01 -3.4637305140495300e-01</leafValues></_></weakClassifiers></_>
    <!-- stage 7 -->
    <_>
      <maxWeakCount>7</maxWeakCount>
      <stageThreshold>-6.4360278844833374e-01</stageThreshold>
      <weakClassifiers>
        <_>
          <internalNodes>
            0 -1 135 -1.8983535119332373e-04</internalNodes>
          <leafValues>
            7.0361447334289551e-01 -4.1874998807907104e-01</leafValues></_>
        <_>
          <internalNodes>
            0 -1 77 -1.5681087970733643e-01</internalNodes>
          <leafValues>
            7.4835723638534546e-01 -3.6446389555931091e-01</leafValues></_>
        <_>
          <internalNodes>
            0 -1 24 1.6805056948214769e-03</internalNodes>
          <leafValues>
            -6.1245685815811157e-01 4.4050219655036926e-01</leafValues></_>
        <_>
          <internalNodes>
            0 -1 158 1.4296200126409531e-02</internalNodes>
          <leafValues>
            -5.7432752847671509e-01 4.5817446708679199e-01</leafValues></_>
        <_>
          <internalNodes>
            0 -1 123 -9.7962841391563416e-03</internalNodes>
          <leafValues>
            -8.0960619449615479e-01 2.3125040531158447e-01</leafValues></_>
        <_>
          <internalNodes>
            0 -1 202 -2.8431862592697144e-03</internalNodes>
          <leafValues>
            6.7020583152770996e-01 -3.3002656698226929e-01</leafValues></_>
        <_>
          <internalNodes>
            0 -1 28 -2.3149205371737480e-02</internalNodes>
          <leafValues>
            3.7221264839172363e-01 -5.1849824190139771e-01</leafValues></_></weakClassifiers></_>
    <!-- stage 8 -->
    <_>
      <maxWeakCount>7</maxWeakCount>
      <stageThreshold>-7.9032135009765625e-01</stageThreshold>
      <weakClassifiers>
        <_>
          <internalNodes>
            0 -1 98 -2.2753689438104630e-02</internalNodes>
          <leafValues>
            8.0594676733016968e-01 -1.2720157206058502e-01</leafValues></_>
        <_>
          <internalNodes>
            0 -1 61 -3.3595236018300056e-03</internalNodes>
          <leafValues>
            5.3319692611694336e-01 -4.3147727847099304e-01</leafValues></_>
        <_>
          <internalNodes>
            0 -1 212 -1.9513697770889848e-04</internalNodes>
          <leafValues>
            4.1754502058029175e-01 -5.8520781993865967e-01</leafValues></_>
        <_>
          <internalNodes>
            0 -1 177 2.5780575015232898e-05</internalNodes>
          <leafValues>
            -6.7009776830673218e-01 3.3093869686126709e-01</leafValues></_>
        <_>
          <internalNodes>
            0 -1 125 4.7158324159681797e-03</internalNodes>
          <leafValues>
            2.1274469792842865e-01 -8.2131892442703247e-01</leafValues></_>
        <_>
          <internalNodes>
            0 -1 186 -1.7393874004483223e-02</internalNodes>
          <leafValues>
            1.8191806972026825e-01 -8.8997966051101685e-01</leafValues></_>
        <_>
          <internalNodes>
            0 -1 35 5.3695188835263252e-03</internalNodes>
          <leafValues>
            -3.3567392826080322e-01 6.5913975238800049e-01</leafValues></_></weakClassifiers></_>
    <!-- stage 9 -->
    <_>
      <maxWeakCount>9</maxWeakCount>
      <stageThreshold>-1.1658749580383301e+00</stageThreshold>
      <weakClassifiers>
        <_>
          <internalNodes>
            0 -1 76 -1.1073835194110870e-01</internalNodes>
          <leafValues>
            7.4485594034194946e-01 -2.2090260684490204e-01</leafValues></_>
        <_>
          <internalNodes>
            0 -1 167 2.0762351341545582e-03</internalNodes>
          <leafValues>
            -5.4066371917724609e-01 4.4542330503463745e-01</leafValues></_>
        <_>
          <internalNodes>
            0 -1 165 6.2314840033650398e-04</internalNodes>
          <leafValues>
            3.4181156754493713e-01 -6.7229712009429932e-01</leafValues></_>
        <_>
          <internalNodes>
            0 -1 25 -1.0747768828878179e-04</internalNodes>
          <leafValues>
            3.3172261714935303e-01 -5.5434566736221313e-01</leafValues></_>
        <_>
          <internalNodes>
            0 -1 128 -2.2848226944915950e-04</internalNodes>
          <leafValues>
            -7.2857010364532471e-01 2.7960544824600220e-01</leafValues></_>
        <_>
          <internalNodes>
            0 -1 59 -5.9211589395999908e-03</internalNodes>
          <leafValues>
            -8.6851179599761963e-01 1.7548421025276184e-01</leafValues></_>
        <_>
          <internalNodes>
            0 -1 52 1.0833698324859142e-02</internalNodes>
          <leafValues>
            -3.0232581496238708e-01 6.3272696733474731e-01</leafValues></_>
        <_>
          <internalNodes>
            0 -1 219 1.4836397022008896e-03</internalNodes>
          <leafValues>
            1.9383317232131958e-01 -8.3086597919464111e-01</leafValues></_>
        <_>
          <internalNodes>
            0 -1 22 -6.8681700213346630e-05</internalNodes>
          <leafValues>
            3.1833353638648987e-01 -5.3837156295776367e-01</leafValues></_></weakClassifiers></_>
    <!-- stage 10 -->
    <_>
      <maxWeakCount>9</maxWeakCount>
      <stageThreshold>-5.7849782705307007e-01</stageThreshold>
      <weakClassifiers>
        <_>
          <internalNodes>
            0 -1 188 -1.9188756123185158e-03</internalNodes>
          <leafValues>
            6.7156863212585449e-01 -2.9341316223144531e-01</leafValues></_>
        <_>
          <internalNodes>
            0 -1 42 -7.4982466176152229e-03</internalNodes>
          <leafValues>
            4.3927192687988281e-01 -6.1890548467636108e-01</leafValues></_>
        <_>
          <internalNodes>
            0 -1 161 -2.9900539666414261e-02</internalNodes>
          <leafValues>
            2.8968930244445801e-01 -7.6774096488952637e-01</leafValues></_>
        <_>
          <internalNodes>
            0 -1 66 2.9161393642425537e-02</internalNodes>
          <leafValues>
            -3.4204724431037903e-01 6.6417104005813599e-01</leafValues></_>
        <_>
          <internalNodes>
            0 -1 166 2.9201065190136433e-03</internalNodes>
          <leafValues>
            -4.3955305218696594e-01 4.3439844250679016e-01</leafValues></_>
        <_>
          <internalNodes>
            0 -1 206 4.7709112986922264e-03</internalNodes>
          <leafValues>
            1.3662245869636536e-01 -9.6697282791137695e-01</leafValues></_>
        <_>
          <internalNodes>
            0 -1 16 1.4551230706274509e-02</internalNodes>
          <leafValues>
            -4.2127135396003723e-01 3.9936897158622742e-01</leafValues></_>
        <_>
          <internalNodes>
            0 -1 217 -3.3923322334885597e-03</internalNodes>
          <leafValues>
            -7.9582726955413818e-01 1.8712760508060455e-01</leafValues></_>
        <_>
          <internalNodes>
            0 -1 91 -7.1336189284920692e-03</internalNodes>
          <leafValues>
            -7.7200293540954590e-01 1.9506126642227173e-01</leafValues></_></weakClassifiers></_>
    <!-- stage 11 -->
    <_>
      <maxWeakCount>9</maxWeakCount>
      <stageThreshold>-4.6943554282188416e-01</stageThreshold>
      <weakClassifiers>
        <_>
          <internalNodes>
            0 -1 168 4.0638362988829613e-03</internalNodes>
          <leafValues>
            -3.8867923617362976e-01 6.2485873699188232e-01</leafValues></_>
        <_>
          <internalNodes>
            0 -1 74 -6.8580806255340576e-01</internalNodes>
          <leafValues>
            4.0423357486724854e-01 -6.7201447486877441e-01</leafValues></_>
        <_>
          <internalNodes>
            0 -1 1 -1.0767522454261780e-01</internalNodes>
          <leafValues>
            -8.6020940542221069e-01 3.0318051576614380e-01</leafValues></_>
        <_>
          <internalNodes>
            0 -1 80 1.1230660974979401e-01</internalNodes>
          <leafValues>
            -2.8725412487983704e-01 8.7941992282867432e-01</leafValues></_>
        <_>
          <internalNodes>
            0 -1 176 -1.6263823490589857e-03</internalNodes>
          <leafValues>
            -8.2774126529693604e-01 1.9009949266910553e-01</leafValues></_>
        <_>
          <internalNodes>
            0 -1 146 2.0417042076587677e-02</internalNodes>
          <leafValues>
            -2.7637469768524170e-01 6.0884976387023926e-01</leafValues></_>
        <_>
          <internalNodes>
            0 -1 107 -1.5110717155039310e-02</internalNodes>
          <leafValues>
            -8.2857257127761841e-01 2.0887517929077148e-01</leafValues></_>
        <_>
          <internalNodes>
            0 -1 68 -2.3056560754776001e-01</internalNodes>
          <leafValues>
            1.9374583661556244e-01 -7.9352092742919922e-01</leafValues></_>
        <_>
          <internalNodes>
            0 -1 9 -6.9758850149810314e-03</internalNodes>
          <leafValues>
            3.5043063759803772e-01 -5.1706123352050781e-01</leafValues></_></weakClassifiers></_>
    <!-- stage 12 -->
    <_>
      <maxWeakCount>8</maxWeakCount>
      <stageThreshold>-5.4209166765213013e-01</stageThreshold>
      <weakClassifiers>
        <_>
          <internalNodes>
            0 -1 126 -1.1824288405478001e-02</internalNodes>
          <leafValues>
            6.9249999523162842e-01 -2.9714286327362061e-01</leafValues></_>
        <_>
          <internalNodes>
            0 -1 150 -1.6337737906724215e-04</internalNodes>
          <leafValues>
            4.1333872079849243e-01 -6.0888081789016724e-01</leafValues></_>
        <_>
          <internalNodes>
            0 -1 205 -2.0810686051845551e-02</internalNodes>
          <leafValues>
            7.2157406806945801e-01 -3.2893061637878418e-01</leafValues></_>
        <_>
          <internalNodes>
            0 -1 142 -9.7459746757522225e-04</internalNodes>
          <leafValues>
            2.7508828043937683e-01 -8.4892612695693970e-01</leafValues></_>
        <_>
          <internalNodes>
            0 -1 101 -2.0579172670841217e-01</internalNodes>
          <leafValues>
            7.2369170188903809e-01 -3.4011009335517883e-01</leafValues></_>
        <_>
          <internalNodes>
            0 -1 175 2.5525479577481747e-04</internalNodes>
          <leafValues>
            2.6555988192558289e-01 -6.5272462368011475e-01</leafValues></_>
        <_>
          <internalNodes>
            0 -1 47 1.2136612785980105e-03</internalNodes>
          <leafValues>
            -6.0123467445373535e-01 2.5838235020637512e-01</leafValues></_>
        <_>
          <internalNodes>
            0 -1 87 5.6191114708781242e-03</internalNodes>
          <leafValues>
            -6.6996771097183228e-01 2.3394215106964111e-01</leafValues></_></weakClassifiers></_>
    <!-- stage 13 -->
    <_>
      <maxWeakCount>8</maxWeakCount>
      <stageThreshold>-8.7375277280807495e-01</stageThreshold>
      <weakClassifiers>
        <_>
          <internalNodes>
            0 -1 124 -6.9178204284980893e-05</internalNodes>
          <leafValues>
            6.5330189466476440e-01 -3.4437087178230286e-01</leafValues></_>
        <_>
          <internalNodes>
            0 -1 183 2.5068935006856918e-02</internalNodes>
          <leafValues>
            -2.9337844252586365e-01 6.4165544509887695e-01</leafValues></_>
        <_>
          <internalNodes>
            0 -1 136 -6.7684918642044067e-02</internalNodes>
          <leafValues>
            2.1428024768829346e-01 -8.8408267498016357e-01</leafValues></_>
        <_>
          <internalNodes>
            0 -1 148 -1.8919605761766434e-02</internalNodes>
          <leafValues>
            -5.5106985569000244e-01 4.1441154479980469e-01</leafValues></_>
        <_>
          <internalNodes>
            0 -1 62 1.3455442967824638e-04</internalNodes>
          <leafValues>
            -5.8348226547241211e-01 2.4776858091354370e-01</leafValues></_>
        <_>
          <internalNodes>
            0 -1 88 -1.5582897467538714e-03</internalNodes>
          <leafValues>
            -5.5224603414535522e-01 2.8525778651237488e-01</leafValues></_>
        <_>
          <internalNodes>
            0 -1 6 1.7001964151859283e-02</internalNodes>
          <leafValues>
            1.3908191025257111e-01 -8.9029490947723389e-01</leafValues></_>
        <_>
          <internalNodes>
            0 -1 5 -9.8582487553358078e-03</internalNodes>
          <leafValues>
            -8.7377184629440308e-01 1.3195109367370605e-01</leafValues></_></weakClassifiers></_>
    <!-- stage 14 -->
    <_>
      <maxWeakCount>10</maxWeakCount>
      <stageThreshold>-5.0835597515106201e-01</stageThreshold>
      <weakClassifiers>
        <_>
          <internalNodes>
            0 -1 4 -2.5400329381227493e-02</internalNodes>
          <leafValues>
            7.0329672098159790e-01 -1.4691942930221558e-01</leafValues></_>
        <_>
          <internalNodes>
            0 -1 164 1.2733823386952281e-03</internalNodes>
          <leafValues>
            -2.0606932044029236e-01 6.2627595663070679e-01</leafValues></_>
        <_>
          <internalNodes>
            0 -1 48 -3.7924054265022278e-01</internalNodes>
          <leafValues>
            2.9059213399887085e-01 -5.8880710601806641e-01</leafValues></_>
        <_>
          <internalNodes>
            0 -1 182 -3.3099679276347160e-03</internalNodes>
          <leafValues>
            -4.3719235062599182e-01 3.4392365813255310e-01</leafValues></_>
        <_>
          <internalNodes>
            0 -1 204 -8.3598904311656952e-03</internalNodes>
          <leafValues>
            7.2025233507156372e-01 -2.0728430151939392e-01</leafValues></_>
        <_>
          <internalNodes>
            0 -1 194 3.2943770289421082e-02</internalNodes>
          <leafValues>
            -2.6497209072113037e-01 6.4051663875579834e-01</leafValues></_>
        <_>
          <internalNodes>
            0 -1 45 -5.3323574364185333e-02</internalNodes>
          <leafValues>
            2.1598649024963379e-01 -9.0178239345550537e-01</leafValues></_>
        <_>
          <internalNodes>
            0 -1 153 9.6979725640267134e-04</internalNodes>
          <leafValues>
            1.2846916913986206e-01 -7.9568982124328613e-01</leafValues></_>
        <_>
          <internalNodes>
            0 -1 207 -8.9363325387239456e-03</internalNodes>
          <leafValues>
            9.5252521336078644e-02 -9.7045856714248657e-01</leafValues></_>
        <_>
          <internalNodes>
            0 -1 10 2.3379175399895757e-04</internalNodes>
          <leafValues>
            -5.4183983802795410e-01 2.1590785682201385e-01</leafValues></_></weakClassifiers></_>
    <!-- stage 15 -->
    <_>
      <maxWeakCount>10</maxWeakCount>
      <stageThreshold>-4.7108411788940430e-01</stageThreshold>
      <weakClassifiers>
        <_>
          <internalNodes>
            0 -1 36 -2.4726141709834337e-03</internalNodes>
          <leafValues>
            6.1217588186264038e-01 -3.5361215472221375e-01</leafValues></_>
        <_>
          <internalNodes>
            0 -1 78 -8.8626176118850708e-02</internalNodes>
          <leafValues>
            6.6059321165084839e-01 -2.1149882674217224e-01</leafValues></_>
        <_>
          <internalNodes>
            0 -1 122 -1.1803117376985028e-04</internalNodes>
          <leafValues>
            -7.0084023475646973e-01 2.4519816040992737e-01</leafValues></_>
        <_>
          <internalNodes>
            0 -1 79 -1.9274418056011200e-01</internalNodes>
          <leafValues>
            6.8556421995162964e-01 -2.3766933381557465e-01</leafValues></_>
        <_>
          <internalNodes>
            0 -1 21 8.2415658980607986e-03</internalNodes>
          <leafValues>
            -5.0563681125640869e-01 3.5213908553123474e-01</leafValues></_>
        <_>
          <internalNodes>
            0 -1 95 -9.3499600887298584e-02</internalNodes>
          <leafValues>
            8.7044095993041992e-01 -2.3037287592887878e-01</leafValues></_>
        <_>
          <internalNodes>
            0 -1 198 -5.3983695805072784e-02</internalNodes>
          <leafValues>
            2.3182862997055054e-01 -7.3778760433197021e-01</leafValues></_>
        <_>
          <internalNodes>
            0 -1 56 -4.3729808181524277e-02</internalNodes>
          <leafValues>
            7.5316148996353149e-01 -2.1627853810787201e-01</leafValues></_>
        <_>
          <internalNodes>
            0 -1 54 1.2552546337246895e-02</internalNodes>
          <leafValues>
            -2.3387001454830170e-01 7.0259690284729004e-01</leafValues></_>
        <_>
          <internalNodes>
            0 -1 151 5.2894058171659708e-04</internalNodes>
          <leafValues>
            2.3382855951786041e-01 -6.8904030323028564e-01</leafValues></_></weakClassifiers></_>
    <!-- stage 16 -->
    <_>
      <maxWeakCount>12</maxWeakCount>
      <stageThreshold>-8.4308105707168579e-01</stageThreshold>
      <weakClassifiers>
        <_>
          <internalNodes>
            0 -1 94 7.0004612207412720e-03</internalNodes>
          <leafValues>
            5.3149604797363281e-01 -6.7164176702499390e-01</leafValues></_>
        <_>
          <internalNodes>
            0 -1 75 2.1197780966758728e-02</internalNodes>
          <leafValues>
            -2.7474614977836609e-01 6.7676544189453125e-01</leafValues></_>
        <_>
          <internalNodes>
            0 -1 174 4.5981764793395996e-02</internalNodes>
          <leafValues>
            -2.8886669874191284e-01 5.0416374206542969e-01</leafValues></_>
        <_>
          <internalNodes>
            0 -1 116 1.1263665510341525e-04</internalNodes>
          <leafValues>
            -3.7487375736236572e-01 3.8528221845626831e-01</leafValues></_>
        <_>
          <internalNodes>
            0 -1 197 5.4753301665186882e-03</internalNodes>
          <leafValues>
            2.1094234287738800e-01 -6.3756322860717773e-01</leafValues></_>
        <_>
          <internalNodes>
            0 -1 70 3.7896176218055189e-04</internalNodes>
          <leafValues>
            -4.0830576419830322e-01 3.9595174789428711e-01</leafValues></_>
        <_>
          <internalNodes>
            0 -1 189 -2.1334917983040214e-04</internalNodes>
          <leafValues>
            2.7850410342216492e-01 -5.0727051496505737e-01</leafValues></_>
        <_>
          <internalNodes>
            0 -1 43 -2.3011574521660805e-03</internalNodes>
          <leafValues>
            1.9543312489986420e-01 -6.1944955587387085e-01</leafValues></_>
        <_>
          <internalNodes>
            0 -1 137 -3.6281660199165344e-02</internalNodes>
          <leafValues>
            1.6986905038356781e-01 -7.8269702196121216e-01</leafValues></_>
        <_>
          <internalNodes>
            0 -1 34 1.2533289846032858e-03</internalNodes>
          <leafValues>
            1.3603475689888000e-01 -8.3922260999679565e-01</leafValues></_>
        <_>
          <internalNodes>
            0 -1 127 -1.1170529760420322e-03</internalNodes>
          <leafValues>
            -7.2479164600372314e-01 1.4587974548339844e-01</leafValues></_>
        <_>
          <internalNodes>
            0 -1 213 -3.1565368175506592e-02</internalNodes>
          <leafValues>
            -8.8163715600967407e-01 1.0510388016700745e-01</leafValues></_></weakClassifiers></_>
    <!-- stage 17 -->
    <_>
      <maxWeakCount>11</maxWeakCount>
      <stageThreshold>-5.0162726640701294e-01</stageThreshold>
      <weakClassifiers>
        <_>
          <internalNodes>
            0 -1 40 -8.9037592988461256e-04</internalNodes>
          <leafValues>
            -6.6929131746292114e-01 5.2297163009643555e-01</leafValues></_>
        <_>
          <internalNodes>
            0 -1 93 -9.8518771119415760e-04</internalNodes>
          <leafValues>
            -5.8004993200302124e-01 2.7467739582061768e-01</leafValues></_>
        <_>
          <internalNodes>
            0 -1 134 1.5705652534961700e-02</internalNodes>
          <leafValues>
            -1.7146538197994232e-01 8.5242408514022827e-01</leafValues></_>
        <_>
          <internalNodes>
            0 -1 12 -6.0631863772869110e-02</internalNodes>
          <leafValues>
            2.1701422333717346e-01 -6.7113280296325684e-01</leafValues></_>
        <_>
          <internalNodes>
            0 -1 117 -1.0293773375451565e-02</internalNodes>
          <leafValues>
            -4.4103792309761047e-01 3.5897022485733032e-01</leafValues></_>
        <_>
          <internalNodes>
            0 -1 144 -1.5089088119566441e-03</internalNodes>
          <leafValues>
            1.2760639190673828e-01 -9.4598996639251709e-01</leafValues></_>
        <_>
          <internalNodes>
            0 -1 170 3.2261274755001068e-03</internalNodes>
          <leafValues>
            -2.3231449723243713e-01 6.3904660940170288e-01</leafValues></_>
        <_>
          <internalNodes>
            0 -1 178 1.6765301115810871e-03</internalNodes>
          <leafValues>
            -4.1626533865928650e-01 3.1565535068511963e-01</leafValues></_>
        <_>
          <internalNodes>
            0 -1 195 -3.4903764724731445e-02</internalNodes>
          <leafValues>
            7.1888321638107300e-01 -2.5366982817649841e-01</leafValues></_>
        <_>
          <internalNodes>
            0 -1 131 -1.3142047100700438e-04</internalNodes>
          <leafValues>
            -6.9384014606475830e-01 2.1233622729778290e-01</leafValues></_>
        <_>
          <internalNodes>
            0 -1 58 -1.8121488392353058e-02</internalNodes>
          <leafValues>
            1.1886209249496460e-01 -8.6360239982604980e-01</leafValues></_></weakClassifiers></_>
    <!-- stage 18 -->
    <_>
      <maxWeakCount>14</maxWeakCount>
      <stageThreshold>-7.7318251132965088e-01</stageThreshold>
      <weakClassifiers>
        <_>
          <internalNodes>
            0 -1 120 2.7476819013827480e-05</internalNodes>
          <leafValues>
            -3.7440758943557739e-01 5.6336528062820435e-01</leafValues></_>
        <_>
          <internalNodes>
            0 -1 155 2.8663694858551025e-02</internalNodes>
          <leafValues>
            -3.5041275620460510e-01 4.1569203138351440e-01</leafValues></_>
        <_>
          <internalNodes>
            0 -1 172 6.4145657233893871e-04</internalNodes>
          <leafValues>
            2.3962697386741638e-01 -5.2745354175567627e-01</leafValues></_>
        <_>
          <internalNodes>
            0 -1 171 -1.8538235127925873e-01</internalNodes>
          <leafValues>
            1.6206315159797668e-01 -7.3724001646041870e-01</leafValues></_>
        <_>
          <internalNodes>
            0 -1 44 -5.0530731678009033e-03</internalNodes>
          <leafValues>
            4.2409968376159668e-01 -3.7271657586097717e-01</leafValues></_>
        <_>
          <internalNodes>
            0 -1 15 1.5656616538763046e-02</internalNodes>
          <leafValues>
            -2.6453495025634766e-01 4.4208711385726929e-01</leafValues></_>
        <_>
          <internalNodes>
            0 -1 19 -3.4798875276464969e-05</internalNodes>
          <leafValues>
            2.7836817502975464e-01 -4.3614423274993896e-01</leafValues></_>
        <_>
          <internalNodes>
            0 -1 154 5.3354830015450716e-04</internalNodes>
          <leafValues>
            1.7030951380729675e-01 -6.8406808376312256e-01</leafValues></_>
        <_>
          <internalNodes>
            0 -1 7 4.3262820690870285e-03</internalNodes>
          <leafValues>
            1.2003241479396820e-01 -8.3955734968185425e-01</leafValues></_>
        <_>
          <internalNodes>
            0 -1 103 -1.7233487218618393e-02</internalNodes>
          <leafValues>
            -4.7358864545822144e-01 2.0053713023662567e-01</leafValues></_>
        <_>
          <internalNodes>
            0 -1 57 -1.2949410080909729e-01</internalNodes>
          <leafValues>
            1.8489427864551544e-01 -6.7541050910949707e-01</leafValues></_>
        <_>
          <internalNodes>
            0 -1 114 9.4721952336840332e-05</internalNodes>
          <leafValues>
            -2.8800925612449646e-01 4.7848224639892578e-01</leafValues></_>
        <_>
          <internalNodes>
            0 -1 180 -2.2330895066261292e-02</internalNodes>
          <leafValues>
            6.2153059244155884e-01 -1.8334235250949860e-01</leafValues></_>
        <_>
          <internalNodes>
            0 -1 104 7.8022982925176620e-03</internalNodes>
          <leafValues>
            2.0784273743629456e-01 -6.2724095582962036e-01</leafValues></_></weakClassifiers></_>
    <!-- stage 19 -->
    <_>
      <maxWeakCount>15</maxWeakCount>
      <stageThreshold>-8.0072844028472900e-01</stageThreshold>
      <weakClassifiers>
        <_>
          <internalNodes>
            0 -1 81 -1.6597192734479904e-03</internalNodes>
          <leafValues>
            7.2870659828186035e-01 -2.3255813866853714e-02</leafValues></_>
        <_>
          <internalNodes>
            0 -1 92 -1.3171123340725899e-02</internalNodes>
          <leafValues>
            3.7832534313201904e-01 -4.3451869487762451e-01</leafValues></_>
        <_>
          <internalNodes>
            0 -1 67 2.3922264575958252e-02</internalNodes>
          <leafValues>
            -3.0110365152359009e-01 4.7399008274078369e-01</leafValues></_>
        <_>
          <internalNodes>
            0 -1 216 -2.8395870685926639e-05</internalNodes>
          <leafValues>
            2.8339406847953796e-01 -5.1312595605850220e-01</leafValues></_>
        <_>
          <internalNodes>
            0 -1 83 -4.2926240712404251e-02</internalNodes>
          <leafValues>
            -9.2731124162673950e-01 1.2478560954332352e-01</leafValues></_>
        <_>
          <internalNodes>
            0 -1 208 -5.2378205582499504e-03</internalNodes>
          <leafValues>
            6.7163944244384766e-01 -2.1869695186614990e-01</leafValues></_>
        <_>
          <internalNodes>
            0 -1 185 4.7779083251953125e-03</internalNodes>
          <leafValues>
            -3.3870160579681396e-01 3.7571960687637329e-01</leafValues></_>
        <_>
          <internalNodes>
            0 -1 129 -4.1584699647501111e-04</internalNodes>
          <leafValues>
            1.4156113564968109e-01 -1.</leafValues></_>
        <_>
          <internalNodes>
            0 -1 109 1.4655691571533680e-02</internalNodes>
          <leafValues>
            -1.9704753160476685e-01 7.9490125179290771e-01</leafValues></_>
        <_>
          <internalNodes>
            0 -1 38 -3.6326660774648190e-03</internalNodes>
          <leafValues>
            -6.4841568470001221e-01 2.2343499958515167e-01</leafValues></_>
        <_>
          <internalNodes>
            0 -1 27 2.3025521659292281e-04</internalNodes>
          <leafValues>
            -3.5158208012580872e-01 3.6495286226272583e-01</leafValues></_>
        <_>
          <internalNodes>
            0 -1 133 4.7209956392180175e-05</internalNodes>
          <leafValues>
            2.1507477760314941e-01 -5.9130436182022095e-01</leafValues></_>
        <_>
          <internalNodes>
            0 -1 192 -2.3474725894629955e-03</internalNodes>
          <leafValues>
            6.7728400230407715e-01 -1.9720834493637085e-01</leafValues></_>
        <_>
          <internalNodes>
            0 -1 130 -8.1204390153288841e-03</internalNodes>
          <leafValues>
            -4.6549978852272034e-01 2.7639538049697876e-01</leafValues></_>
        <_>
          <internalNodes>
            0 -1 105 -6.0191817581653595e-02</internalNodes>
          <leafValues>
            1.9337664544582367e-01 -6.3769590854644775e-01</leafValues></_></weakClassifiers></_>
    <!-- stage 20 -->
    <_>
      <maxWeakCount>12</maxWeakCount>
      <stageThreshold>-7.9098129272460938e-01</stageThreshold>
      <weakClassifiers>
        <_>
          <internalNodes>
            0 -1 160 -1.7453463748097420e-02</internalNodes>
          <leafValues>
            5.6687897443771362e-01 -4.0384614467620850e-01</leafValues></_>
        <_>
          <internalNodes>
            0 -1 143 -1.0829858365468681e-04</internalNodes>
          <leafValues>
            3.4151011705398560e-01 -5.2732890844345093e-01</leafValues></_>
        <_>
          <internalNodes>
            0 -1 140 1.3496933970600367e-03</internalNodes>
          <leafValues>
            2.1526384353637695e-01 -6.9627255201339722e-01</leafValues></_>
        <_>
          <internalNodes>
            0 -1 215 -3.0499097192659974e-05</internalNodes>
          <leafValues>
            2.7443113923072815e-01 -4.4881376624107361e-01</leafValues></_>
        <_>
          <internalNodes>
            0 -1 220 -1.6232889611274004e-03</internalNodes>
          <leafValues>
            1.3260871171951294e-01 -8.6726874113082886e-01</leafValues></_>
        <_>
          <internalNodes>
            0 -1 191 -1.0427867528051138e-03</internalNodes>
          <leafValues>
            2.7649986743927002e-01 -4.0657907724380493e-01</leafValues></_>
        <_>
          <internalNodes>
            0 -1 29 -2.7923874557018280e-02</internalNodes>
          <leafValues>
            2.2345684468746185e-01 -5.6728363037109375e-01</leafValues></_>
        <_>
          <internalNodes>
            0 -1 18 -2.4010650813579559e-03</internalNodes>
          <leafValues>
            4.3270251154899597e-01 -2.5694862008094788e-01</leafValues></_>
        <_>
          <internalNodes>
            0 -1 108 -6.0461503453552723e-03</internalNodes>
          <leafValues>
            7.5166606903076172e-01 -1.8292868137359619e-01</leafValues></_>
        <_>
          <internalNodes>
            0 -1 13 3.9048660546541214e-03</internalNodes>
          <leafValues>
            2.2113823890686035e-01 -6.3430070877075195e-01</leafValues></_>
        <_>
          <internalNodes>
            0 -1 64 -2.8150805737823248e-03</internalNodes>
          <leafValues>
            9.6698537468910217e-02 -9.8130655288696289e-01</leafValues></_>
        <_>
          <internalNodes>
            0 -1 197 -7.6267244294285774e-03</internalNodes>
          <leafValues>
            -6.7396932840347290e-01 1.3985133171081543e-01</leafValues></_></weakClassifiers></_>
    <!-- stage 21 -->
    <_>
      <maxWeakCount>13</maxWeakCount>
      <stageThreshold>-7.3085337877273560e-01</stageThreshold>
      <weakClassifiers>
        <_>
          <internalNodes>
            0 -1 152 5.1373764872550964e-03</internalNodes>
          <leafValues>
            -3.7799042463302612e-01 5.6216788291931152e-01</leafValues></_>
        <_>
          <internalNodes>
            0 -1 47 1.1414971668273211e-03</internalNodes>
          <leafValues>
            -6.0451710224151611e-01 2.9190224409103394e-01</leafValues></_>
        <_>
          <internalNodes>
            0 -1 210 -7.6352606993168592e-04</internalNodes>
          <leafValues>
            3.5055324435234070e-01 -4.2001545429229736e-01</leafValues></_>
        <_>
          <internalNodes>
            0 -1 173 2.1591674885712564e-04</internalNodes>
          <leafValues>
            2.5600957870483398e-01 -5.8174097537994385e-01</leafValues></_>
        <_>
          <internalNodes>
            0 -1 51 5.0205131992697716e-03</internalNodes>
          <leafValues>
            -2.3276978731155396e-01 6.0565906763076782e-01</leafValues></_>
        <_>
          <internalNodes>
            0 -1 0 1.2098740786314011e-02</internalNodes>
          <leafValues>
            1.9661457836627960e-01 -7.3130863904953003e-01</leafValues></_>
        <_>
          <internalNodes>
            0 -1 30 2.5096986442804337e-02</internalNodes>
          <leafValues>
            -3.4446465969085693e-01 4.0529385209083557e-01</leafValues></_>
        <_>
          <internalNodes>
            0 -1 145 -4.0094114840030670e-02</internalNodes>
          <leafValues>
            1.8522500991821289e-01 -6.9758564233779907e-01</leafValues></_>
        <_>
          <internalNodes>
            0 -1 33 -1.7703672638162971e-03</internalNodes>
          <leafValues>
            3.7251824140548706e-01 -3.6011233925819397e-01</leafValues></_>
        <_>
          <internalNodes>
            0 -1 65 2.5660255923867226e-03</internalNodes>
          <leafValues>
            -2.2561046481132507e-01 5.6425720453262329e-01</leafValues></_>
        <_>
          <internalNodes>
            0 -1 97 3.0632624402642250e-03</internalNodes>
          <leafValues>
            1.6771584749221802e-01 -8.4090644121170044e-01</leafValues></_>
        <_>
          <internalNodes>
            0 -1 106 -1.4952480560168624e-03</internalNodes>
          <leafValues>
            -7.8565973043441772e-01 1.3459916412830353e-01</leafValues></_>
        <_>
          <internalNodes>
            0 -1 200 -8.0383040767628700e-05</internalNodes>
          <leafValues>
            2.0317015051841736e-01 -5.2763462066650391e-01</leafValues></_></weakClassifiers></_>
    <!-- stage 22 -->
    <_>
      <maxWeakCount>12</maxWeakCount>
      <stageThreshold>-7.5509476661682129e-01</stageThreshold>
      <weakClassifiers>
        <_>
          <internalNodes>
            0 -1 37 -2.2559068165719509e-03</internalNodes>
          <leafValues>
            5.4297268390655518e-01 -5.4037266969680786e-01</leafValues></_>
        <_>
          <internalNodes>
            0 -1 187 -6.6097211092710495e-03</internalNodes>
          <leafValues>
            4.8120805621147156e-01 -3.5763600468635559e-01</leafValues></_>
        <_>
          <internalNodes>
            0 -1 96 -1.5516845509409904e-02</internalNodes>
          <leafValues>
            5.0574338436126709e-01 -2.8578215837478638e-01</leafValues></_>
        <_>
          <internalNodes>
            0 -1 50 4.4736318290233612e-02</internalNodes>
          <leafValues>
            -2.3502665758132935e-01 5.8949077129364014e-01</leafValues></_>
        <_>
          <internalNodes>
            0 -1 69 -1.6543719172477722e-01</internalNodes>
          <leafValues>
            -5.2266281843185425e-01 2.9542139172554016e-01</leafValues></_>
        <_>
          <internalNodes>
            0 -1 184 -2.1323647350072861e-02</internalNodes>
          <leafValues>
            1.8536230921745300e-01 -7.4335515499114990e-01</leafValues></_>
        <_>
          <internalNodes>
            0 -1 214 1.5626734122633934e-02</internalNodes>
          <leafValues>
            1.2645052373409271e-01 -7.7030324935913086e-01</leafValues></_>
        <_>
          <internalNodes>
            0 -1 138 -6.3771349377930164e-03</internalNodes>
          <leafValues>
            8.7091922760009766e-01 -1.5601350367069244e-01</leafValues></_>
        <_>
          <internalNodes>
            0 -1 86 -6.8847492337226868e-02</internalNodes>
          <leafValues>
            8.5251468420028687e-01 -1.0996052622795105e-01</leafValues></_>
        <_>
          <internalNodes>
            0 -1 218 -3.8340506143867970e-03</internalNodes>
          <leafValues>
            1.4983603358268738e-01 -9.0695816278457642e-01</leafValues></_>
        <_>
          <internalNodes>
            0 -1 85 2.9681917279958725e-02</internalNodes>
          <leafValues>
            -1.7848178744316101e-01 8.2323443889617920e-01</leafValues></_>
        <_>
          <internalNodes>
            0 -1 162 1.0016061132773757e-03</internalNodes>
          <leafValues>
            1.9648040831089020e-01 -7.3520642518997192e-01</leafValues></_></weakClassifiers></_>
    <!-- stage 23 -->
    <_>
      <maxWeakCount>12</maxWeakCount>
      <stageThreshold>-6.4827787876129150e-01</stageThreshold>
      <weakClassifiers>
        <_>
          <internalNodes>
            0 -1 199 -2.9789120890200138e-04</internalNodes>
          <leafValues>
            5.6953644752502441e-01 -2.7049180865287781e-01</leafValues></_>
        <_>
          <internalNodes>
            0 -1 102 -8.3421796560287476e-02</internalNodes>
          <leafValues>
            7.6729166507720947e-01 -1.4544418454170227e-01</leafValues></_>
        <_>
          <internalNodes>
            0 -1 156 -2.6886573323281482e-05</internalNodes>
          <leafValues>
            3.6478441953659058e-01 -3.2647934556007385e-01</leafValues></_>
        <_>
          <internalNodes>
            0 -1 113 -1.4182837912812829e-04</internalNodes>
          <leafValues>
            8.2869112491607666e-02 -1.</leafValues></_>
        <_>
          <internalNodes>
            0 -1 99 -2.6066042482852936e-03</internalNodes>
          <leafValues>
            -8.0485308170318604e-01 1.2888315320014954e-01</leafValues></_>
        <_>
          <internalNodes>
            0 -1 100 -1.0617342591285706e-01</internalNodes>
          <leafValues>
            8.3895432949066162e-01 -1.6804419457912445e-01</leafValues></_>
        <_>
          <internalNodes>
            0 -1 72 3.3890377730131149e-02</internalNodes>
          <leafValues>
            -1.2648631632328033e-01 8.5448068380355835e-01</leafValues></_>
        <_>
          <internalNodes>
            0 -1 20 -4.3352571083232760e-04</internalNodes>
          <leafValues>
            4.0381270647048950e-01 -3.1513425707817078e-01</leafValues></_>
        <_>
          <internalNodes>
            0 -1 196 1.4316507149487734e-03</internalNodes>
          <leafValues>
            1.3708710670471191e-01 -8.4762048721313477e-01</leafValues></_>
        <_>
          <internalNodes>
            0 -1 203 -2.2033513523638248e-03</internalNodes>
          <leafValues>
            4.9096277356147766e-01 -2.7698001265525818e-01</leafValues></_>
        <_>
          <internalNodes>
            0 -1 201 8.1459376960992813e-03</internalNodes>
          <leafValues>
            -2.1483494341373444e-01 5.8080279827117920e-01</leafValues></_>
        <_>
          <internalNodes>
            0 -1 82 3.2639177516102791e-03</internalNodes>
          <leafValues>
            1.7628365755081177e-01 -7.2967439889907837e-01</leafValues></_></weakClassifiers></_>
    <!-- stage 24 -->
    <_>
      <maxWeakCount>11</maxWeakCount>
      <stageThreshold>-9.8884826898574829e-01</stageThreshold>
      <weakClassifiers>
        <_>
          <internalNodes>
            0 -1 11 -1.0099081322550774e-02</internalNodes>
          <leafValues>
            -7.3983740806579590e-01 5.2677702903747559e-01</leafValues></_>
        <_>
          <internalNodes>
            0 -1 115 1.3109426014125347e-02</internalNodes>
          <leafValues>
            -4.3883252143859863e-01 4.4729056954383850e-01</leafValues></_>
        <_>
          <internalNodes>
            0 -1 169 -1.1365346610546112e-02</internalNodes>
          <leafValues>
            4.7107699513435364e-01 -3.2870683073997498e-01</leafValues></_>
        <_>
          <internalNodes>
            0 -1 71 4.7973237931728363e-02</internalNodes>
          <leafValues>
            -1.7656399309635162e-01 8.0301505327224731e-01</leafValues></_>
        <_>
          <internalNodes>
            0 -1 90 -3.0445046722888947e-02</internalNodes>
          <leafValues>
            8.7623548507690430e-01 -1.9761139154434204e-01</leafValues></_>
        <_>
          <internalNodes>
            0 -1 49 2.1893794182687998e-03</internalNodes>
          <leafValues>
            -1.7936664819717407e-01 6.0726398229598999e-01</leafValues></_>
        <_>
          <internalNodes>
            0 -1 139 3.6593357799574733e-04</internalNodes>
          <leafValues>
            2.4220113456249237e-01 -5.6803429126739502e-01</leafValues></_>
        <_>
          <internalNodes>
            0 -1 163 1.3605067579192109e-05</internalNodes>
          <leafValues>
            -3.1057801842689514e-01 4.4436532258987427e-01</leafValues></_>
        <_>
          <internalNodes>
            0 -1 118 -1.2502964818850160e-04</internalNodes>
          <leafValues>
            -7.9799133539199829e-01 1.9261477887630463e-01</leafValues></_>
        <_>
          <internalNodes>
            0 -1 63 2.7198442257940769e-03</internalNodes>
          <leafValues>
            -2.4333856999874115e-01 5.8817672729492188e-01</leafValues></_>
        <_>
          <internalNodes>
            0 -1 55 -5.0322592258453369e-02</internalNodes>
          <leafValues>
            7.7056545019149780e-01 -1.5133085846900940e-01</leafValues></_></weakClassifiers></_></stages>
  <features>
    <_>
      <rects>
        <_>
          0 0 16 18 -1.</_>
        <_>
          0 9 16 9 2.</_></rects>
      <tilted>0</tilted></_>
    <_>
      <rects>
        <_>
          0 2 18 2 -1.</_>
        <_>
          6 2 6 2 2.</_></rects>
      <tilted>0</tilted></_>
    <_>
      <rects>
        <_>
          0 3 10 12 -1.</_>
        <_>
          0 3 5 6 2.</_>
        <_>
          5 9 5 6 2.</_></rects>
      <tilted>0</tilted></_>
    <_>
      <rects>
        <_>
          0 3 16 4 -1.</_>
        <_>
          0 5 16 2 2.</_></rects>
      <tilted>0</tilted></_>
    <_>
      <rects>
        <_>
          0 4 10 8 -1.</_>
        <_>
          0 4 5 4 2.</_>
        <_>
          5 8 5 4 2.</_></rects>
      <tilted>0</tilted></_>
    <_>
      <rects>
        <_>
          0 9 2 8 -1.</_>
        <_>
          0 13 2 4 2.</_></rects>
      <tilted>0</tilted></_>
    <_>
      <rects>
        <_>
          0 9 5 8 -1.</_>
        <_>
          0 13 5 4 2.</_></rects>
      <tilted>0</tilted></_>
    <_>
      <rects>
        <_>
          0 10 5 4 -1.</_>
        <_>
          0 12 5 2 2.</_></rects>
      <tilted>0</tilted></_>
    <_>
      <rects>
        <_>
          0 10 10 14 -1.</_>
        <_>
          0 10 5 7 2.</_>
        <_>
          5 17 5 7 2.</_></rects>
      <tilted>0</tilted></_>
    <_>
      <rects>
        <_>
          0 12 12 1 -1.</_>
        <_>
          6 12 6 1 2.</_></rects>
      <tilted>0</tilted></_>
    <_>
      <rects>
        <_>
          0 12 8 8 -1.</_>
        <_>
          0 16 8 4 2.</_></rects>
      <tilted>0</tilted></_>
    <_>
      <rects>
        <_>
          0 12 22 8 -1.</_>
        <_>
          0 16 22 4 2.</_></rects>
      <tilted>0</tilted></_>
    <_>
      <rects>
        <_>
          0 12 24 3 -1.</_>
        <_>
          0 13 24 1 2.</_></rects>
      <tilted>0</tilted></_>
    <_>
      <rects>
        <_>
          0 13 22 2 -1.</_>
        <_>
          0 14 22 1 2.</_></rects>
      <tilted>0</tilted></_>
    <_>
      <rects>
        <_>
          0 14 14 1 -1.</_>
        <_>
          7 14 7 1 2.</_></rects>
      <tilted>0</tilted></_>
    <_>
      <rects>
        <_>
          0 17 6 3 -1.</_>
        <_>
          3 17 3 3 2.</_></rects>
      <tilted>0</tilted></_>
    <_>
      <rects>
        <_>
          0 18 6 4 -1.</_>
        <_>
          3 18 3 4 2.</_></rects>
      <tilted>0</tilted></_>
    <_>
      <rects>
        <_>
          0 19 6 2 -1.</_>
        <_>
          3 19 3 2 2.</_></rects>
      <tilted>0</tilted></_>
    <_>
      <rects>
        <_>
          0 19 8 4 -1.</_>
        <_>
          0 19 4 2 2.</_>
        <_>
          4 21 4 2 2.</_></rects>
      <tilted>0</tilted></_>
    <_>
      <rects>
        <_>
          0 20 1 2 -1.</_>
        <_>
          0 21 1 1 2.</_></rects>
      <tilted>0</tilted></_>
    <_>
      <rects>
        <_>
          0 20 6 2 -1.</_>
        <_>
          0 20 3 1 2.</_>
        <_>
          3 21 3 1 2.</_></rects>
      <tilted>0</tilted></_>
    <_>
      <rects>
        <_>
          0 20 8 3 -1.</_>
        <_>
          4 20 4 3 2.</_></rects>
      <tilted>0</tilted></_>
    <_>
      <rects>
        <_>
          0 21 3 2 -1.</_>
        <_>
          0 22 3 1 2.</_></rects>
      <tilted>0</tilted></_>
    <_>
      <rects>
        <_>
          0 21 6 2 -1.</_>
        <_>
          3 21 3 2 2.</_></rects>
      <tilted>0</tilted></_>
    <_>
      <rects>
        <_>
          0 21 6 3 -1.</_>
        <_>
          3 21 3 3 2.</_></rects>
      <tilted>0</tilted></_>
    <_>
      <rects>
        <_>
          0 22 6 2 -1.</_>
        <_>
          0 22 3 1 2.</_>
        <_>
          3 23 3 1 2.</_></rects>
      <tilted>0</tilted></_>
    <_>
      <rects>
        <_>
          0 22 23 2 -1.</_>
        <_>
          0 23 23 1 2.</_></rects>
      <tilted>0</tilted></_>
    <_>
      <rects>
        <_>
          1 0 2 5 -1.</_>
        <_>
          2 0 1 5 2.</_></rects>
      <tilted>0</tilted></_>
    <_>
      <rects>
        <_>
          1 2 8 14 -1.</_>
        <_>
          1 2 4 7 2.</_>
        <_>
          5 9 4 7 2.</_></rects>
      <tilted>0</tilted></_>
    <_>
      <rects>
        <_>
          1 2 10 14 -1.</_>
        <_>
          1 2 5 7 2.</_>
        <_>
          6 9 5 7 2.</_></rects>
      <tilted>0</tilted></_>
    <_>
      <rects>
        <_>
          1 3 20 4 -1.</_>
        <_>
          1 5 20 2 2.</_></rects>
      <tilted>0</tilted></_>
    <_>
      <rects>
        <_>
          1 4 22 18 -1.</_>
        <_>
          1 10 22 6 2.</_></rects>
      <tilted>0</tilted></_>
    <_>
      <rects>
        <_>
          1 5 22 8 -1.</_>
        <_>
          12 5 11 8 2.</_></rects>
      <tilted>0</tilted></_>
    <_>
      <rects>
        <_>
          1 8 8 1 -1.</_>
        <_>
          5 8 4 1 2.</_></rects>
      <tilted>0</tilted></_>
    <_>
      <rects>
        <_>
          1 9 3 2 -1.</_>
        <_>
          1 10 3 1 2.</_></rects>
      <tilted>0</tilted></_>
    <_>
      <rects>
        <_>
          1 10 4 4 -1.</_>
        <_>
          3 10 2 4 2.</_></rects>
      <tilted>0</tilted></_>
    <_>
      <rects>
        <_>
          1 10 10 1 -1.</_>
        <_>
          6 10 5 1 2.</_></rects>
      <tilted>0</tilted></_>
    <_>
      <rects>
        <_>
          1 10 12 6 -1.</_>
        <_>
          7 10 6 6 2.</_></rects>
      <tilted>0</tilted></_>
    <_>
      <rects>
        <_>
          1 11 7 4 -1.</_>
        <_>
          1 13 7 2 2.</_></rects>
      <tilted>0</tilted></_>
    <_>
      <rects>
        <_>
          1 12 10 1 -1.</_>
        <_>
          6 12 5 1 2.</_></rects>
      <tilted>0</tilted></_>
    <_>
      <rects>
        <_>
          1 12 16 12 -1.</_>
        <_>
          1 12 8 6 2.</_>
        <_>
          9 18 8 6 2.</_></rects>
      <tilted>0</tilted></_>
    <_>
      <rects>
        <_>
          1 14 10 1 -1.</_>
        <_>
          6 14 5 1 2.</_></rects>
      <tilted>0</tilted></_>
    <_>
      <rects>
        <_>
          1 14 10 2 -1.</_>
        <_>
          6 14 5 2 2.</_></rects>
      <tilted>0</tilted></_>
    <_>
      <rects>
        <_>
          1 14 16 1 -1.</_>
        <_>
          9 14 8 1 2.</_></rects>
      <tilted>0</tilted></_>
    <_>
      <rects>
        <_>
          1 17 8 1 -1.</_>
        <_>
          5 17 4 1 2.</_></rects>
      <tilted>0</tilted></_>
    <_>
      <rects>
        <_>
          1 17 15 4 -1.</_>
        <_>
          6 17 5 4 2.</_></rects>
      <tilted>0</tilted></_>
    <_>
      <rects>
        <_>
          1 19 4 1 -1.</_>
        <_>
          3 19 2 1 2.</_></rects>
      <tilted>0</tilted></_>
    <_>
      <rects>
        <_>
          1 22 6 2 -1.</_>
        <_>
          4 22 3 2 2.</_></rects>
      <tilted>0</tilted></_>
    <_>
      <rects>
        <_>
          2 0 12 24 -1.</_>
        <_>
          6 0 4 24 2.</_></rects>
      <tilted>0</tilted></_>
    <_>
      <rects>
        <_>
          2 1 2 7 -1.</_>
        <_>
          3 1 1 7 2.</_></rects>
      <tilted>0</tilted></_>
    <_>
      <rects>
        <_>
          2 2 20 4 -1.</_>
        <_>
          2 4 20 2 2.</_></rects>
      <tilted>0</tilted></_>
    <_>
      <rects>
        <_>
          2 5 2 10 -1.</_>
        <_>
          3 5 1 10 2.</_></rects>
      <tilted>0</tilted></_>
    <_>
      <rects>
        <_>
          2 6 2 17 -1.</_>
        <_>
          3 6 1 17 2.</_></rects>
      <tilted>0</tilted></_>
    <_>
      <rects>
        <_>
          2 6 2 18 -1.</_>
        <_>
          3 6 1 18 2.</_></rects>
      <tilted>0</tilted></_>
    <_>
      <rects>
        <_>
          2 6 4 8 -1.</_>
        <_>
          4 6 2 8 2.</_></rects>
      <tilted>0</tilted></_>
    <_>
      <rects>
        <_>
          2 6 4 14 -1.</_>
        <_>
          4 6 2 14 2.</_></rects>
      <tilted>0</tilted></_>
    <_>
      <rects>
        <_>
          2 7 4 14 -1.</_>
        <_>
          4 7 2 14 2.</_></rects>
      <tilted>0</tilted></_>
    <_>
      <rects>
        <_>
          2 11 21 5 -1.</_>
        <_>
          9 11 7 5 2.</_></rects>
      <tilted>0</tilted></_>
    <_>
      <rects>
        <_>
          2 11 12 3 -1.</_>
        <_>
          2 12 12 1 2.</_></rects>
      <tilted>0</tilted></_>
    <_>
      <rects>
        <_>
          2 12 6 6 -1.</_>
        <_>
          2 15 6 3 2.</_></rects>
      <tilted>0</tilted></_>
    <_>
      <rects>
        <_>
          2 13 16 10 -1.</_>
        <_>
          2 13 8 5 2.</_>
        <_>
          10 18 8 5 2.</_></rects>
      <tilted>0</tilted></_>
    <_>
      <rects>
        <_>
          2 15 8 1 -1.</_>
        <_>
          6 15 4 1 2.</_></rects>
      <tilted>0</tilted></_>
    <_>
      <rects>
        <_>
          2 23 4 1 -1.</_>
        <_>
          4 23 2 1 2.</_></rects>
      <tilted>0</tilted></_>
    <_>
      <rects>
        <_>
          3 0 2 10 -1.</_>
        <_>
          3 0 1 5 2.</_>
        <_>
          4 5 1 5 2.</_></rects>
      <tilted>0</tilted></_>
    <_>
      <rects>
        <_>
          3 0 6 1 -1.</_>
        <_>
          5 0 2 1 2.</_></rects>
      <tilted>0</tilted></_>
    <_>
      <rects>
        <_>
          3 2 4 8 -1.</_>
        <_>
          3 2 2 4 2.</_>
        <_>
          5 6 2 4 2.</_></rects>
      <tilted>0</tilted></_>
    <_>
      <rects>
        <_>
          3 3 19 4 -1.</_>
        <_>
          3 5 19 2 2.</_></rects>
      <tilted>0</tilted></_>
    <_>
      <rects>
        <_>
          3 3 20 4 -1.</_>
        <_>
          3 5 20 2 2.</_></rects>
      <tilted>0</tilted></_>
    <_>
      <rects>
        <_>
          3 5 12 17 -1.</_>
        <_>
          7 5 4 17 2.</_></rects>
      <tilted>0</tilted></_>
    <_>
      <rects>
        <_>
          3 8 6 12 -1.</_>
        <_>
          3 12 6 4 2.</_></rects>
      <tilted>0</tilted></_>
    <_>
      <rects>
        <_>
          4 0 2 5 -1.</_>
        <_>
          5 0 1 5 2.</_></rects>
      <tilted>0</tilted></_>
    <_>
      <rects>
        <_>
          4 18 15 4 -1.</_>
        <_>
          4 20 15 2 2.</_></rects>
      <tilted>0</tilted></_>
    <_>
      <rects>
        <_>
          4 19 12 4 -1.</_>
        <_>
          4 21 12 2 2.</_></rects>
      <tilted>0</tilted></_>
    <_>
      <rects>
        <_>
          4 22 3 2 -1.</_>
        <_>
          4 23 3 1 2.</_></rects>
      <tilted>0</tilted></_>
    <_>
      <rects>
        <_>
          5 0 15 24 -1.</_>
        <_>
          5 8 15 8 2.</_></rects>
      <tilted>0</tilted></_>
    <_>
      <rects>
        <_>
          5 3 9 4 -1.</_>
        <_>
          5 5 9 2 2.</_></rects>
      <tilted>0</tilted></_>
    <_>
      <rects>
        <_>
          5 4 14 10 -1.</_>
        <_>
          5 9 14 5 2.</_></rects>
      <tilted>0</tilted></_>
    <_>
      <rects>
        <_>
          5 4 15 10 -1.</_>
        <_>
          5 9 15 5 2.</_></rects>
      <tilted>0</tilted></_>
    <_>
      <rects>
        <_>
          5 5 12 6 -1.</_>
        <_>
          5 8 12 3 2.</_></rects>
      <tilted>0</tilted></_>
    <_>
      <rects>
        <_>
          5 6 16 10 -1.</_>
        <_>
          5 11 16 5 2.</_></rects>
      <tilted>0</tilted></_>
    <_>
      <rects>
        <_>
          5 16 16 6 -1.</_>
        <_>
          5 19 16 3 2.</_></rects>
      <tilted>0</tilted></_>
    <_>
      <rects>
        <_>
          5 21 6 2 -1.</_>
        <_>
          5 22 6 1 2.</_></rects>
      <tilted>0</tilted></_>
    <_>
      <rects>
        <_>
          5 22 8 1 -1.</_>
        <_>
          9 22 4 1 2.</_></rects>
      <tilted>0</tilted></_>
    <_>
      <rects>
        <_>
          6 2 14 9 -1.</_>
        <_>
          13 2 7 9 2.</_></rects>
      <tilted>0</tilted></_>
    <_>
      <rects>
        <_>
          6 2 12 14 -1.</_>
        <_>
          6 9 12 7 2.</_></rects>
      <tilted>0</tilted></_>
    <_>
      <rects>
        <_>
          6 4 7 4 -1.</_>
        <_>
          6 6 7 2 2.</_></rects>
      <tilted>0</tilted></_>
    <_>
      <rects>
        <_>
          6 4 14 4 -1.</_>
        <_>
          6 6 14 2 2.</_></rects>
      <tilted>0</tilted></_>
    <_>
      <rects>
        <_>
          6 9 18 8 -1.</_>
        <_>
          15 9 9 8 2.</_></rects>
      <tilted>0</tilted></_>
    <_>
      <rects>
        <_>
          6 10 18 2 -1.</_>
        <_>
          6 11 18 1 2.</_></rects>
      <tilted>0</tilted></_>
    <_>
      <rects>
        <_>
          6 11 11 12 -1.</_>
        <_>
          6 17 11 6 2.</_></rects>
      <tilted>0</tilted></_>
    <_>
      <rects>
        <_>
          6 18 15 4 -1.</_>
        <_>
          6 20 15 2 2.</_></rects>
      <tilted>0</tilted></_>
    <_>
      <rects>
        <_>
          6 22 10 2 -1.</_>
        <_>
          11 22 5 2 2.</_></rects>
      <tilted>0</tilted></_>
    <_>
      <rects>
        <_>
          7 0 1 16 -1.</_>
        <_>
          7 8 1 8 2.</_></rects>
      <tilted>0</tilted></_>
    <_>
      <rects>
        <_>
          7 1 2 17 -1.</_>
        <_>
          8 1 1 17 2.</_></rects>
      <tilted>0</tilted></_>
    <_>
      <rects>
        <_>
          7 3 6 6 -1.</_>
        <_>
          10 3 3 6 2.</_></rects>
      <tilted>0</tilted></_>
    <_>
      <rects>
        <_>
          7 3 12 6 -1.</_>
        <_>
          7 6 12 3 2.</_></rects>
      <tilted>0</tilted></_>
    <_>
      <rects>
        <_>
          7 4 1 12 -1.</_>
        <_>
          7 10 1 6 2.</_></rects>
      <tilted>0</tilted></_>
    <_>
      <rects>
        <_>
          7 4 4 4 -1.</_>
        <_>
          9 4 2 4 2.</_></rects>
      <tilted>0</tilted></_>
    <_>
      <rects>
        <_>
          7 4 2 10 -1.</_>
        <_>
          7 9 2 5 2.</_></rects>
      <tilted>0</tilted></_>
    <_>
      <rects>
        <_>
          7 4 4 6 -1.</_>
        <_>
          9 4 2 6 2.</_></rects>
      <tilted>0</tilted></_>
    <_>
      <rects>
        <_>
          7 4 9 6 -1.</_>
        <_>
          7 7 9 3 2.</_></rects>
      <tilted>0</tilted></_>
    <_>
      <rects>
        <_>
          7 4 12 14 -1.</_>
        <_>
          7 11 12 7 2.</_></rects>
      <tilted>0</tilted></_>
    <_>
      <rects>
        <_>
          7 6 8 6 -1.</_>
        <_>
          7 9 8 3 2.</_></rects>
      <tilted>0</tilted></_>
    <_>
      <rects>
        <_>
          7 12 5 3 -1.</_>
        <_>
          7 13 5 1 2.</_></rects>
      <tilted>0</tilted></_>
    <_>
      <rects>
        <_>
          7 15 12 8 -1.</_>
        <_>
          7 15 6 4 2.</_>
        <_>
          13 19 6 4 2.</_></rects>
      <tilted>0</tilted></_>
    <_>
      <rects>
        <_>
          7 20 12 4 -1.</_>
        <_>
          11 20 4 4 2.</_></rects>
      <tilted>0</tilted></_>
    <_>
      <rects>
        <_>
          8 2 2 20 -1.</_>
        <_>
          9 2 1 20 2.</_></rects>
      <tilted>0</tilted></_>
    <_>
      <rects>
        <_>
          8 2 10 4 -1.</_>
        <_>
          13 2 5 4 2.</_></rects>
      <tilted>0</tilted></_>
    <_>
      <rects>
        <_>
          8 2 11 2 -1.</_>
        <_>
          8 3 11 1 2.</_></rects>
      <tilted>0</tilted></_>
    <_>
      <rects>
        <_>
          8 2 12 2 -1.</_>
        <_>
          8 3 12 1 2.</_></rects>
      <tilted>0</tilted></_>
    <_>
      <rects>
        <_>
          8 3 1 12 -1.</_>
        <_>
          8 9 1 6 2.</_></rects>
      <tilted>0</tilted></_>
    <_>
      <rects>
        <_>
          8 4 2 15 -1.</_>
        <_>
          9 4 1 15 2.</_></rects>
      <tilted>0</tilted></_>
    <_>
      <rects>
        <_>
          8 4 11 10 -1.</_>
        <_>
          8 9 11 5 2.</_></rects>
      <tilted>0</tilted></_>
    <_>
      <rects>
        <_>
          8 8 1 3 -1.</_>
        <_>
          8 9 1 1 2.</_></rects>
      <tilted>0</tilted></_>
    <_>
      <rects>
        <_>
          8 8 2 6 -1.</_>
        <_>
          8 11 2 3 2.</_></rects>
      <tilted>0</tilted></_>
    <_>
      <rects>
        <_>
          8 9 16 2 -1.</_>
        <_>
          16 9 8 2 2.</_></rects>
      <tilted>0</tilted></_>
    <_>
      <rects>
        <_>
          8 10 2 6 -1.</_>
        <_>
          8 13 2 3 2.</_></rects>
      <tilted>0</tilted></_>
    <_>
      <rects>
        <_>
          8 10 9 1 -1.</_>
        <_>
          11 10 3 1 2.</_></rects>
      <tilted>0</tilted></_>
    <_>
      <rects>
        <_>
          8 11 2 4 -1.</_>
        <_>
          9 11 1 4 2.</_></rects>
      <tilted>0</tilted></_>
    <_>
      <rects>
        <_>
          8 11 2 12 -1.</_>
        <_>
          8 17 2 6 2.</_></rects>
      <tilted>0</tilted></_>
    <_>
      <rects>
        <_>
          8 12 1 6 -1.</_>
        <_>
          8 15 1 3 2.</_></rects>
      <tilted>0</tilted></_>
    <_>
      <rects>
        <_>
          8 12 6 1 -1.</_>
        <_>
          10 12 2 1 2.</_></rects>
      <tilted>0</tilted></_>
    <_>
      <rects>
        <_>
          8 13 2 4 -1.</_>
        <_>
          9 13 1 4 2.</_></rects>
      <tilted>0</tilted></_>
    <_>
      <rects>
        <_>
          8 20 10 3 -1.</_>
        <_>
          13 20 5 3 2.</_></rects>
      <tilted>0</tilted></_>
    <_>
      <rects>
        <_>
          8 22 1 2 -1.</_>
        <_>
          8 23 1 1 2.</_></rects>
      <tilted>0</tilted></_>
    <_>
      <rects>
        <_>
          8 22 12 1 -1.</_>
        <_>
          14 22 6 1 2.</_></rects>
      <tilted>0</tilted></_>
    <_>
      <rects>
        <_>
          9 1 1 14 -1.</_>
        <_>
          9 8 1 7 2.</_></rects>
      <tilted>0</tilted></_>
    <_>
      <rects>
        <_>
          9 5 2 16 -1.</_>
        <_>
          10 5 1 16 2.</_></rects>
      <tilted>0</tilted></_>
    <_>
      <rects>
        <_>
          9 8 2 8 -1.</_>
        <_>
          10 8 1 8 2.</_></rects>
      <tilted>0</tilted></_>
    <_>
      <rects>
        <_>
          9 11 6 1 -1.</_>
        <_>
          11 11 2 1 2.</_></rects>
      <tilted>0</tilted></_>
    <_>
      <rects>
        <_>
          9 13 3 2 -1.</_>
        <_>
          10 13 1 2 2.</_></rects>
      <tilted>0</tilted></_>
    <_>
      <rects>
        <_>
          9 14 4 2 -1.</_>
        <_>
          11 14 2 2 2.</_></rects>
      <tilted>0</tilted></_>
    <_>
      <rects>
        <_>
          10 6 6 18 -1.</_>
        <_>
          12 6 2 18 2.</_></rects>
      <tilted>0</tilted></_>
    <_>
      <rects>
        <_>
          10 7 2 1 -1.</_>
        <_>
          11 7 1 1 2.</_></rects>
      <tilted>0</tilted></_>
    <_>
      <rects>
        <_>
          10 18 10 2 -1.</_>
        <_>
          10 19 10 1 2.</_></rects>
      <tilted>0</tilted></_>
    <_>
      <rects>
        <_>
          10 22 3 2 -1.</_>
        <_>
          10 23 3 1 2.</_></rects>
      <tilted>0</tilted></_>
    <_>
      <rects>
        <_>
          11 0 3 24 -1.</_>
        <_>
          12 0 1 24 2.</_></rects>
      <tilted>0</tilted></_>
    <_>
      <rects>
        <_>
          11 1 3 12 -1.</_>
        <_>
          12 1 1 12 2.</_></rects>
      <tilted>0</tilted></_>
    <_>
      <rects>
        <_>
          11 3 7 2 -1.</_>
        <_>
          11 4 7 1 2.</_></rects>
      <tilted>0</tilted></_>
    <_>
      <rects>
        <_>
          11 4 2 5 -1.</_>
        <_>
          12 4 1 5 2.</_></rects>
      <tilted>0</tilted></_>
    <_>
      <rects>
        <_>
          11 4 4 5 -1.</_>
        <_>
          13 4 2 5 2.</_></rects>
      <tilted>0</tilted></_>
    <_>
      <rects>
        <_>
          11 4 8 10 -1.</_>
        <_>
          11 9 8 5 2.</_></rects>
      <tilted>0</tilted></_>
    <_>
      <rects>
        <_>
          11 12 3 1 -1.</_>
        <_>
          12 12 1 1 2.</_></rects>
      <tilted>0</tilted></_>
    <_>
      <rects>
        <_>
          11 22 1 2 -1.</_>
        <_>
          11 23 1 1 2.</_></rects>
      <tilted>0</tilted></_>
    <_>
      <rects>
        <_>
          12 0 3 1 -1.</_>
        <_>
          13 0 1 1 2.</_></rects>
      <tilted>0</tilted></_>
    <_>
      <rects>
        <_>
          12 0 3 12 -1.</_>
        <_>
          13 0 1 12 2.</_></rects>
      <tilted>0</tilted></_>
    <_>
      <rects>
        <_>
          12 2 9 4 -1.</_>
        <_>
          12 4 9 2 2.</_></rects>
      <tilted>0</tilted></_>
    <_>
      <rects>
        <_>
          12 3 4 12 -1.</_>
        <_>
          12 9 4 6 2.</_></rects>
      <tilted>0</tilted></_>
    <_>
      <rects>
        <_>
          12 12 5 3 -1.</_>
        <_>
          12 13 5 1 2.</_></rects>
      <tilted>0</tilted></_>
    <_>
      <rects>
        <_>
          12 14 3 1 -1.</_>
        <_>
          13 14 1 1 2.</_></rects>
      <tilted>0</tilted></_>
    <_>
      <rects>
        <_>
          12 22 4 2 -1.</_>
        <_>
          12 23 4 1 2.</_></rects>
      <tilted>0</tilted></_>
    <_>
      <rects>
        <_>
          13 4 2 10 -1.</_>
        <_>
          14 4 1 10 2.</_></rects>
      <tilted>0</tilted></_>
    <_>
      <rects>
        <_>
          13 8 10 5 -1.</_>
        <_>
          18 8 5 5 2.</_></rects>
      <tilted>0</tilted></_>
    <_>
      <rects>
        <_>
          14 3 2 8 -1.</_>
        <_>
          14 3 1 4 2.</_>
        <_>
          15 7 1 4 2.</_></rects>
      <tilted>0</tilted></_>
    <_>
      <rects>
        <_>
          14 3 2 9 -1.</_>
        <_>
          15 3 1 9 2.</_></rects>
      <tilted>0</tilted></_>
    <_>
      <rects>
        <_>
          14 4 10 8 -1.</_>
        <_>
          14 4 5 4 2.</_>
        <_>
          19 8 5 4 2.</_></rects>
      <tilted>0</tilted></_>
    <_>
      <rects>
        <_>
          14 5 1 2 -1.</_>
        <_>
          14 6 1 1 2.</_></rects>
      <tilted>0</tilted></_>
    <_>
      <rects>
        <_>
          14 10 10 14 -1.</_>
        <_>
          14 10 5 7 2.</_>
        <_>
          19 17 5 7 2.</_></rects>
      <tilted>0</tilted></_>
    <_>
      <rects>
        <_>
          14 12 10 3 -1.</_>
        <_>
          19 12 5 3 2.</_></rects>
      <tilted>0</tilted></_>
    <_>
      <rects>
        <_>
          14 22 5 2 -1.</_>
        <_>
          14 23 5 1 2.</_></rects>
      <tilted>0</tilted></_>
    <_>
      <rects>
        <_>
          15 0 3 16 -1.</_>
        <_>
          15 8 3 8 2.</_></rects>
      <tilted>0</tilted></_>
    <_>
      <rects>
        <_>
          15 1 3 8 -1.</_>
        <_>
          16 1 1 8 2.</_></rects>
      <tilted>0</tilted></_>
    <_>
      <rects>
        <_>
          15 1 2 12 -1.</_>
        <_>
          16 1 1 12 2.</_></rects>
      <tilted>0</tilted></_>
    <_>
      <rects>
        <_>
          15 2 2 1 -1.</_>
        <_>
          16 2 1 1 2.</_></rects>
      <tilted>0</tilted></_>
    <_>
      <rects>
        <_>
          15 3 1 4 -1.</_>
        <_>
          15 5 1 2 2.</_></rects>
      <tilted>0</tilted></_>
    <_>
      <rects>
        <_>
          15 7 2 10 -1.</_>
        <_>
          16 7 1 10 2.</_></rects>
      <tilted>0</tilted></_>
    <_>
      <rects>
        <_>
          15 9 8 1 -1.</_>
        <_>
          19 9 4 1 2.</_></rects>
      <tilted>0</tilted></_>
    <_>
      <rects>
        <_>
          15 11 8 1 -1.</_>
        <_>
          19 11 4 1 2.</_></rects>
      <tilted>0</tilted></_>
    <_>
      <rects>
        <_>
          15 12 8 2 -1.</_>
        <_>
          19 12 4 2 2.</_></rects>
      <tilted>0</tilted></_>
    <_>
      <rects>
        <_>
          16 1 8 7 -1.</_>
        <_>
          20 1 4 7 2.</_></rects>
      <tilted>0</tilted></_>
    <_>
      <rects>
        <_>
          16 3 3 2 -1.</_>
        <_>
          16 4 3 1 2.</_></rects>
      <tilted>0</tilted></_>
    <_>
      <rects>
        <_>
          16 4 7 18 -1.</_>
        <_>
          16 10 7 6 2.</_></rects>
      <tilted>0</tilted></_>
    <_>
      <rects>
        <_>
          16 7 2 11 -1.</_>
        <_>
          17 7 1 11 2.</_></rects>
      <tilted>0</tilted></_>
    <_>
      <rects>
        <_>
          16 8 2 7 -1.</_>
        <_>
          17 8 1 7 2.</_></rects>
      <tilted>0</tilted></_>
    <_>
      <rects>
        <_>
          16 8 6 13 -1.</_>
        <_>
          19 8 3 13 2.</_></rects>
      <tilted>0</tilted></_>
    <_>
      <rects>
        <_>
          16 9 2 5 -1.</_>
        <_>
          17 9 1 5 2.</_></rects>
      <tilted>0</tilted></_>
    <_>
      <rects>
        <_>
          16 12 8 2 -1.</_>
        <_>
          16 13 8 1 2.</_></rects>
      <tilted>0</tilted></_>
    <_>
      <rects>
        <_>
          16 13 1 6 -1.</_>
        <_>
          16 16 1 3 2.</_></rects>
      <tilted>0</tilted></_>
    <_>
      <rects>
        <_>
          16 15 8 1 -1.</_>
        <_>
          20 15 4 1 2.</_></rects>
      <tilted>0</tilted></_>
    <_>
      <rects>
        <_>
          17 5 6 19 -1.</_>
        <_>
          20 5 3 19 2.</_></rects>
      <tilted>0</tilted></_>
    <_>
      <rects>
        <_>
          17 6 2 12 -1.</_>
        <_>
          17 12 2 6 2.</_></rects>
      <tilted>0</tilted></_>
    <_>
      <rects>
        <_>
          17 8 6 8 -1.</_>
        <_>
          20 8 3 8 2.</_></rects>
      <tilted>0</tilted></_>
    <_>
      <rects>
        <_>
          17 11 1 3 -1.</_>
        <_>
          17 12 1 1 2.</_></rects>
      <tilted>0</tilted></_>
    <_>
      <rects>
        <_>
          17 12 6 5 -1.</_>
        <_>
          20 12 3 5 2.</_></rects>
      <tilted>0</tilted></_>
    <_>
      <rects>
        <_>
          17 19 6 3 -1.</_>
        <_>
          17 20 6 1 2.</_></rects>
      <tilted>0</tilted></_>
    <_>
      <rects>
        <_>
          18 15 6 2 -1.</_>
        <_>
          21 15 3 2 2.</_></rects>
      <tilted>0</tilted></_>
    <_>
      <rects>
        <_>
          18 18 6 3 -1.</_>
        <_>
          18 19 6 1 2.</_></rects>
      <tilted>0</tilted></_>
    <_>
      <rects>
        <_>
          18 20 6 2 -1.</_>
        <_>
          21 20 3 2 2.</_></rects>
      <tilted>0</tilted></_>
    <_>
      <rects>
        <_>
          18 21 6 3 -1.</_>
        <_>
          21 21 3 3 2.</_></rects>
      <tilted>0</tilted></_>
    <_>
      <rects>
        <_>
          18 22 2 2 -1.</_>
        <_>
          18 23 2 1 2.</_></rects>
      <tilted>0</tilted></_>
    <_>
      <rects>
        <_>
          18 22 4 2 -1.</_>
        <_>
          18 23 4 1 2.</_></rects>
      <tilted>0</tilted></_>
    <_>
      <rects>
        <_>
          18 23 6 1 -1.</_>
        <_>
          21 23 3 1 2.</_></rects>
      <tilted>0</tilted></_>
    <_>
      <rects>
        <_>
          19 2 2 14 -1.</_>
        <_>
          19 2 1 7 2.</_>
        <_>
          20 9 1 7 2.</_></rects>
      <tilted>0</tilted></_>
    <_>
      <rects>
        <_>
          19 3 4 21 -1.</_>
        <_>
          21 3 2 21 2.</_></rects>
      <tilted>0</tilted></_>
    <_>
      <rects>
        <_>
          19 8 4 11 -1.</_>
        <_>
          21 8 2 11 2.</_></rects>
      <tilted>0</tilted></_>
    <_>
      <rects>
        <_>
          19 8 4 16 -1.</_>
        <_>
          21 8 2 16 2.</_></rects>
      <tilted>0</tilted></_>
    <_>
      <rects>
        <_>
          19 10 5 2 -1.</_>
        <_>
          19 11 5 1 2.</_></rects>
      <tilted>0</tilted></_>
    <_>
      <rects>
        <_>
          19 10 5 6 -1.</_>
        <_>
          19 13 5 3 2.</_></rects>
      <tilted>0</tilted></_>
    <_>
      <rects>
        <_>
          19 10 5 9 -1.</_>
        <_>
          19 13 5 3 2.</_></rects>
      <tilted>0</tilted></_>
    <_>
      <rects>
        <_>
          19 21 5 2 -1.</_>
        <_>
          19 22 5 1 2.</_></rects>
      <tilted>0</tilted></_>
    <_>
      <rects>
        <_>
          19 22 1 2 -1.</_>
        <_>
          19 23 1 1 2.</_></rects>
      <tilted>0</tilted></_>
    <_>
      <rects>
        <_>
          20 3 2 18 -1.</_>
        <_>
          21 3 1 18 2.</_></rects>
      <tilted>0</tilted></_>
    <_>
      <rects>
        <_>
          20 4 2 6 -1.</_>
        <_>
          21 4 1 6 2.</_></rects>
      <tilted>0</tilted></_>
    <_>
      <rects>
        <_>
          20 6 2 4 -1.</_>
        <_>
          21 6 1 4 2.</_></rects>
      <tilted>0</tilted></_>
    <_>
      <rects>
        <_>
          20 6 2 12 -1.</_>
        <_>
          21 6 1 12 2.</_></rects>
      <tilted>0</tilted></_>
    <_>
      <rects>
        <_>
          20 7 4 12 -1.</_>
        <_>
          22 7 2 12 2.</_></rects>
      <tilted>0</tilted></_>
    <_>
      <rects>
        <_>
          20 9 4 4 -1.</_>
        <_>
          20 11 4 2 2.</_></rects>
      <tilted>0</tilted></_>
    <_>
      <rects>
        <_>
          20 12 4 3 -1.</_>
        <_>
          20 13 4 1 2.</_></rects>
      <tilted>0</tilted></_>
    <_>
      <rects>
        <_>
          20 13 2 5 -1.</_>
        <_>
          21 13 1 5 2.</_></rects>
      <tilted>0</tilted></_>
    <_>
      <rects>
        <_>
          20 17 4 5 -1.</_>
        <_>
          22 17 2 5 2.</_></rects>
      <tilted>0</tilted></_>
    <_>
      <rects>
        <_>
          20 18 4 1 -1.</_>
        <_>
          22 18 2 1 2.</_></rects>
      <tilted>0</tilted></_>
    <_>
      <rects>
        <_>
          20 19 4 2 -1.</_>
        <_>
          22 19 2 2 2.</_></rects>
      <tilted>0</tilted></_>
    <_>
      <rects>
        <_>
          20 22 4 1 -1.</_>
        <_>
          22 22 2 1 2.</_></rects>
      <tilted>0</tilted></_>
    <_>
      <rects>
        <_>
          21 3 1 9 -1.</_>
        <_>
          21 6 1 3 2.</_></rects>
      <tilted>0</tilted></_>
    <_>
      <rects>
        <_>
          22 9 2 14 -1.</_>
        <_>
          22 16 2 7 2.</_></rects>
      <tilted>0</tilted></_>
    <_>
      <rects>
        <_>
          22 11 2 1 -1.</_>
        <_>
          23 11 1 1 2.</_></rects>
      <tilted>0</tilted></_>
    <_>
      <rects>
        <_>
          22 19 2 2 -1.</_>
        <_>
          23 19 1 2 2.</_></rects>
      <tilted>0</tilted></_>
    <_>
      <rects>
        <_>
          23 7 1 6 -1.</_>
        <_>
          23 10 1 3 2.</_></rects>
      <tilted>0</tilted></_>
    <_>
      <rects>
        <_>
          23 14 1 6 -1.</_>
        <_>
          23 16 1 2 2.</_></rects>
      <tilted>0</tilted></_>
    <_>
      <rects>
        <_>
          23 15 1 8 -1.</_>
        <_>
          23 19 1 4 2.</_></rects>
      <tilted>0</tilted></_>
    <_>
      <rects>
        <_>
          23 20 1 3 -1.</_>
        <_>
          23 21 1 1 2.</_></rects>
      <tilted>0</tilted></_></features></cascade>
</opencv_storage>
