<?xml version="1.0"?>
<opencv_storage>
<stage17>
  <maxWeakCount>13</maxWeakCount>
  <stageThreshold>-4.5794799923896790e-01</stageThreshold>
  <weakClassifiers>
    <_>
      <internalNodes>
        0 -1 95688 2.3919983505038545e-05</internalNodes>
      <leafValues>
        -2.4070022627711296e-02 7.0744007825851440e-01</leafValues></_>
    <_>
      <internalNodes>
        0 -1 73140 3.8018012419342995e-03</internalNodes>
      <leafValues>
        -2.2370582818984985e-01 5.9242260456085205e-01</leafValues></_>
    <_>
      <internalNodes>
        0 -1 143440 3.8820793852210045e-03</internalNodes>
      <leafValues>
        -4.6129751205444336e-01 3.3345329761505127e-01</leafValues></_>
    <_>
      <internalNodes>
        0 -1 161733 5.4622525349259377e-03</internalNodes>
      <leafValues>
        1.7335224151611328e-01 -8.2069557905197144e-01</leafValues></_>
    <_>
      <internalNodes>
        0 -1 122087 -9.2895895242691040e-02</internalNodes>
      <leafValues>
        1.3698576390743256e-01 -7.1520501375198364e-01</leafValues></_>
    <_>
      <internalNodes>
        0 -1 14670 -4.2703442275524139e-02</internalNodes>
      <leafValues>
        4.3615224957466125e-01 -3.0447113513946533e-01</leafValues></_>
    <_>
      <internalNodes>
        0 -1 7520 3.5588925238698721e-03</internalNodes>
      <leafValues>
        1.1847610771656036e-01 -8.3599400520324707e-01</leafValues></_>
    <_>
      <internalNodes>
        0 -1 49467 -3.2230042852461338e-03</internalNodes>
      <leafValues>
        -7.7236711978912354e-01 1.2654219567775726e-01</leafValues></_>
    <_>
      <internalNodes>
        0 -1 162285 -6.3804225064814091e-03</internalNodes>
      <leafValues>
        9.6410736441612244e-02 -9.2190217971801758e-01</leafValues></_>
    <_>
      <internalNodes>
        0 -1 55472 -9.1163173317909241e-02</internalNodes>
      <leafValues>
        5.5873560905456543e-01 -2.1725708246231079e-01</leafValues></_>
    <_>
      <internalNodes>
        0 -1 125678 2.4596152798039839e-05</internalNodes>
      <leafValues>
        -2.8724256157875061e-01 5.0532639026641846e-01</leafValues></_>
    <_>
      <internalNodes>
        0 -1 145268 4.2067952454090118e-03</internalNodes>
      <leafValues>
        -1.9684065878391266e-01 6.6765242815017700e-01</leafValues></_>
    <_>
      <internalNodes>
        0 -1 72796 -4.3617874383926392e-02</internalNodes>
      <leafValues>
        -7.5969189405441284e-01 1.7929697036743164e-01</leafValues></_></weakClassifiers></stage17>
</opencv_storage>
