<?xml version="1.0"?>
<opencv_storage>
<stage19>
  <maxWeakCount>12</maxWeakCount>
  <stageThreshold>-8.8817912340164185e-01</stageThreshold>
  <weakClassifiers>
    <_>
      <internalNodes>
        0 -1 82305 -6.7781731486320496e-03</internalNodes>
      <leafValues>
        5.7470208406448364e-01 -4.8427674174308777e-01</leafValues></_>
    <_>
      <internalNodes>
        0 -1 13034 -2.1577866282314062e-03</internalNodes>
      <leafValues>
        4.5981109142303467e-01 -3.0509465932846069e-01</leafValues></_>
    <_>
      <internalNodes>
        0 -1 147062 1.2711322051472962e-04</internalNodes>
      <leafValues>
        2.8344106674194336e-01 -5.1768666505813599e-01</leafValues></_>
    <_>
      <internalNodes>
        0 -1 158577 -1.1336304247379303e-02</internalNodes>
      <leafValues>
        6.7375081777572632e-01 -2.0422652363777161e-01</leafValues></_>
    <_>
      <internalNodes>
        0 -1 158821 1.1071165092289448e-02</internalNodes>
      <leafValues>
        -1.9496382772922516e-01 6.7508566379547119e-01</leafValues></_>
    <_>
      <internalNodes>
        0 -1 142147 -1.0014728456735611e-01</internalNodes>
      <leafValues>
        1.7682844400405884e-01 -9.1330260038375854e-01</leafValues></_>
    <_>
      <internalNodes>
        0 -1 159186 -2.9328067321330309e-03</internalNodes>
      <leafValues>
        -6.9185829162597656e-01 1.5409076213836670e-01</leafValues></_>
    <_>
      <internalNodes>
        0 -1 134865 3.6652751266956329e-02</internalNodes>
      <leafValues>
        -2.8171119093894958e-01 4.9915072321891785e-01</leafValues></_>
    <_>
      <internalNodes>
        0 -1 23784 -3.2765339128673077e-03</internalNodes>
      <leafValues>
        1.9929848611354828e-01 -5.9247952699661255e-01</leafValues></_>
    <_>
      <internalNodes>
        0 -1 37893 2.6988878744305111e-05</internalNodes>
      <leafValues>
        -5.0079280138015747e-01 2.3213417828083038e-01</leafValues></_>
    <_>
      <internalNodes>
        0 -1 95633 -5.1451832405291498e-05</internalNodes>
      <leafValues>
        9.6972562372684479e-02 -1.</leafValues></_>
    <_>
      <internalNodes>
        0 -1 129408 1.0169239249080420e-03</internalNodes>
      <leafValues>
        1.0709308832883835e-01 -8.5985124111175537e-01</leafValues></_></weakClassifiers></stage19>
</opencv_storage>
