<?xml version="1.0"?>
<opencv_storage>
<stage14>
  <maxWeakCount>12</maxWeakCount>
  <stageThreshold>-1.0516506433486938e+00</stageThreshold>
  <weakClassifiers>
    <_>
      <internalNodes>
        0 -1 9200 3.7301152944564819e-02</internalNodes>
      <leafValues>
        -3.8211381435394287e-01 6.4143425226211548e-01</leafValues></_>
    <_>
      <internalNodes>
        0 -1 83549 -9.4862086698412895e-03</internalNodes>
      <leafValues>
        4.0672928094863892e-01 -4.1349545121192932e-01</leafValues></_>
    <_>
      <internalNodes>
        0 -1 157573 -2.7459562988951802e-04</internalNodes>
      <leafValues>
        3.5455816984176636e-01 -5.0517165660858154e-01</leafValues></_>
    <_>
      <internalNodes>
        0 -1 93773 -1.6414688434451818e-03</internalNodes>
      <leafValues>
        -6.7431730031967163e-01 2.0736718177795410e-01</leafValues></_>
    <_>
      <internalNodes>
        0 -1 10251 -1.7413243651390076e-02</internalNodes>
      <leafValues>
        1.7950730025768280e-01 -8.5236132144927979e-01</leafValues></_>
    <_>
      <internalNodes>
        0 -1 156896 7.8683523461222649e-03</internalNodes>
      <leafValues>
        1.7217327654361725e-01 -7.3357546329498291e-01</leafValues></_>
    <_>
      <internalNodes>
        0 -1 158158 -9.8577719181776047e-03</internalNodes>
      <leafValues>
        6.7395335435867310e-01 -2.4136431515216827e-01</leafValues></_>
    <_>
      <internalNodes>
        0 -1 28445 -8.6069501936435699e-02</internalNodes>
      <leafValues>
        -7.3007464408874512e-01 1.8909235298633575e-01</leafValues></_>
    <_>
      <internalNodes>
        0 -1 96464 -6.8939909397158772e-05</internalNodes>
      <leafValues>
        1.0821109265089035e-01 -1.</leafValues></_>
    <_>
      <internalNodes>
        0 -1 23357 -2.4397626984864473e-03</internalNodes>
      <leafValues>
        2.1259512007236481e-01 -6.6741997003555298e-01</leafValues></_>
    <_>
      <internalNodes>
        0 -1 22398 7.0828110910952091e-03</internalNodes>
      <leafValues>
        1.8126057088375092e-01 -7.8868216276168823e-01</leafValues></_>
    <_>
      <internalNodes>
        0 -1 12309 3.5161287523806095e-03</internalNodes>
      <leafValues>
        1.2415216863155365e-01 -8.5670095682144165e-01</leafValues></_></weakClassifiers></stage14>
</opencv_storage>
