<?xml version="1.0"?>
<opencv_storage>
<stage11>
  <maxWeakCount>9</maxWeakCount>
  <stageThreshold>-7.6124542951583862e-01</stageThreshold>
  <weakClassifiers>
    <_>
      <internalNodes>
        0 -1 60383 -7.0581294130533934e-04</internalNodes>
      <leafValues>
        6.9989049434661865e-01 -2.6409494876861572e-01</leafValues></_>
    <_>
      <internalNodes>
        0 -1 64175 -1.5946823358535767e-01</internalNodes>
      <leafValues>
        6.0681289434432983e-01 -3.1023269891738892e-01</leafValues></_>
    <_>
      <internalNodes>
        0 -1 141002 -2.0485070347785950e-01</internalNodes>
      <leafValues>
        2.4411894381046295e-01 -7.7307331562042236e-01</leafValues></_>
    <_>
      <internalNodes>
        0 -1 130616 1.2510388623923063e-03</internalNodes>
      <leafValues>
        2.1355277299880981e-01 -7.7602106332778931e-01</leafValues></_>
    <_>
      <internalNodes>
        0 -1 87539 -3.8558139931410551e-03</internalNodes>
      <leafValues>
        -5.2085298299789429e-01 3.0891627073287964e-01</leafValues></_>
    <_>
      <internalNodes>
        0 -1 12578 7.8138187527656555e-03</internalNodes>
      <leafValues>
        -4.2659908533096313e-01 4.0473544597625732e-01</leafValues></_>
    <_>
      <internalNodes>
        0 -1 80722 9.2253573238849640e-03</internalNodes>
      <leafValues>
        1.4413809776306152e-01 -8.5597515106201172e-01</leafValues></_>
    <_>
      <internalNodes>
        0 -1 11247 -9.3068242073059082e-02</internalNodes>
      <leafValues>
        1.7309357225894928e-01 -7.9716467857360840e-01</leafValues></_>
    <_>
      <internalNodes>
        0 -1 92572 -1.3423934578895569e-03</internalNodes>
      <leafValues>
        -7.7108007669448853e-01 1.7932675778865814e-01</leafValues></_></weakClassifiers></stage11>
</opencv_storage>
