<?xml version="1.0"?>
<opencv_storage>
<stage8>
  <maxWeakCount>7</maxWeakCount>
  <stageThreshold>-9.7052878141403198e-01</stageThreshold>
  <weakClassifiers>
    <_>
      <internalNodes>
        0 -1 161019 -8.2705497741699219e-02</internalNodes>
      <leafValues>
        -7.6315790414810181e-01 6.0655736923217773e-01</leafValues></_>
    <_>
      <internalNodes>
        0 -1 82380 -1.1534439027309418e-01</internalNodes>
      <leafValues>
        3.8295298814773560e-01 -7.1101009845733643e-01</leafValues></_>
    <_>
      <internalNodes>
        0 -1 22313 -9.2856474220752716e-03</internalNodes>
      <leafValues>
        3.6286222934722900e-01 -5.8224803209304810e-01</leafValues></_>
    <_>
      <internalNodes>
        0 -1 158720 -1.9422969780862331e-03</internalNodes>
      <leafValues>
        5.4163658618927002e-01 -3.9302980899810791e-01</leafValues></_>
    <_>
      <internalNodes>
        0 -1 37899 5.9568003052845597e-04</internalNodes>
      <leafValues>
        -4.6005555987358093e-01 4.0597864985466003e-01</leafValues></_>
    <_>
      <internalNodes>
        0 -1 92868 -2.1986905485391617e-02</internalNodes>
      <leafValues>
        -8.4698498249053955e-01 2.3693317174911499e-01</leafValues></_>
    <_>
      <internalNodes>
        0 -1 142178 2.7570177917368710e-04</internalNodes>
      <leafValues>
        2.0961362123489380e-01 -7.6163887977600098e-01</leafValues></_></weakClassifiers></stage8>
</opencv_storage>
