<?xml version="1.0"?>
<opencv_storage>
<stage17>
  <maxWeakCount>11</maxWeakCount>
  <stageThreshold>-5.0162726640701294e-01</stageThreshold>
  <weakClassifiers>
    <_>
      <internalNodes>
        0 -1 22971 -8.9037592988461256e-04</internalNodes>
      <leafValues>
        -6.6929131746292114e-01 5.2297163009643555e-01</leafValues></_>
    <_>
      <internalNodes>
        0 -1 81569 -9.8518771119415760e-04</internalNodes>
      <leafValues>
        -5.8004993200302124e-01 2.7467739582061768e-01</leafValues></_>
    <_>
      <internalNodes>
        0 -1 114054 1.5705652534961700e-02</internalNodes>
      <leafValues>
        -1.7146538197994232e-01 8.5242408514022827e-01</leafValues></_>
    <_>
      <internalNodes>
        0 -1 10551 -6.0631863772869110e-02</internalNodes>
      <leafValues>
        2.1701422333717346e-01 -6.7113280296325684e-01</leafValues></_>
    <_>
      <internalNodes>
        0 -1 95725 -1.0293773375451565e-02</internalNodes>
      <leafValues>
        -4.4103792309761047e-01 3.5897022485733032e-01</leafValues></_>
    <_>
      <internalNodes>
        0 -1 121346 -1.5089088119566441e-03</internalNodes>
      <leafValues>
        1.2760639190673828e-01 -9.4598996639251709e-01</leafValues></_>
    <_>
      <internalNodes>
        0 -1 145173 3.2261274755001068e-03</internalNodes>
      <leafValues>
        -2.3231449723243713e-01 6.3904660940170288e-01</leafValues></_>
    <_>
      <internalNodes>
        0 -1 147772 1.6765301115810871e-03</internalNodes>
      <leafValues>
        -4.1626533865928650e-01 3.1565535068511963e-01</leafValues></_>
    <_>
      <internalNodes>
        0 -1 156633 -3.4903764724731445e-02</internalNodes>
      <leafValues>
        7.1888321638107300e-01 -2.5366982817649841e-01</leafValues></_>
    <_>
      <internalNodes>
        0 -1 105403 -1.3142047100700438e-04</internalNodes>
      <leafValues>
        -6.9384014606475830e-01 2.1233622729778290e-01</leafValues></_>
    <_>
      <internalNodes>
        0 -1 34795 -1.8121488392353058e-02</internalNodes>
      <leafValues>
        1.1886209249496460e-01 -8.6360239982604980e-01</leafValues></_></weakClassifiers></stage17>
</opencv_storage>
