<?xml version="1.0"?>
<opencv_storage>
<stage13>
  <maxWeakCount>8</maxWeakCount>
  <stageThreshold>-8.7375277280807495e-01</stageThreshold>
  <weakClassifiers>
    <_>
      <internalNodes>
        0 -1 98590 -6.9178204284980893e-05</internalNodes>
      <leafValues>
        6.5330189466476440e-01 -3.4437087178230286e-01</leafValues></_>
    <_>
      <internalNodes>
        0 -1 151076 2.5068935006856918e-02</internalNodes>
      <leafValues>
        -2.9337844252586365e-01 6.4165544509887695e-01</leafValues></_>
    <_>
      <internalNodes>
        0 -1 114491 -6.7684918642044067e-02</internalNodes>
      <leafValues>
        2.1428024768829346e-01 -8.8408267498016357e-01</leafValues></_>
    <_>
      <internalNodes>
        0 -1 126510 -1.8919605761766434e-02</internalNodes>
      <leafValues>
        -5.5106985569000244e-01 4.1441154479980469e-01</leafValues></_>
    <_>
      <internalNodes>
        0 -1 37964 1.3455442967824638e-04</internalNodes>
      <leafValues>
        -5.8348226547241211e-01 2.4776858091354370e-01</leafValues></_>
    <_>
      <internalNodes>
        0 -1 77782 -1.5582897467538714e-03</internalNodes>
      <leafValues>
        -5.5224603414535522e-01 2.8525778651237488e-01</leafValues></_>
    <_>
      <internalNodes>
        0 -1 8348 1.7001964151859283e-02</internalNodes>
      <leafValues>
        1.3908191025257111e-01 -8.9029490947723389e-01</leafValues></_>
    <_>
      <internalNodes>
        0 -1 8201 -9.8582487553358078e-03</internalNodes>
      <leafValues>
        -8.7377184629440308e-01 1.3195109367370605e-01</leafValues></_></weakClassifiers></stage13>
</opencv_storage>
