<?xml version="1.0"?>
<opencv_storage>
<stage21>
  <maxWeakCount>13</maxWeakCount>
  <stageThreshold>-5.6952428817749023e-01</stageThreshold>
  <weakClassifiers>
    <_>
      <internalNodes>
        0 -1 83614 2.8901488985866308e-03</internalNodes>
      <leafValues>
        5.6766575574874878e-01 -5.0335568189620972e-01</leafValues></_>
    <_>
      <internalNodes>
        0 -1 84640 -1.5382198989391327e-01</internalNodes>
      <leafValues>
        6.0495388507843018e-01 -2.1075356006622314e-01</leafValues></_>
    <_>
      <internalNodes>
        0 -1 153645 4.9039606004953384e-02</internalNodes>
      <leafValues>
        -1.6475646197795868e-01 8.0959373712539673e-01</leafValues></_>
    <_>
      <internalNodes>
        0 -1 155196 -6.0414534527808428e-04</internalNodes>
      <leafValues>
        2.5734853744506836e-01 -5.0184005498886108e-01</leafValues></_>
    <_>
      <internalNodes>
        0 -1 59938 -2.1039631217718124e-02</internalNodes>
      <leafValues>
        6.0462504625320435e-01 -1.9151277840137482e-01</leafValues></_>
    <_>
      <internalNodes>
        0 -1 25065 -7.0839519612491131e-03</internalNodes>
      <leafValues>
        5.4351198673248291e-01 -2.3563601076602936e-01</leafValues></_>
    <_>
      <internalNodes>
        0 -1 106877 -5.6172996759414673e-02</internalNodes>
      <leafValues>
        1.7903119325637817e-01 -8.5849404335021973e-01</leafValues></_>
    <_>
      <internalNodes>
        0 -1 25269 2.0187889458611608e-04</internalNodes>
      <leafValues>
        1.6603195667266846e-01 -6.2404072284698486e-01</leafValues></_>
    <_>
      <internalNodes>
        0 -1 159164 2.7399146929383278e-02</internalNodes>
      <leafValues>
        -1.7520937323570251e-01 7.9362696409225464e-01</leafValues></_>
    <_>
      <internalNodes>
        0 -1 156726 -2.4261958897113800e-03</internalNodes>
      <leafValues>
        5.1285862922668457e-01 -2.3263099789619446e-01</leafValues></_>
    <_>
      <internalNodes>
        0 -1 158993 3.7095332518219948e-03</internalNodes>
      <leafValues>
        1.6973125934600830e-01 -8.3362442255020142e-01</leafValues></_>
    <_>
      <internalNodes>
        0 -1 90603 -1.2943380279466510e-03</internalNodes>
      <leafValues>
        -7.4770474433898926e-01 1.1187681555747986e-01</leafValues></_>
    <_>
      <internalNodes>
        0 -1 162221 -1.6740836435928941e-03</internalNodes>
      <leafValues>
        -8.1071060895919800e-01 1.0882876813411713e-01</leafValues></_></weakClassifiers></stage21>
</opencv_storage>
