<?xml version="1.0"?>
<opencv_storage>
<stage23>
  <maxWeakCount>12</maxWeakCount>
  <stageThreshold>-5.7319778203964233e-01</stageThreshold>
  <weakClassifiers>
    <_>
      <internalNodes>
        0 -1 89860 -1.0758195072412491e-02</internalNodes>
      <leafValues>
        6.3673466444015503e-01 -2.7407407760620117e-01</leafValues></_>
    <_>
      <internalNodes>
        0 -1 154450 2.2238265722990036e-02</internalNodes>
      <leafValues>
        -1.7907635867595673e-01 7.2847098112106323e-01</leafValues></_>
    <_>
      <internalNodes>
        0 -1 13047 -4.2678262107074261e-03</internalNodes>
      <leafValues>
        5.6100142002105713e-01 -2.6230207085609436e-01</leafValues></_>
    <_>
      <internalNodes>
        0 -1 22921 -7.6032767537981272e-04</internalNodes>
      <leafValues>
        -5.8166974782943726e-01 2.2073996067047119e-01</leafValues></_>
    <_>
      <internalNodes>
        0 -1 149327 5.1509551703929901e-03</internalNodes>
      <leafValues>
        -3.2150936126708984e-01 4.2764791846275330e-01</leafValues></_>
    <_>
      <internalNodes>
        0 -1 4104 -3.3545118640176952e-04</internalNodes>
      <leafValues>
        -4.6273419260978699e-01 2.9001581668853760e-01</leafValues></_>
    <_>
      <internalNodes>
        0 -1 128042 -1.2759878300130367e-03</internalNodes>
      <leafValues>
        1.1824515461921692e-01 -9.8072940111160278e-01</leafValues></_>
    <_>
      <internalNodes>
        0 -1 153575 -8.0862967297434807e-03</internalNodes>
      <leafValues>
        7.4414855241775513e-01 -2.0413257181644440e-01</leafValues></_>
    <_>
      <internalNodes>
        0 -1 41402 -1.0277865082025528e-01</internalNodes>
      <leafValues>
        7.7537924051284790e-01 -1.6708895564079285e-01</leafValues></_>
    <_>
      <internalNodes>
        0 -1 155215 -1.2849128688685596e-04</internalNodes>
      <leafValues>
        2.4959321320056915e-01 -5.6636470556259155e-01</leafValues></_>
    <_>
      <internalNodes>
        0 -1 32545 1.6092348378151655e-03</internalNodes>
      <leafValues>
        -2.1290811896324158e-01 6.6411048173904419e-01</leafValues></_>
    <_>
      <internalNodes>
        0 -1 135502 -1.9661423284560442e-03</internalNodes>
      <leafValues>
        -5.8640879392623901e-01 2.2255201637744904e-01</leafValues></_></weakClassifiers></stage23>
</opencv_storage>
