<?xml version="1.0"?>
<opencv_storage>
<stage8>
  <maxWeakCount>7</maxWeakCount>
  <stageThreshold>-7.9032135009765625e-01</stageThreshold>
  <weakClassifiers>
    <_>
      <internalNodes>
        0 -1 83610 -2.2753689438104630e-02</internalNodes>
      <leafValues>
        8.0594676733016968e-01 -1.2720157206058502e-01</leafValues></_>
    <_>
      <internalNodes>
        0 -1 36333 -3.3595236018300056e-03</internalNodes>
      <leafValues>
        5.3319692611694336e-01 -4.3147727847099304e-01</leafValues></_>
    <_>
      <internalNodes>
        0 -1 159723 -1.9513697770889848e-04</internalNodes>
      <leafValues>
        4.1754502058029175e-01 -5.8520781993865967e-01</leafValues></_>
    <_>
      <internalNodes>
        0 -1 147411 2.5780575015232898e-05</internalNodes>
      <leafValues>
        -6.7009776830673218e-01 3.3093869686126709e-01</leafValues></_>
    <_>
      <internalNodes>
        0 -1 98619 4.7158324159681797e-03</internalNodes>
      <leafValues>
        2.1274469792842865e-01 -8.2131892442703247e-01</leafValues></_>
    <_>
      <internalNodes>
        0 -1 155081 -1.7393874004483223e-02</internalNodes>
      <leafValues>
        1.8191806972026825e-01 -8.8997966051101685e-01</leafValues></_>
    <_>
      <internalNodes>
        0 -1 21619 5.3695188835263252e-03</internalNodes>
      <leafValues>
        -3.3567392826080322e-01 6.5913975238800049e-01</leafValues></_></weakClassifiers></stage8>
</opencv_storage>
