<?xml version="1.0"?>
<opencv_storage>
<stage5>
  <maxWeakCount>5</maxWeakCount>
  <stageThreshold>-7.0788520574569702e-01</stageThreshold>
  <weakClassifiers>
    <_>
      <internalNodes>
        0 -1 138207 1.1887920554727316e-03</internalNodes>
      <leafValues>
        -5.5033558607101440e-01 7.5000000000000000e-01</leafValues></_>
    <_>
      <internalNodes>
        0 -1 84063 -1.3894702494144440e-01</internalNodes>
      <leafValues>
        8.5799252986907959e-01 -3.2757291197776794e-01</leafValues></_>
    <_>
      <internalNodes>
        0 -1 13035 3.3990722149610519e-03</internalNodes>
      <leafValues>
        -6.0213595628738403e-01 5.5173772573471069e-01</leafValues></_>
    <_>
      <internalNodes>
        0 -1 144027 -3.9977111737243831e-04</internalNodes>
      <leafValues>
        3.9343765377998352e-01 -7.0880013704299927e-01</leafValues></_>
    <_>
      <internalNodes>
        0 -1 82408 -6.4666843973100185e-03</internalNodes>
      <leafValues>
        -7.1709245443344116e-01 3.2708567380905151e-01</leafValues></_></weakClassifiers></stage5>
</opencv_storage>
