<?xml version="1.0"?>
<opencv_storage>
<stage13>
  <maxWeakCount>11</maxWeakCount>
  <stageThreshold>-6.3892763853073120e-01</stageThreshold>
  <weakClassifiers>
    <_>
      <internalNodes>
        0 -1 106743 -2.3938424419611692e-05</internalNodes>
      <leafValues>
        6.4227640628814697e-01 -3.0827066302299500e-01</leafValues></_>
    <_>
      <internalNodes>
        0 -1 122916 8.2543573807924986e-04</internalNodes>
      <leafValues>
        -2.8171995282173157e-01 6.2208414077758789e-01</leafValues></_>
    <_>
      <internalNodes>
        0 -1 60718 -1.3129058480262756e-01</internalNodes>
      <leafValues>
        2.5802263617515564e-01 -6.2376564741134644e-01</leafValues></_>
    <_>
      <internalNodes>
        0 -1 32017 -5.0241846591234207e-02</internalNodes>
      <leafValues>
        5.2083629369735718e-01 -3.4467208385467529e-01</leafValues></_>
    <_>
      <internalNodes>
        0 -1 25473 5.2760057151317596e-03</internalNodes>
      <leafValues>
        -4.0203976631164551e-01 3.8775002956390381e-01</leafValues></_>
    <_>
      <internalNodes>
        0 -1 96788 -3.6093231756240129e-03</internalNodes>
      <leafValues>
        -5.3648412227630615e-01 3.0466696619987488e-01</leafValues></_>
    <_>
      <internalNodes>
        0 -1 158062 -2.8472140431404114e-02</internalNodes>
      <leafValues>
        5.2002990245819092e-01 -3.2436951994895935e-01</leafValues></_>
    <_>
      <internalNodes>
        0 -1 144154 -8.5252739489078522e-02</internalNodes>
      <leafValues>
        2.3199717700481415e-01 -5.3840774297714233e-01</leafValues></_>
    <_>
      <internalNodes>
        0 -1 101170 -2.0105790346860886e-02</internalNodes>
      <leafValues>
        7.3912632465362549e-01 -1.8938128650188446e-01</leafValues></_>
    <_>
      <internalNodes>
        0 -1 162083 -2.3618862542207353e-05</internalNodes>
      <leafValues>
        2.7410843968391418e-01 -5.2054429054260254e-01</leafValues></_>
    <_>
      <internalNodes>
        0 -1 10134 -5.4620327427983284e-03</internalNodes>
      <leafValues>
        -8.9658427238464355e-01 1.4273044466972351e-01</leafValues></_></weakClassifiers></stage13>
</opencv_storage>
