<?xml version="1.0"?>
<opencv_storage>
<stage22>
  <maxWeakCount>13</maxWeakCount>
  <stageThreshold>-7.5714480876922607e-01</stageThreshold>
  <weakClassifiers>
    <_>
      <internalNodes>
        0 -1 126896 -5.2063813200220466e-05</internalNodes>
      <leafValues>
        5.5172413587570190e-01 -1.</leafValues></_>
    <_>
      <internalNodes>
        0 -1 84608 -1.0794478654861450e-01</internalNodes>
      <leafValues>
        8.5228091478347778e-01 -1.8158456683158875e-01</leafValues></_>
    <_>
      <internalNodes>
        0 -1 86744 -1.2781028635799885e-04</internalNodes>
      <leafValues>
        -5.6484687328338623e-01 2.5135219097137451e-01</leafValues></_>
    <_>
      <internalNodes>
        0 -1 147235 2.6759549655253068e-05</internalNodes>
      <leafValues>
        -6.2155723571777344e-01 2.0239652693271637e-01</leafValues></_>
    <_>
      <internalNodes>
        0 -1 147656 -4.1413068771362305e-02</internalNodes>
      <leafValues>
        4.2545244097709656e-01 -3.0783399939537048e-01</leafValues></_>
    <_>
      <internalNodes>
        0 -1 23217 4.7333526890724897e-04</internalNodes>
      <leafValues>
        -3.0308485031127930e-01 3.7469509243965149e-01</leafValues></_>
    <_>
      <internalNodes>
        0 -1 12298 -7.5661451555788517e-03</internalNodes>
      <leafValues>
        5.6372934579849243e-01 -2.3368558287620544e-01</leafValues></_>
    <_>
      <internalNodes>
        0 -1 157455 -8.9316983940079808e-04</internalNodes>
      <leafValues>
        4.6390825510025024e-01 -2.6218035817146301e-01</leafValues></_>
    <_>
      <internalNodes>
        0 -1 40752 2.4477387778460979e-03</internalNodes>
      <leafValues>
        -1.9972775876522064e-01 5.9187889099121094e-01</leafValues></_>
    <_>
      <internalNodes>
        0 -1 9447 -3.7883473851252347e-05</internalNodes>
      <leafValues>
        3.1628170609474182e-01 -3.8344675302505493e-01</leafValues></_>
    <_>
      <internalNodes>
        0 -1 132552 -1.2803098652511835e-03</internalNodes>
      <leafValues>
        1.7987164855003357e-01 -6.3575202226638794e-01</leafValues></_>
    <_>
      <internalNodes>
        0 -1 120126 -3.6259773187339306e-03</internalNodes>
      <leafValues>
        -4.6403059363365173e-01 2.8748449683189392e-01</leafValues></_>
    <_>
      <internalNodes>
        0 -1 62363 4.1376622393727303e-03</internalNodes>
      <leafValues>
        -2.1225611865520477e-01 6.3336503505706787e-01</leafValues></_></weakClassifiers></stage22>
</opencv_storage>
