<?xml version="1.0"?>
<opencv_storage>
<stage28>
  <maxWeakCount>5</maxWeakCount>
  <stageThreshold>-3.2361480593681335e-01</stageThreshold>
  <weakClassifiers>
    <_>
      <internalNodes>
        0 -1 795 37871658 720371684 2013265638 1988100092 619544549
        -1375797249 1710554596 1153803807</internalNodes>
      <leafValues>
        -4.4529262185096741e-01 7.9908674955368042e-01</leafValues></_>
    <_>
      <internalNodes>
        0 -1 7378 -1593199527 302024704 1 16777344 768 -2147450880 130
        537083906</internalNodes>
      <leafValues>
        -5.7402539253234863e-01 7.4133640527725220e-01</leafValues></_>
    <_>
      <internalNodes>
        0 -1 8411 -782908798 0 8 -1073610751 1073873024 142622722 193
        -469712895</internalNodes>
      <leafValues>
        -6.8785196542739868e-01 6.7691856622695923e-01</leafValues></_>
    <_>
      <internalNodes>
        0 -1 1388 -10436947 804154351 1593782259 780336884 -819204
        -720897 2146795461 -1670312066</internalNodes>
      <leafValues>
        -5.4193961620330811e-01 8.8205403089523315e-01</leafValues></_>
    <_>
      <internalNodes>
        0 -1 1448 1359233035 294912 5 81923 136 8945666 -2147483520
        1258375171</internalNodes>
      <leafValues>
        -6.8365502357482910e-01 7.4090141057968140e-01</leafValues></_></weakClassifiers></stage28>
</opencv_storage>
