<?xml version="1.0"?>
<opencv_storage>
<stage18>
  <maxWeakCount>12</maxWeakCount>
  <stageThreshold>-8.2408791780471802e-01</stageThreshold>
  <weakClassifiers>
    <_>
      <internalNodes>
        0 -1 8536 -7.5123608112335205e-03</internalNodes>
      <leafValues>
        6.2648218870162964e-01 -3.5294118523597717e-01</leafValues></_>
    <_>
      <internalNodes>
        0 -1 68873 1.4550927281379700e-01</internalNodes>
      <leafValues>
        -2.6449549198150635e-01 5.8493399620056152e-01</leafValues></_>
    <_>
      <internalNodes>
        0 -1 158579 -1.1006839573383331e-02</internalNodes>
      <leafValues>
        6.7867803573608398e-01 -1.8756785988807678e-01</leafValues></_>
    <_>
      <internalNodes>
        0 -1 13376 6.0573435621336102e-04</internalNodes>
      <leafValues>
        -4.8727002739906311e-01 2.6344439387321472e-01</leafValues></_>
    <_>
      <internalNodes>
        0 -1 146425 1.7934007337316871e-04</internalNodes>
      <leafValues>
        2.6374807953834534e-01 -4.9542495608329773e-01</leafValues></_>
    <_>
      <internalNodes>
        0 -1 88251 7.1495381416752934e-04</internalNodes>
      <leafValues>
        2.4082116782665253e-01 -5.1224440336227417e-01</leafValues></_>
    <_>
      <internalNodes>
        0 -1 146845 -1.3343503815121949e-04</internalNodes>
      <leafValues>
        1.0139037668704987e-01 -9.8553681373596191e-01</leafValues></_>
    <_>
      <internalNodes>
        0 -1 100702 7.3237651959061623e-03</internalNodes>
      <leafValues>
        -2.8213438391685486e-01 5.0558286905288696e-01</leafValues></_>
    <_>
      <internalNodes>
        0 -1 73488 -6.5759614109992981e-02</internalNodes>
      <leafValues>
        8.8485276699066162e-01 -1.3596530258655548e-01</leafValues></_>
    <_>
      <internalNodes>
        0 -1 132462 3.2962178811430931e-03</internalNodes>
      <leafValues>
        -4.6089807152748108e-01 3.0035305023193359e-01</leafValues></_>
    <_>
      <internalNodes>
        0 -1 98654 -1.5119363088160753e-03</internalNodes>
      <leafValues>
        1.0684878379106522e-01 -9.5801961421966553e-01</leafValues></_>
    <_>
      <internalNodes>
        0 -1 2128 3.1991781725082546e-05</internalNodes>
      <leafValues>
        -3.5323292016983032e-01 3.1959927082061768e-01</leafValues></_></weakClassifiers></stage18>
</opencv_storage>
