<?xml version="1.0"?>
<opencv_storage>
<stage6>
  <maxWeakCount>8</maxWeakCount>
  <stageThreshold>-7.1614378690719604e-01</stageThreshold>
  <weakClassifiers>
    <_>
      <internalNodes>
        0 -1 91915 -7.6869730837643147e-03</internalNodes>
      <leafValues>
        7.9795688390731812e-01 -4.1463413834571838e-01</leafValues></_>
    <_>
      <internalNodes>
        0 -1 157582 -1.0472187568666413e-04</internalNodes>
      <leafValues>
        5.2707201242446899e-01 -5.9850031137466431e-01</leafValues></_>
    <_>
      <internalNodes>
        0 -1 38 -5.8671280741691589e-02</internalNodes>
      <leafValues>
        -8.0555009841918945e-01 3.0356553196907043e-01</leafValues></_>
    <_>
      <internalNodes>
        0 -1 121423 -6.5683387219905853e-02</internalNodes>
      <leafValues>
        2.9050129652023315e-01 -8.8215839862823486e-01</leafValues></_>
    <_>
      <internalNodes>
        0 -1 44432 -2.8584541752934456e-02</internalNodes>
      <leafValues>
        7.9269587993621826e-01 -3.7831056118011475e-01</leafValues></_>
    <_>
      <internalNodes>
        0 -1 17143 2.8242427855730057e-02</internalNodes>
      <leafValues>
        -3.1047827005386353e-01 7.2717082500457764e-01</leafValues></_>
    <_>
      <internalNodes>
        0 -1 84409 -7.7340975403785706e-02</internalNodes>
      <leafValues>
        8.3760911226272583e-01 -1.9876030087471008e-01</leafValues></_>
    <_>
      <internalNodes>
        0 -1 135304 1.3863855972886086e-02</internalNodes>
      <leafValues>
        -2.9685351252555847e-01 5.9047299623489380e-01</leafValues></_></weakClassifiers></stage6>
</opencv_storage>
