<?xml version="1.0"?>
<opencv_storage>
<stage16>
  <maxWeakCount>12</maxWeakCount>
  <stageThreshold>-9.2397248744964600e-01</stageThreshold>
  <weakClassifiers>
    <_>
      <internalNodes>
        0 -1 134920 4.1843280196189880e-02</internalNodes>
      <leafValues>
        -1.1428571492433548e-01 7.2048193216323853e-01</leafValues></_>
    <_>
      <internalNodes>
        0 -1 84640 -1.6471993923187256e-01</internalNodes>
      <leafValues>
        7.8795218467712402e-01 -1.1831298470497131e-01</leafValues></_>
    <_>
      <internalNodes>
        0 -1 112506 3.0306979169836268e-05</internalNodes>
      <leafValues>
        -6.9940078258514404e-01 2.3689940571784973e-01</leafValues></_>
    <_>
      <internalNodes>
        0 -1 95223 -4.3600093340501189e-04</internalNodes>
      <leafValues>
        -6.9103258848190308e-01 1.9159781932830811e-01</leafValues></_>
    <_>
      <internalNodes>
        0 -1 25723 -3.1871764804236591e-05</internalNodes>
      <leafValues>
        2.2929383814334869e-01 -5.6291353702545166e-01</leafValues></_>
    <_>
      <internalNodes>
        0 -1 41533 6.3519114628434181e-03</internalNodes>
      <leafValues>
        -2.6656514406204224e-01 5.7805269956588745e-01</leafValues></_>
    <_>
      <internalNodes>
        0 -1 7431 -7.4116159230470657e-03</internalNodes>
      <leafValues>
        1.7414648830890656e-01 -9.2078620195388794e-01</leafValues></_>
    <_>
      <internalNodes>
        0 -1 44360 -3.0518278945237398e-03</internalNodes>
      <leafValues>
        4.9597504734992981e-01 -2.8041961789131165e-01</leafValues></_>
    <_>
      <internalNodes>
        0 -1 162324 5.5376731324940920e-04</internalNodes>
      <leafValues>
        1.3189135491847992e-01 -8.5877567529678345e-01</leafValues></_>
    <_>
      <internalNodes>
        0 -1 109629 -3.9533418416976929e-01</internalNodes>
      <leafValues>
        1.7118956148624420e-01 -6.5284585952758789e-01</leafValues></_>
    <_>
      <internalNodes>
        0 -1 92578 1.2036686530336738e-03</internalNodes>
      <leafValues>
        2.1292564272880554e-01 -5.3815692663192749e-01</leafValues></_>
    <_>
      <internalNodes>
        0 -1 135460 6.5602757968008518e-04</internalNodes>
      <leafValues>
        1.2390964478254318e-01 -7.9823940992355347e-01</leafValues></_></weakClassifiers></stage16>
</opencv_storage>
