<?xml version="1.0"?>
<opencv_storage>
<stage4>
  <maxWeakCount>6</maxWeakCount>
  <stageThreshold>-7.6956087350845337e-01</stageThreshold>
  <weakClassifiers>
    <_>
      <internalNodes>
        0 -1 78151 8.2591645419597626e-02</internalNodes>
      <leafValues>
        -3.6992838978767395e-01 8.2763338088989258e-01</leafValues></_>
    <_>
      <internalNodes>
        0 -1 93022 -1.1122044920921326e-01</internalNodes>
      <leafValues>
        8.3832889795303345e-01 -3.2083648443222046e-01</leafValues></_>
    <_>
      <internalNodes>
        0 -1 18603 9.4788268208503723e-02</internalNodes>
      <leafValues>
        3.9635166525840759e-01 -9.5834136009216309e-01</leafValues></_>
    <_>
      <internalNodes>
        0 -1 155224 -4.2448373278602958e-04</internalNodes>
      <leafValues>
        4.5555406808853149e-01 -6.1988443136215210e-01</leafValues></_>
    <_>
      <internalNodes>
        0 -1 31165 1.0937700048089027e-02</internalNodes>
      <leafValues>
        -3.0459025502204895e-01 8.4504646062850952e-01</leafValues></_>
    <_>
      <internalNodes>
        0 -1 110235 -2.0239639282226563e-01</internalNodes>
      <leafValues>
        -5.7390820980072021e-01 4.4932699203491211e-01</leafValues></_></weakClassifiers></stage4>
</opencv_storage>
