<?xml version="1.0"?>
<opencv_storage>
<stage26>
  <maxWeakCount>4</maxWeakCount>
  <stageThreshold>-4.6113738417625427e-01</stageThreshold>
  <weakClassifiers>
    <_>
      <internalNodes>
        0 -1 1432 -1912552116 423657474 -2012736251 486539265
        -1744239795 -1979711486 -2080307160 1098940939</internalNodes>
      <leafValues>
        -8.0099505186080933e-01 6.0188454389572144e-01</leafValues></_>
    <_>
      <internalNodes>
        0 -1 458 -1627283269 1342177537 65538 -1870553088 -1073643506
        -536821695 1099006084 -123694903</internalNodes>
      <leafValues>
        -5.8977943658828735e-01 5.9578096866607666e-01</leafValues></_>
    <_>
      <internalNodes>
        0 -1 4655 16822740 83886080 -2147403364 427851776 285278626
        557057 -1031757144 1066388617</internalNodes>
      <leafValues>
        -8.3947175741195679e-01 4.7939381003379822e-01</leafValues></_>
    <_>
      <internalNodes>
        0 -1 7999 1648552084 563152965 84 -1593573373 -2143190098
        270534656 -2146531196 -1333165878</internalNodes>
      <leafValues>
        -7.3531711101531982e-01 4.2245393991470337e-01</leafValues></_></weakClassifiers></stage26>
</opencv_storage>
