<?xml version="1.0"?>
<opencv_storage>
<stage2>
  <maxWeakCount>5</maxWeakCount>
  <stageThreshold>-1.0893766880035400e+00</stageThreshold>
  <weakClassifiers>
    <_>
      <internalNodes>
        0 -1 119180 4.7925831750035286e-03</internalNodes>
      <leafValues>
        -6.3763064146041870e-01 7.6116305589675903e-01</leafValues></_>
    <_>
      <internalNodes>
        0 -1 3437 -3.0587315559387207e-02</internalNodes>
      <leafValues>
        6.9784456491470337e-01 -5.3275841474533081e-01</leafValues></_>
    <_>
      <internalNodes>
        0 -1 112532 -7.1783848106861115e-03</internalNodes>
      <leafValues>
        -4.6060049533843994e-01 6.7610710859298706e-01</leafValues></_>
    <_>
      <internalNodes>
        0 -1 158360 -2.7371507138013840e-02</internalNodes>
      <leafValues>
        8.6580002307891846e-01 -3.8421919941902161e-01</leafValues></_>
    <_>
      <internalNodes>
        0 -1 153873 4.8618290573358536e-02</internalNodes>
      <leafValues>
        -3.2418709993362427e-01 9.3290114402770996e-01</leafValues></_></weakClassifiers></stage2>
</opencv_storage>
