<?xml version="1.0"?>
<opencv_storage>
<stage21>
  <maxWeakCount>13</maxWeakCount>
  <stageThreshold>-7.3085337877273560e-01</stageThreshold>
  <weakClassifiers>
    <_>
      <internalNodes>
        0 -1 131416 5.1373764872550964e-03</internalNodes>
      <leafValues>
        -3.7799042463302612e-01 5.6216788291931152e-01</leafValues></_>
    <_>
      <internalNodes>
        0 -1 25732 1.1414971668273211e-03</internalNodes>
      <leafValues>
        -6.0451710224151611e-01 2.9190224409103394e-01</leafValues></_>
    <_>
      <internalNodes>
        0 -1 159615 -7.6352606993168592e-04</internalNodes>
      <leafValues>
        3.5055324435234070e-01 -4.2001545429229736e-01</leafValues></_>
    <_>
      <internalNodes>
        0 -1 146425 2.1591674885712564e-04</internalNodes>
      <leafValues>
        2.5600957870483398e-01 -5.8174097537994385e-01</leafValues></_>
    <_>
      <internalNodes>
        0 -1 30378 5.0205131992697716e-03</internalNodes>
      <leafValues>
        -2.3276978731155396e-01 6.0565906763076782e-01</leafValues></_>
    <_>
      <internalNodes>
        0 -1 940 1.2098740786314011e-02</internalNodes>
      <leafValues>
        1.9661457836627960e-01 -7.3130863904953003e-01</leafValues></_>
    <_>
      <internalNodes>
        0 -1 17109 2.5096986442804337e-02</internalNodes>
      <leafValues>
        -3.4446465969085693e-01 4.0529385209083557e-01</leafValues></_>
    <_>
      <internalNodes>
        0 -1 121398 -4.0094114840030670e-02</internalNodes>
      <leafValues>
        1.8522500991821289e-01 -6.9758564233779907e-01</leafValues></_>
    <_>
      <internalNodes>
        0 -1 20419 -1.7703672638162971e-03</internalNodes>
      <leafValues>
        3.7251824140548706e-01 -3.6011233925819397e-01</leafValues></_>
    <_>
      <internalNodes>
        0 -1 39899 2.5660255923867226e-03</internalNodes>
      <leafValues>
        -2.2561046481132507e-01 5.6425720453262329e-01</leafValues></_>
    <_>
      <internalNodes>
        0 -1 83604 3.0632624402642250e-03</internalNodes>
      <leafValues>
        1.6771584749221802e-01 -8.4090644121170044e-01</leafValues></_>
    <_>
      <internalNodes>
        0 -1 91294 -1.4952480560168624e-03</internalNodes>
      <leafValues>
        -7.8565973043441772e-01 1.3459916412830353e-01</leafValues></_>
    <_>
      <internalNodes>
        0 -1 157585 -8.0383040767628700e-05</internalNodes>
      <leafValues>
        2.0317015051841736e-01 -5.2763462066650391e-01</leafValues></_></weakClassifiers></stage21>
</opencv_storage>
