<?xml version="1.0"?>
<opencv_storage>
<stage12>
  <maxWeakCount>8</maxWeakCount>
  <stageThreshold>-5.4209166765213013e-01</stageThreshold>
  <weakClassifiers>
    <_>
      <internalNodes>
        0 -1 99355 -1.1824288405478001e-02</internalNodes>
      <leafValues>
        6.9249999523162842e-01 -2.9714286327362061e-01</leafValues></_>
    <_>
      <internalNodes>
        0 -1 128011 -1.6337737906724215e-04</internalNodes>
      <leafValues>
        4.1333872079849243e-01 -6.0888081789016724e-01</leafValues></_>
    <_>
      <internalNodes>
        0 -1 158748 -2.0810686051845551e-02</internalNodes>
      <leafValues>
        7.2157406806945801e-01 -3.2893061637878418e-01</leafValues></_>
    <_>
      <internalNodes>
        0 -1 119596 -9.7459746757522225e-04</internalNodes>
      <leafValues>
        2.7508828043937683e-01 -8.4892612695693970e-01</leafValues></_>
    <_>
      <internalNodes>
        0 -1 84051 -2.0579172670841217e-01</internalNodes>
      <leafValues>
        7.2369170188903809e-01 -3.4011009335517883e-01</leafValues></_>
    <_>
      <internalNodes>
        0 -1 146648 2.5525479577481747e-04</internalNodes>
      <leafValues>
        2.6555988192558289e-01 -6.5272462368011475e-01</leafValues></_>
    <_>
      <internalNodes>
        0 -1 25732 1.2136612785980105e-03</internalNodes>
      <leafValues>
        -6.0123467445373535e-01 2.5838235020637512e-01</leafValues></_>
    <_>
      <internalNodes>
        0 -1 77206 5.6191114708781242e-03</internalNodes>
      <leafValues>
        -6.6996771097183228e-01 2.3394215106964111e-01</leafValues></_></weakClassifiers></stage12>
</opencv_storage>
