<?xml version="1.0"?>
<opencv_storage>
<stage16>
  <maxWeakCount>4</maxWeakCount>
  <stageThreshold>-1.1768869161605835e+00</stageThreshold>
  <weakClassifiers>
    <_>
      <internalNodes>
        0 -1 4680 767049485 1040138239 -16385 -1073823745 2147483647 -1
        2147434495 -16385</internalNodes>
      <leafValues>
        -5.6610167026519775e-01 6.8476819992065430e-01</leafValues></_>
    <_>
      <internalNodes>
        0 -1 5029 1272835974 2138501119 -2162689 2147450743 669970327
        -1078034434 2138945527 -1078452292</internalNodes>
      <leafValues>
        -4.7235623002052307e-01 6.5367168188095093e-01</leafValues></_>
    <_>
      <internalNodes>
        0 -1 1940 -255352314 134840576 2165764 -1876950766 8620601
        75595939 -517766983 -695750120</internalNodes>
      <leafValues>
        -6.4258241653442383e-01 5.4126685857772827e-01</leafValues></_>
    <_>
      <internalNodes>
        0 -1 5232 272639476 424771608 17171731 -149880831 -939515751
        -1719599104 1073805338 1176506880</internalNodes>
      <leafValues>
        -7.4671643972396851e-01 4.6185588836669922e-01</leafValues></_></weakClassifiers></stage16>
</opencv_storage>
