<?xml version="1.0"?>
<opencv_storage>
<cascade>
  <stageType>BOOST</stageType>
  <featureType>HAAR</featureType>
  <height>24</height>
  <width>24</width>
  <stageParams>
    <boostType>GAB</boostType>
    <minHitRate>9.9500000476837158e-01</minHitRate>
    <maxFalseAlarm>5.0000000000000000e-01</maxFalseAlarm>
    <weightTrimRate>9.4999999999999996e-01</weightTrimRate>
    <maxDepth>1</maxDepth>
    <maxWeakCount>100</maxWeakCount></stageParams>
  <featureParams>
    <maxCatCount>0</maxCatCount>
    <featSize>1</featSize>
    <mode>BASIC</mode></featureParams>
  <stageNum>25</stageNum>
  <stages>
    <!-- stage 0 -->
    <_>
      <maxWeakCount>3</maxWeakCount>
      <stageThreshold>-9.8447436094284058e-01</stageThreshold>
      <weakClassifiers>
        <_>
          <internalNodes>
            0 -1 29 -1.1212480068206787e-01</internalNodes>
          <leafValues>
            8.4615385532379150e-01 -9.1666668653488159e-01</leafValues></_>
        <_>
          <internalNodes>
            0 -1 65 6.4435616135597229e-02</internalNodes>
          <leafValues>
            -7.0926547050476074e-01 9.6254414319992065e-01</leafValues></_>
        <_>
          <internalNodes>
            0 -1 43 -4.9756246153265238e-04</internalNodes>
          <leafValues>
            6.4145779609680176e-01 -9.2668247222900391e-01</leafValues></_></weakClassifiers></_>
    <!-- stage 1 -->
    <_>
      <maxWeakCount>3</maxWeakCount>
      <stageThreshold>-1.0781420469284058e+00</stageThreshold>
      <weakClassifiers>
        <_>
          <internalNodes>
            0 -1 63 -1.1864073574542999e-02</internalNodes>
          <leafValues>
            -9.1666668653488159e-01 8.4615385532379150e-01</leafValues></_>
        <_>
          <internalNodes>
            0 -1 4 5.8598034083843231e-02</internalNodes>
          <leafValues>
            -7.7741163969039917e-01 9.4739013910293579e-01</leafValues></_>
        <_>
          <internalNodes>
            0 -1 28 -8.8812243193387985e-03</internalNodes>
          <leafValues>
            6.1593627929687500e-01 -8.7934070825576782e-01</leafValues></_></weakClassifiers></_>
    <!-- stage 2 -->
    <_>
      <maxWeakCount>3</maxWeakCount>
      <stageThreshold>-9.9455326795578003e-01</stageThreshold>
      <weakClassifiers>
        <_>
          <internalNodes>
            0 -1 72 -4.2149551212787628e-02</internalNodes>
          <leafValues>
            8.9473682641983032e-01 -8.0952382087707520e-01</leafValues></_>
        <_>
          <internalNodes>
            0 -1 50 -1.5184160321950912e-02</internalNodes>
          <leafValues>
            -8.3539390563964844e-01 7.8338009119033813e-01</leafValues></_>
        <_>
          <internalNodes>
            0 -1 1 -1.2388646602630615e-02</internalNodes>
          <leafValues>
            6.5036445856094360e-01 -7.3574489355087280e-01</leafValues></_></weakClassifiers></_>
    <!-- stage 3 -->
    <_>
      <maxWeakCount>3</maxWeakCount>
      <stageThreshold>-9.3152743577957153e-01</stageThreshold>
      <weakClassifiers>
        <_>
          <internalNodes>
            0 -1 58 4.8574727028608322e-02</internalNodes>
          <leafValues>
            -8.8505744934082031e-01 6.8141591548919678e-01</leafValues></_>
        <_>
          <internalNodes>
            0 -1 72 -5.8439046144485474e-02</internalNodes>
          <leafValues>
            8.2152825593948364e-01 -7.1980452537536621e-01</leafValues></_>
        <_>
          <internalNodes>
            0 -1 86 1.3173352926969528e-03</internalNodes>
          <leafValues>
            -7.2630554437637329e-01 6.7333459854125977e-01</leafValues></_></weakClassifiers></_>
    <!-- stage 4 -->
    <_>
      <maxWeakCount>5</maxWeakCount>
      <stageThreshold>-1.0759745836257935e+00</stageThreshold>
      <weakClassifiers>
        <_>
          <internalNodes>
            0 -1 42 -2.0713223144412041e-02</internalNodes>
          <leafValues>
            -8.3157896995544434e-01 7.5238096714019775e-01</leafValues></_>
        <_>
          <internalNodes>
            0 -1 3 5.8952715247869492e-02</internalNodes>
          <leafValues>
            -7.3067969083786011e-01 8.0511790513992310e-01</leafValues></_>
        <_>
          <internalNodes>
            0 -1 90 -6.6137486137449741e-03</internalNodes>
          <leafValues>
            6.1709785461425781e-01 -7.9076868295669556e-01</leafValues></_>
        <_>
          <internalNodes>
            0 -1 66 -2.9415318742394447e-02</internalNodes>
          <leafValues>
            7.1621483564376831e-01 -7.2972911596298218e-01</leafValues></_>
        <_>
          <internalNodes>
            0 -1 21 -7.6534337131306529e-04</internalNodes>
          <leafValues>
            5.9891539812088013e-01 -8.4450536966323853e-01</leafValues></_></weakClassifiers></_>
    <!-- stage 5 -->
    <_>
      <maxWeakCount>5</maxWeakCount>
      <stageThreshold>-1.0245242118835449e+00</stageThreshold>
      <weakClassifiers>
        <_>
          <internalNodes>
            0 -1 15 -1.1156523600220680e-02</internalNodes>
          <leafValues>
            -9.0909093618392944e-01 7.1428573131561279e-01</leafValues></_>
        <_>
          <internalNodes>
            0 -1 5 9.1891720890998840e-02</internalNodes>
          <leafValues>
            -6.7669898271560669e-01 7.9192906618118286e-01</leafValues></_>
        <_>
          <internalNodes>
            0 -1 54 -1.7752259736880660e-04</internalNodes>
          <leafValues>
            -8.8671696186065674e-01 5.2177006006240845e-01</leafValues></_>
        <_>
          <internalNodes>
            0 -1 62 6.7633092403411865e-02</internalNodes>
          <leafValues>
            -6.3954955339431763e-01 7.3883777856826782e-01</leafValues></_>
        <_>
          <internalNodes>
            0 -1 57 -1.2366757728159428e-03</internalNodes>
          <leafValues>
            6.7904508113861084e-01 -7.4565619230270386e-01</leafValues></_></weakClassifiers></_>
    <!-- stage 6 -->
    <_>
      <maxWeakCount>5</maxWeakCount>
      <stageThreshold>-8.9246296882629395e-01</stageThreshold>
      <weakClassifiers>
        <_>
          <internalNodes>
            0 -1 30 -1.2516300380229950e-01</internalNodes>
          <leafValues>
            8.7654322385787964e-01 -5.9663867950439453e-01</leafValues></_>
        <_>
          <internalNodes>
            0 -1 24 4.5276932418346405e-02</internalNodes>
          <leafValues>
            -7.4921214580535889e-01 6.8117743730545044e-01</leafValues></_>
        <_>
          <internalNodes>
            0 -1 51 -7.4084429070353508e-04</internalNodes>
          <leafValues>
            -9.6082526445388794e-01 4.6238014101982117e-01</leafValues></_>
        <_>
          <internalNodes>
            0 -1 70 -1.1523827910423279e-02</internalNodes>
          <leafValues>
            -7.8393334150314331e-01 6.0860419273376465e-01</leafValues></_>
        <_>
          <internalNodes>
            0 -1 93 -5.7629970833659172e-03</internalNodes>
          <leafValues>
            8.2291239500045776e-01 -6.1759650707244873e-01</leafValues></_></weakClassifiers></_>
    <!-- stage 7 -->
    <_>
      <maxWeakCount>2</maxWeakCount>
      <stageThreshold>-2.5086134672164917e-01</stageThreshold>
      <weakClassifiers>
        <_>
          <internalNodes>
            0 -1 31 -1.6750681400299072e-01</internalNodes>
          <leafValues>
            7.9166668653488159e-01 -7.3076921701431274e-01</leafValues></_>
        <_>
          <internalNodes>
            0 -1 14 4.1782092011999339e-05</internalNodes>
          <leafValues>
            4.7990790009498596e-01 -9.1752099990844727e-01</leafValues></_></weakClassifiers></_>
    <!-- stage 8 -->
    <_>
      <maxWeakCount>3</maxWeakCount>
      <stageThreshold>-9.1474717855453491e-01</stageThreshold>
      <weakClassifiers>
        <_>
          <internalNodes>
            0 -1 74 6.5883487462997437e-02</internalNodes>
          <leafValues>
            -6.7676764726638794e-01 6.6336631774902344e-01</leafValues></_>
        <_>
          <internalNodes>
            0 -1 48 -6.1401096172630787e-04</internalNodes>
          <leafValues>
            -9.7881227731704712e-01 4.6544146537780762e-01</leafValues></_>
        <_>
          <internalNodes>
            0 -1 53 -7.0626451633870602e-03</internalNodes>
          <leafValues>
            -7.0342099666595459e-01 7.1138542890548706e-01</leafValues></_></weakClassifiers></_>
    <!-- stage 9 -->
    <_>
      <maxWeakCount>2</maxWeakCount>
      <stageThreshold>-4.0044778585433960e-01</stageThreshold>
      <weakClassifiers>
        <_>
          <internalNodes>
            0 -1 6 -1.9712317734956741e-02</internalNodes>
          <leafValues>
            5.5555558204650879e-01 -9.4594591856002808e-01</leafValues></_>
        <_>
          <internalNodes>
            0 -1 47 3.0696421163156629e-04</internalNodes>
          <leafValues>
            5.4549813270568848e-01 -8.7430900335311890e-01</leafValues></_></weakClassifiers></_>
    <!-- stage 10 -->
    <_>
      <maxWeakCount>4</maxWeakCount>
      <stageThreshold>-3.7274208664894104e-01</stageThreshold>
      <weakClassifiers>
        <_>
          <internalNodes>
            0 -1 4 8.4298551082611084e-02</internalNodes>
          <leafValues>
            -6.4705884456634521e-01 6.7346936464309692e-01</leafValues></_>
        <_>
          <internalNodes>
            0 -1 75 7.9876348376274109e-02</internalNodes>
          <leafValues>
            -5.3767669200897217e-01 7.9636371135711670e-01</leafValues></_>
        <_>
          <internalNodes>
            0 -1 11 1.8928736972156912e-04</internalNodes>
          <leafValues>
            4.3760448694229126e-01 -9.4581222534179688e-01</leafValues></_>
        <_>
          <internalNodes>
            0 -1 73 4.5109918573871255e-05</internalNodes>
          <leafValues>
            4.2376524209976196e-01 -9.2192941904067993e-01</leafValues></_></weakClassifiers></_>
    <!-- stage 11 -->
    <_>
      <maxWeakCount>4</maxWeakCount>
      <stageThreshold>-2.8363937512040138e-02</stageThreshold>
      <weakClassifiers>
        <_>
          <internalNodes>
            0 -1 37 1.3079911470413208e-02</internalNodes>
          <leafValues>
            -7.4000000953674316e-01 7.4000000953674316e-01</leafValues></_>
        <_>
          <internalNodes>
            0 -1 12 3.3375021303072572e-05</internalNodes>
          <leafValues>
            -8.0063211917877197e-01 6.0732179880142212e-01</leafValues></_>
        <_>
          <internalNodes>
            0 -1 19 -1.0556651279330254e-02</internalNodes>
          <leafValues>
            6.1518818140029907e-01 -8.3152645826339722e-01</leafValues></_>
        <_>
          <internalNodes>
            0 -1 25 2.0675938576459885e-03</internalNodes>
          <leafValues>
            -5.0820899009704590e-01 9.3584072589874268e-01</leafValues></_></weakClassifiers></_>
    <!-- stage 12 -->
    <_>
      <maxWeakCount>4</maxWeakCount>
      <stageThreshold>-1.3476927280426025e+00</stageThreshold>
      <weakClassifiers>
        <_>
          <internalNodes>
            0 -1 69 7.3192387819290161e-02</internalNodes>
          <leafValues>
            -5.8490568399429321e-01 6.5957444906234741e-01</leafValues></_>
        <_>
          <internalNodes>
            0 -1 80 -4.0407298365607858e-04</internalNodes>
          <leafValues>
            6.4882749319076538e-01 -6.3140684366226196e-01</leafValues></_>
        <_>
          <internalNodes>
            0 -1 35 -1.3544474542140961e-01</internalNodes>
          <leafValues>
            6.4434754848480225e-01 -5.8874118328094482e-01</leafValues></_>
        <_>
          <internalNodes>
            0 -1 41 -2.2627737780567259e-04</internalNodes>
          <leafValues>
            -8.7593007087707520e-01 4.5736095309257507e-01</leafValues></_></weakClassifiers></_>
    <!-- stage 13 -->
    <_>
      <maxWeakCount>4</maxWeakCount>
      <stageThreshold>-4.9958676099777222e-01</stageThreshold>
      <weakClassifiers>
        <_>
          <internalNodes>
            0 -1 15 -8.8543407618999481e-03</internalNodes>
          <leafValues>
            -7.8048777580261230e-01 5.4237288236618042e-01</leafValues></_>
        <_>
          <internalNodes>
            0 -1 81 -1.1629507207544520e-04</internalNodes>
          <leafValues>
            5.1090526580810547e-01 -7.7605581283569336e-01</leafValues></_>
        <_>
          <internalNodes>
            0 -1 22 -7.0450954139232635e-02</internalNodes>
          <leafValues>
            6.2520390748977661e-01 -6.7776447534561157e-01</leafValues></_>
        <_>
          <internalNodes>
            0 -1 7 -7.1502383798360825e-04</internalNodes>
          <leafValues>
            -8.9110779762268066e-01 4.8237207531929016e-01</leafValues></_></weakClassifiers></_>
    <!-- stage 14 -->
    <_>
      <maxWeakCount>4</maxWeakCount>
      <stageThreshold>-4.4141560792922974e-01</stageThreshold>
      <weakClassifiers>
        <_>
          <internalNodes>
            0 -1 10 -3.5292570828460157e-05</internalNodes>
          <leafValues>
            4.4186046719551086e-01 -8.0281692743301392e-01</leafValues></_>
        <_>
          <internalNodes>
            0 -1 61 3.1494494760408998e-04</internalNodes>
          <leafValues>
            3.8869899511337280e-01 -8.4473705291748047e-01</leafValues></_>
        <_>
          <internalNodes>
            0 -1 32 -2.3637430276721716e-03</internalNodes>
          <leafValues>
            7.1402329206466675e-01 -5.8368128538131714e-01</leafValues></_>
        <_>
          <internalNodes>
            0 -1 84 -2.7668860275298357e-04</internalNodes>
          <leafValues>
            5.5638355016708374e-01 -6.8429100513458252e-01</leafValues></_></weakClassifiers></_>
    <!-- stage 15 -->
    <_>
      <maxWeakCount>4</maxWeakCount>
      <stageThreshold>-5.8742016553878784e-01</stageThreshold>
      <weakClassifiers>
        <_>
          <internalNodes>
            0 -1 56 -1.7937296070158482e-04</internalNodes>
          <leafValues>
            4.5600000023841858e-01 -7.5999999046325684e-01</leafValues></_>
        <_>
          <internalNodes>
            0 -1 39 1.4401125954464078e-03</internalNodes>
          <leafValues>
            4.8897778987884521e-01 -7.7736783027648926e-01</leafValues></_>
        <_>
          <internalNodes>
            0 -1 92 -1.0261159623041749e-03</internalNodes>
          <leafValues>
            4.1258999705314636e-01 -7.2218871116638184e-01</leafValues></_>
        <_>
          <internalNodes>
            0 -1 40 -2.0252235233783722e-01</internalNodes>
          <leafValues>
            6.4090430736541748e-01 -6.7864233255386353e-01</leafValues></_></weakClassifiers></_>
    <!-- stage 16 -->
    <_>
      <maxWeakCount>4</maxWeakCount>
      <stageThreshold>-3.1484460830688477e-01</stageThreshold>
      <weakClassifiers>
        <_>
          <internalNodes>
            0 -1 71 4.6328037977218628e-02</internalNodes>
          <leafValues>
            -6.2500000000000000e-01 5.7692307233810425e-01</leafValues></_>
        <_>
          <internalNodes>
            0 -1 17 1.2605801224708557e-02</internalNodes>
          <leafValues>
            -3.9581421017646790e-01 8.8961082696914673e-01</leafValues></_>
        <_>
          <internalNodes>
            0 -1 34 -2.6286271167919040e-04</internalNodes>
          <leafValues>
            5.0882476568222046e-01 -7.7972561120986938e-01</leafValues></_>
        <_>
          <internalNodes>
            0 -1 33 -4.9395477399230003e-03</internalNodes>
          <leafValues>
            -9.6731603145599365e-01 2.8377211093902588e-01</leafValues></_></weakClassifiers></_>
    <!-- stage 17 -->
    <_>
      <maxWeakCount>5</maxWeakCount>
      <stageThreshold>-9.1978555917739868e-01</stageThreshold>
      <weakClassifiers>
        <_>
          <internalNodes>
            0 -1 8 -1.5412360662594438e-03</internalNodes>
          <leafValues>
            -1. 3.1578946113586426e-01</leafValues></_>
        <_>
          <internalNodes>
            0 -1 67 -4.3115191161632538e-02</internalNodes>
          <leafValues>
            4.1460722684860229e-01 -7.7125149965286255e-01</leafValues></_>
        <_>
          <internalNodes>
            0 -1 77 -1.8560736498329788e-04</internalNodes>
          <leafValues>
            3.9267992973327637e-01 -9.3194603919982910e-01</leafValues></_>
        <_>
          <internalNodes>
            0 -1 60 -1.4650510624051094e-02</internalNodes>
          <leafValues>
            8.5070538520812988e-01 -4.4346424937248230e-01</leafValues></_>
        <_>
          <internalNodes>
            0 -1 26 -5.0466768443584442e-03</internalNodes>
          <leafValues>
            8.2023632526397705e-01 -4.1353920102119446e-01</leafValues></_></weakClassifiers></_>
    <!-- stage 18 -->
    <_>
      <maxWeakCount>5</maxWeakCount>
      <stageThreshold>-2.7033418416976929e-01</stageThreshold>
      <weakClassifiers>
        <_>
          <internalNodes>
            0 -1 13 -1.3613562099635601e-02</internalNodes>
          <leafValues>
            -6.9999998807907104e-01 4.6666666865348816e-01</leafValues></_>
        <_>
          <internalNodes>
            0 -1 64 -8.4150873590260744e-04</internalNodes>
          <leafValues>
            -8.1137520074844360e-01 3.3987832069396973e-01</leafValues></_>
        <_>
          <internalNodes>
            0 -1 85 3.3941767178475857e-03</internalNodes>
          <leafValues>
            -6.7071276903152466e-01 5.1457852125167847e-01</leafValues></_>
        <_>
          <internalNodes>
            0 -1 44 -7.2959270328283310e-03</internalNodes>
          <leafValues>
            4.0283429622650146e-01 -8.5695356130599976e-01</leafValues></_>
        <_>
          <internalNodes>
            0 -1 76 -1.9851507386192679e-04</internalNodes>
          <leafValues>
            -7.9770869016647339e-01 4.5078721642494202e-01</leafValues></_></weakClassifiers></_>
    <!-- stage 19 -->
    <_>
      <maxWeakCount>4</maxWeakCount>
      <stageThreshold>-4.2356169223785400e-01</stageThreshold>
      <weakClassifiers>
        <_>
          <internalNodes>
            0 -1 36 -6.3598871231079102e-02</internalNodes>
          <leafValues>
            4.0799999237060547e-01 -6.8000000715255737e-01</leafValues></_>
        <_>
          <internalNodes>
            0 -1 95 -1.7949839821085334e-04</internalNodes>
          <leafValues>
            5.1921552419662476e-01 -6.2587773799896240e-01</leafValues></_>
        <_>
          <internalNodes>
            0 -1 59 -7.2828084230422974e-02</internalNodes>
          <leafValues>
            4.6048459410667419e-01 -7.1824097633361816e-01</leafValues></_>
        <_>
          <internalNodes>
            0 -1 23 -1.6716755926609039e-03</internalNodes>
          <leafValues>
            -6.3253623247146606e-01 5.2782428264617920e-01</leafValues></_></weakClassifiers></_>
    <!-- stage 20 -->
    <_>
      <maxWeakCount>5</maxWeakCount>
      <stageThreshold>-2.7790856361389160e-01</stageThreshold>
      <weakClassifiers>
        <_>
          <internalNodes>
            0 -1 83 2.1663000807166100e-03</internalNodes>
          <leafValues>
            -4.7008547186851501e-01 6.6265058517456055e-01</leafValues></_>
        <_>
          <internalNodes>
            0 -1 27 1.8064929463434964e-05</internalNodes>
          <leafValues>
            4.0175238251686096e-01 -8.3460074663162231e-01</leafValues></_>
        <_>
          <internalNodes>
            0 -1 18 -7.0058857090771198e-03</internalNodes>
          <leafValues>
            3.0420771241188049e-01 -8.9716970920562744e-01</leafValues></_>
        <_>
          <internalNodes>
            0 -1 79 2.3441645316779613e-03</internalNodes>
          <leafValues>
            3.1365150213241577e-01 -8.9125424623489380e-01</leafValues></_>
        <_>
          <internalNodes>
            0 -1 89 -4.7631608322262764e-04</internalNodes>
          <leafValues>
            4.4611236453056335e-01 -6.7503595352172852e-01</leafValues></_></weakClassifiers></_>
    <!-- stage 21 -->
    <_>
      <maxWeakCount>4</maxWeakCount>
      <stageThreshold>-3.5182699561119080e-01</stageThreshold>
      <weakClassifiers>
        <_>
          <internalNodes>
            0 -1 55 -8.6616986664012074e-05</internalNodes>
          <leafValues>
            -8.7500000000000000e-01 4.1176471114158630e-01</leafValues></_>
        <_>
          <internalNodes>
            0 -1 52 8.9513108832761645e-05</internalNodes>
          <leafValues>
            4.0787154436111450e-01 -8.1095045804977417e-01</leafValues></_>
        <_>
          <internalNodes>
            0 -1 78 5.7693533599376678e-02</internalNodes>
          <leafValues>
            -5.7646512985229492e-01 6.8277448415756226e-01</leafValues></_>
        <_>
          <internalNodes>
            0 -1 20 3.2442092895507813e-02</internalNodes>
          <leafValues>
            -5.3614717721939087e-01 6.2382388114929199e-01</leafValues></_></weakClassifiers></_>
    <!-- stage 22 -->
    <_>
      <maxWeakCount>6</maxWeakCount>
      <stageThreshold>-6.7321550846099854e-01</stageThreshold>
      <weakClassifiers>
        <_>
          <internalNodes>
            0 -1 96 -4.0401797741651535e-02</internalNodes>
          <leafValues>
            -8.3870965242385864e-01 3.7681159377098083e-01</leafValues></_>
        <_>
          <internalNodes>
            0 -1 87 -2.0713903941214085e-03</internalNodes>
          <leafValues>
            5.5444002151489258e-01 -5.8446282148361206e-01</leafValues></_>
        <_>
          <internalNodes>
            0 -1 68 -1.3076647184789181e-02</internalNodes>
          <leafValues>
            4.7109609842300415e-01 -6.8218159675598145e-01</leafValues></_>
        <_>
          <internalNodes>
            0 -1 9 -1.5909014109638520e-05</internalNodes>
          <leafValues>
            5.3303402662277222e-01 -6.6153860092163086e-01</leafValues></_>
        <_>
          <internalNodes>
            0 -1 91 1.1715379077941179e-03</internalNodes>
          <leafValues>
            -5.9028869867324829e-01 5.4912799596786499e-01</leafValues></_>
        <_>
          <internalNodes>
            0 -1 49 9.5486611826345325e-05</internalNodes>
          <leafValues>
            4.1711717844009399e-01 -8.6503088474273682e-01</leafValues></_></weakClassifiers></_>
    <!-- stage 23 -->
    <_>
      <maxWeakCount>5</maxWeakCount>
      <stageThreshold>-4.5634484291076660e-01</stageThreshold>
      <weakClassifiers>
        <_>
          <internalNodes>
            0 -1 2 -9.0562142431735992e-03</internalNodes>
          <leafValues>
            -8.3870965242385864e-01 3.7681159377098083e-01</leafValues></_>
        <_>
          <internalNodes>
            0 -1 16 4.0248990990221500e-03</internalNodes>
          <leafValues>
            -7.2715270519256592e-01 4.3369135260581970e-01</leafValues></_>
        <_>
          <internalNodes>
            0 -1 82 -9.2082440853118896e-02</internalNodes>
          <leafValues>
            -7.5126510858535767e-01 4.7265788912773132e-01</leafValues></_>
        <_>
          <internalNodes>
            0 -1 45 3.5446099936962128e-02</internalNodes>
          <leafValues>
            3.9402085542678833e-01 -8.9046394824981689e-01</leafValues></_>
        <_>
          <internalNodes>
            0 -1 88 1.0251089406665415e-04</internalNodes>
          <leafValues>
            3.7488126754760742e-01 -9.4670522212982178e-01</leafValues></_></weakClassifiers></_>
    <!-- stage 24 -->
    <_>
      <maxWeakCount>4</maxWeakCount>
      <stageThreshold>-3.0292922258377075e-01</stageThreshold>
      <weakClassifiers>
        <_>
          <internalNodes>
            0 -1 94 1.8741453459369950e-05</internalNodes>
          <leafValues>
            -5.6862747669219971e-01 5.9183675050735474e-01</leafValues></_>
        <_>
          <internalNodes>
            0 -1 46 5.7478196918964386e-02</internalNodes>
          <leafValues>
            -8.5221374034881592e-01 4.2375990748405457e-01</leafValues></_>
        <_>
          <internalNodes>
            0 -1 38 1.6095405953819863e-05</internalNodes>
          <leafValues>
            -8.7320905923843384e-01 3.4702679514884949e-01</leafValues></_>
        <_>
          <internalNodes>
            0 -1 0 1.1796012520790100e-02</internalNodes>
          <leafValues>
            -4.6573370695114136e-01 8.3065682649612427e-01</leafValues></_></weakClassifiers></_></stages>
  <features>
    <_>
      <rects>
        <_>
          0 5 6 11 -1.</_>
        <_>
          3 5 3 11 2.</_></rects>
      <tilted>0</tilted></_>
    <_>
      <rects>
        <_>
          0 5 8 10 -1.</_>
        <_>
          0 5 4 5 2.</_>
        <_>
          4 10 4 5 2.</_></rects>
      <tilted>0</tilted></_>
    <_>
      <rects>
        <_>
          0 9 24 6 -1.</_>
        <_>
          0 9 12 3 2.</_>
        <_>
          12 12 12 3 2.</_></rects>
      <tilted>0</tilted></_>
    <_>
      <rects>
        <_>
          0 10 10 14 -1.</_>
        <_>
          0 10 5 7 2.</_>
        <_>
          5 17 5 7 2.</_></rects>
      <tilted>0</tilted></_>
    <_>
      <rects>
        <_>
          0 10 12 14 -1.</_>
        <_>
          0 10 6 7 2.</_>
        <_>
          6 17 6 7 2.</_></rects>
      <tilted>0</tilted></_>
    <_>
      <rects>
        <_>
          0 10 14 14 -1.</_>
        <_>
          0 10 7 7 2.</_>
        <_>
          7 17 7 7 2.</_></rects>
      <tilted>0</tilted></_>
    <_>
      <rects>
        <_>
          0 10 16 4 -1.</_>
        <_>
          8 10 8 4 2.</_></rects>
      <tilted>0</tilted></_>
    <_>
      <rects>
        <_>
          0 11 14 2 -1.</_>
        <_>
          0 11 7 1 2.</_>
        <_>
          7 12 7 1 2.</_></rects>
      <tilted>0</tilted></_>
    <_>
      <rects>
        <_>
          0 12 23 2 -1.</_>
        <_>
          0 13 23 1 2.</_></rects>
      <tilted>0</tilted></_>
    <_>
      <rects>
        <_>
          0 14 1 2 -1.</_>
        <_>
          0 15 1 1 2.</_></rects>
      <tilted>0</tilted></_>
    <_>
      <rects>
        <_>
          0 15 2 2 -1.</_>
        <_>
          0 16 2 1 2.</_></rects>
      <tilted>0</tilted></_>
    <_>
      <rects>
        <_>
          0 17 4 2 -1.</_>
        <_>
          0 18 4 1 2.</_></rects>
      <tilted>0</tilted></_>
    <_>
      <rects>
        <_>
          0 19 4 2 -1.</_>
        <_>
          2 19 2 2 2.</_></rects>
      <tilted>0</tilted></_>
    <_>
      <rects>
        <_>
          0 20 3 3 -1.</_>
        <_>
          1 20 1 3 2.</_></rects>
      <tilted>0</tilted></_>
    <_>
      <rects>
        <_>
          0 21 1 2 -1.</_>
        <_>
          0 22 1 1 2.</_></rects>
      <tilted>0</tilted></_>
    <_>
      <rects>
        <_>
          0 21 2 3 -1.</_>
        <_>
          0 22 2 1 2.</_></rects>
      <tilted>0</tilted></_>
    <_>
      <rects>
        <_>
          0 21 14 1 -1.</_>
        <_>
          7 21 7 1 2.</_></rects>
      <tilted>0</tilted></_>
    <_>
      <rects>
        <_>
          1 2 8 6 -1.</_>
        <_>
          1 2 4 3 2.</_>
        <_>
          5 5 4 3 2.</_></rects>
      <tilted>0</tilted></_>
    <_>
      <rects>
        <_>
          1 11 14 2 -1.</_>
        <_>
          8 11 7 2 2.</_></rects>
      <tilted>0</tilted></_>
    <_>
      <rects>
        <_>
          1 13 12 2 -1.</_>
        <_>
          7 13 6 2 2.</_></rects>
      <tilted>0</tilted></_>
    <_>
      <rects>
        <_>
          1 15 10 8 -1.</_>
        <_>
          1 15 5 4 2.</_>
        <_>
          6 19 5 4 2.</_></rects>
      <tilted>0</tilted></_>
    <_>
      <rects>
        <_>
          1 22 19 2 -1.</_>
        <_>
          1 23 19 1 2.</_></rects>
      <tilted>0</tilted></_>
    <_>
      <rects>
        <_>
          2 6 10 8 -1.</_>
        <_>
          2 10 10 4 2.</_></rects>
      <tilted>0</tilted></_>
    <_>
      <rects>
        <_>
          2 10 20 2 -1.</_>
        <_>
          2 11 20 1 2.</_></rects>
      <tilted>0</tilted></_>
    <_>
      <rects>
        <_>
          2 12 13 10 -1.</_>
        <_>
          2 17 13 5 2.</_></rects>
      <tilted>0</tilted></_>
    <_>
      <rects>
        <_>
          2 17 4 1 -1.</_>
        <_>
          4 17 2 1 2.</_></rects>
      <tilted>0</tilted></_>
    <_>
      <rects>
        <_>
          2 18 6 1 -1.</_>
        <_>
          5 18 3 1 2.</_></rects>
      <tilted>0</tilted></_>
    <_>
      <rects>
        <_>
          2 21 1 2 -1.</_>
        <_>
          2 22 1 1 2.</_></rects>
      <tilted>0</tilted></_>
    <_>
      <rects>
        <_>
          3 4 11 8 -1.</_>
        <_>
          3 8 11 4 2.</_></rects>
      <tilted>0</tilted></_>
    <_>
      <rects>
        <_>
          4 4 13 12 -1.</_>
        <_>
          4 10 13 6 2.</_></rects>
      <tilted>0</tilted></_>
    <_>
      <rects>
        <_>
          4 6 14 8 -1.</_>
        <_>
          4 10 14 4 2.</_></rects>
      <tilted>0</tilted></_>
    <_>
      <rects>
        <_>
          5 4 12 12 -1.</_>
        <_>
          5 10 12 6 2.</_></rects>
      <tilted>0</tilted></_>
    <_>
      <rects>
        <_>
          5 20 10 2 -1.</_>
        <_>
          5 21 10 1 2.</_></rects>
      <tilted>0</tilted></_>
    <_>
      <rects>
        <_>
          5 21 14 1 -1.</_>
        <_>
          12 21 7 1 2.</_></rects>
      <tilted>0</tilted></_>
    <_>
      <rects>
        <_>
          5 22 3 2 -1.</_>
        <_>
          5 23 3 1 2.</_></rects>
      <tilted>0</tilted></_>
    <_>
      <rects>
        <_>
          6 6 13 10 -1.</_>
        <_>
          6 11 13 5 2.</_></rects>
      <tilted>0</tilted></_>
    <_>
      <rects>
        <_>
          6 10 18 14 -1.</_>
        <_>
          6 10 9 7 2.</_>
        <_>
          15 17 9 7 2.</_></rects>
      <tilted>0</tilted></_>
    <_>
      <rects>
        <_>
          6 12 2 12 -1.</_>
        <_>
          6 18 2 6 2.</_></rects>
      <tilted>0</tilted></_>
    <_>
      <rects>
        <_>
          6 13 2 6 -1.</_>
        <_>
          6 16 2 3 2.</_></rects>
      <tilted>0</tilted></_>
    <_>
      <rects>
        <_>
          6 14 12 2 -1.</_>
        <_>
          6 15 12 1 2.</_></rects>
      <tilted>0</tilted></_>
    <_>
      <rects>
        <_>
          7 1 11 16 -1.</_>
        <_>
          7 9 11 8 2.</_></rects>
      <tilted>0</tilted></_>
    <_>
      <rects>
        <_>
          7 11 2 6 -1.</_>
        <_>
          8 11 1 6 2.</_></rects>
      <tilted>0</tilted></_>
    <_>
      <rects>
        <_>
          7 11 9 2 -1.</_>
        <_>
          10 11 3 2 2.</_></rects>
      <tilted>0</tilted></_>
    <_>
      <rects>
        <_>
          7 22 17 2 -1.</_>
        <_>
          7 23 17 1 2.</_></rects>
      <tilted>0</tilted></_>
    <_>
      <rects>
        <_>
          8 0 1 20 -1.</_>
        <_>
          8 10 1 10 2.</_></rects>
      <tilted>0</tilted></_>
    <_>
      <rects>
        <_>
          8 0 12 12 -1.</_>
        <_>
          14 0 6 12 2.</_></rects>
      <tilted>0</tilted></_>
    <_>
      <rects>
        <_>
          8 1 16 14 -1.</_>
        <_>
          8 1 8 7 2.</_>
        <_>
          16 8 8 7 2.</_></rects>
      <tilted>0</tilted></_>
    <_>
      <rects>
        <_>
          8 8 2 5 -1.</_>
        <_>
          9 8 1 5 2.</_></rects>
      <tilted>0</tilted></_>
    <_>
      <rects>
        <_>
          8 8 2 7 -1.</_>
        <_>
          9 8 1 7 2.</_></rects>
      <tilted>0</tilted></_>
    <_>
      <rects>
        <_>
          8 10 4 1 -1.</_>
        <_>
          10 10 2 1 2.</_></rects>
      <tilted>0</tilted></_>
    <_>
      <rects>
        <_>
          8 11 3 4 -1.</_>
        <_>
          9 11 1 4 2.</_></rects>
      <tilted>0</tilted></_>
    <_>
      <rects>
        <_>
          8 14 10 2 -1.</_>
        <_>
          8 14 5 1 2.</_>
        <_>
          13 15 5 1 2.</_></rects>
      <tilted>0</tilted></_>
    <_>
      <rects>
        <_>
          9 8 4 1 -1.</_>
        <_>
          11 8 2 1 2.</_></rects>
      <tilted>0</tilted></_>
    <_>
      <rects>
        <_>
          9 10 1 6 -1.</_>
        <_>
          9 12 1 2 2.</_></rects>
      <tilted>0</tilted></_>
    <_>
      <rects>
        <_>
          9 10 4 4 -1.</_>
        <_>
          9 10 2 2 2.</_>
        <_>
          11 12 2 2 2.</_></rects>
      <tilted>0</tilted></_>
    <_>
      <rects>
        <_>
          9 11 2 3 -1.</_>
        <_>
          10 11 1 3 2.</_></rects>
      <tilted>0</tilted></_>
    <_>
      <rects>
        <_>
          9 22 2 2 -1.</_>
        <_>
          9 23 2 1 2.</_></rects>
      <tilted>0</tilted></_>
    <_>
      <rects>
        <_>
          9 22 14 1 -1.</_>
        <_>
          16 22 7 1 2.</_></rects>
      <tilted>0</tilted></_>
    <_>
      <rects>
        <_>
          10 4 14 10 -1.</_>
        <_>
          10 4 7 5 2.</_>
        <_>
          17 9 7 5 2.</_></rects>
      <tilted>0</tilted></_>
    <_>
      <rects>
        <_>
          11 5 12 12 -1.</_>
        <_>
          11 11 12 6 2.</_></rects>
      <tilted>0</tilted></_>
    <_>
      <rects>
        <_>
          11 18 9 4 -1.</_>
        <_>
          11 20 9 2 2.</_></rects>
      <tilted>0</tilted></_>
    <_>
      <rects>
        <_>
          12 9 4 3 -1.</_>
        <_>
          14 9 2 3 2.</_></rects>
      <tilted>0</tilted></_>
    <_>
      <rects>
        <_>
          12 10 12 6 -1.</_>
        <_>
          18 10 6 6 2.</_></rects>
      <tilted>0</tilted></_>
    <_>
      <rects>
        <_>
          12 11 3 3 -1.</_>
        <_>
          13 11 1 3 2.</_></rects>
      <tilted>0</tilted></_>
    <_>
      <rects>
        <_>
          12 22 8 2 -1.</_>
        <_>
          12 22 4 1 2.</_>
        <_>
          16 23 4 1 2.</_></rects>
      <tilted>0</tilted></_>
    <_>
      <rects>
        <_>
          13 0 10 16 -1.</_>
        <_>
          13 0 5 8 2.</_>
        <_>
          18 8 5 8 2.</_></rects>
      <tilted>0</tilted></_>
    <_>
      <rects>
        <_>
          13 2 2 14 -1.</_>
        <_>
          13 9 2 7 2.</_></rects>
      <tilted>0</tilted></_>
    <_>
      <rects>
        <_>
          13 5 5 12 -1.</_>
        <_>
          13 11 5 6 2.</_></rects>
      <tilted>0</tilted></_>
    <_>
      <rects>
        <_>
          14 4 1 12 -1.</_>
        <_>
          14 10 1 6 2.</_></rects>
      <tilted>0</tilted></_>
    <_>
      <rects>
        <_>
          14 8 8 10 -1.</_>
        <_>
          18 8 4 10 2.</_></rects>
      <tilted>0</tilted></_>
    <_>
      <rects>
        <_>
          14 11 3 3 -1.</_>
        <_>
          14 12 3 1 2.</_></rects>
      <tilted>0</tilted></_>
    <_>
      <rects>
        <_>
          14 11 8 6 -1.</_>
        <_>
          18 11 4 6 2.</_></rects>
      <tilted>0</tilted></_>
    <_>
      <rects>
        <_>
          14 11 10 12 -1.</_>
        <_>
          14 11 5 6 2.</_>
        <_>
          19 17 5 6 2.</_></rects>
      <tilted>0</tilted></_>
    <_>
      <rects>
        <_>
          14 14 2 1 -1.</_>
        <_>
          15 14 1 1 2.</_></rects>
      <tilted>0</tilted></_>
    <_>
      <rects>
        <_>
          15 0 8 16 -1.</_>
        <_>
          15 0 4 8 2.</_>
        <_>
          19 8 4 8 2.</_></rects>
      <tilted>0</tilted></_>
    <_>
      <rects>
        <_>
          15 1 8 16 -1.</_>
        <_>
          15 1 4 8 2.</_>
        <_>
          19 9 4 8 2.</_></rects>
      <tilted>0</tilted></_>
    <_>
      <rects>
        <_>
          15 8 2 8 -1.</_>
        <_>
          15 8 1 4 2.</_>
        <_>
          16 12 1 4 2.</_></rects>
      <tilted>0</tilted></_>
    <_>
      <rects>
        <_>
          15 22 5 2 -1.</_>
        <_>
          15 23 5 1 2.</_></rects>
      <tilted>0</tilted></_>
    <_>
      <rects>
        <_>
          16 0 6 16 -1.</_>
        <_>
          16 0 3 8 2.</_>
        <_>
          19 8 3 8 2.</_></rects>
      <tilted>0</tilted></_>
    <_>
      <rects>
        <_>
          16 10 5 4 -1.</_>
        <_>
          16 12 5 2 2.</_></rects>
      <tilted>0</tilted></_>
    <_>
      <rects>
        <_>
          17 20 4 2 -1.</_>
        <_>
          17 21 4 1 2.</_></rects>
      <tilted>0</tilted></_>
    <_>
      <rects>
        <_>
          17 21 4 2 -1.</_>
        <_>
          17 22 4 1 2.</_></rects>
      <tilted>0</tilted></_>
    <_>
      <rects>
        <_>
          18 15 6 9 -1.</_>
        <_>
          20 15 2 9 2.</_></rects>
      <tilted>0</tilted></_>
    <_>
      <rects>
        <_>
          18 19 6 4 -1.</_>
        <_>
          18 19 3 2 2.</_>
        <_>
          21 21 3 2 2.</_></rects>
      <tilted>0</tilted></_>
    <_>
      <rects>
        <_>
          18 22 6 1 -1.</_>
        <_>
          21 22 3 1 2.</_></rects>
      <tilted>0</tilted></_>
    <_>
      <rects>
        <_>
          19 0 3 12 -1.</_>
        <_>
          19 6 3 6 2.</_></rects>
      <tilted>0</tilted></_>
    <_>
      <rects>
        <_>
          19 2 2 8 -1.</_>
        <_>
          19 6 2 4 2.</_></rects>
      <tilted>0</tilted></_>
    <_>
      <rects>
        <_>
          19 6 4 4 -1.</_>
        <_>
          21 6 2 4 2.</_></rects>
      <tilted>0</tilted></_>
    <_>
      <rects>
        <_>
          19 23 2 1 -1.</_>
        <_>
          20 23 1 1 2.</_></rects>
      <tilted>0</tilted></_>
    <_>
      <rects>
        <_>
          20 0 4 3 -1.</_>
        <_>
          22 0 2 3 2.</_></rects>
      <tilted>0</tilted></_>
    <_>
      <rects>
        <_>
          20 0 4 24 -1.</_>
        <_>
          22 0 2 24 2.</_></rects>
      <tilted>0</tilted></_>
    <_>
      <rects>
        <_>
          20 4 2 8 -1.</_>
        <_>
          20 8 2 4 2.</_></rects>
      <tilted>0</tilted></_>
    <_>
      <rects>
        <_>
          20 12 4 5 -1.</_>
        <_>
          22 12 2 5 2.</_></rects>
      <tilted>0</tilted></_>
    <_>
      <rects>
        <_>
          20 17 4 3 -1.</_>
        <_>
          22 17 2 3 2.</_></rects>
      <tilted>0</tilted></_>
    <_>
      <rects>
        <_>
          20 18 4 2 -1.</_>
        <_>
          20 18 2 1 2.</_>
        <_>
          22 19 2 1 2.</_></rects>
      <tilted>0</tilted></_>
    <_>
      <rects>
        <_>
          22 3 2 6 -1.</_>
        <_>
          23 3 1 6 2.</_></rects>
      <tilted>0</tilted></_>
    <_>
      <rects>
        <_>
          23 3 1 21 -1.</_>
        <_>
          23 10 1 7 2.</_></rects>
      <tilted>0</tilted></_></features></cascade>
</opencv_storage>
