<?xml version="1.0"?>
<opencv_storage>
<stage5>
  <maxWeakCount>5</maxWeakCount>
  <stageThreshold>-1.0245242118835449e+00</stageThreshold>
  <weakClassifiers>
    <_>
      <internalNodes>
        0 -1 13188 -1.1156523600220680e-02</internalNodes>
      <leafValues>
        -9.0909093618392944e-01 7.1428573131561279e-01</leafValues></_>
    <_>
      <internalNodes>
        0 -1 9115 9.1891720890998840e-02</internalNodes>
      <leafValues>
        -6.7669898271560669e-01 7.9192906618118286e-01</leafValues></_>
    <_>
      <internalNodes>
        0 -1 104067 -1.7752259736880660e-04</internalNodes>
      <leafValues>
        -8.8671696186065674e-01 5.2177006006240845e-01</leafValues></_>
    <_>
      <internalNodes>
        0 -1 125983 6.7633092403411865e-02</internalNodes>
      <leafValues>
        -6.3954955339431763e-01 7.3883777856826782e-01</leafValues></_>
    <_>
      <internalNodes>
        0 -1 106776 -1.2366757728159428e-03</internalNodes>
      <leafValues>
        6.7904508113861084e-01 -7.4565619230270386e-01</leafValues></_></weakClassifiers></stage5>
</opencv_storage>
