<?xml version="1.0"?>
<opencv_storage>
<stage18>
  <maxWeakCount>5</maxWeakCount>
  <stageThreshold>-2.7033418416976929e-01</stageThreshold>
  <weakClassifiers>
    <_>
      <internalNodes>
        0 -1 13010 -1.3613562099635601e-02</internalNodes>
      <leafValues>
        -6.9999998807907104e-01 4.6666666865348816e-01</leafValues></_>
    <_>
      <internalNodes>
        0 -1 128013 -8.4150873590260744e-04</internalNodes>
      <leafValues>
        -8.1137520074844360e-01 3.3987832069396973e-01</leafValues></_>
    <_>
      <internalNodes>
        0 -1 155378 3.3941767178475857e-03</internalNodes>
      <leafValues>
        -6.7071276903152466e-01 5.1457852125167847e-01</leafValues></_>
    <_>
      <internalNodes>
        0 -1 89869 -7.2959270328283310e-03</internalNodes>
      <leafValues>
        4.0283429622650146e-01 -8.5695356130599976e-01</leafValues></_>
    <_>
      <internalNodes>
        0 -1 141911 -1.9851507386192679e-04</internalNodes>
      <leafValues>
        -7.9770869016647339e-01 4.5078721642494202e-01</leafValues></_></weakClassifiers></stage18>
</opencv_storage>
