<?xml version="1.0"?>
<opencv_storage>
<stage13>
  <maxWeakCount>5</maxWeakCount>
  <stageThreshold>-1.1625603437423706e+00</stageThreshold>
  <weakClassifiers>
    <_>
      <internalNodes>
        0 -1 82098 -2.6821583509445190e-02</internalNodes>
      <leafValues>
        6.1599999666213989e-01 -5.1999998092651367e-01</leafValues></_>
    <_>
      <internalNodes>
        0 -1 110445 4.3474808335304260e-03</internalNodes>
      <leafValues>
        -8.3573806285858154e-01 3.5394296050071716e-01</leafValues></_>
    <_>
      <internalNodes>
        0 -1 151597 4.4058357161702588e-05</internalNodes>
      <leafValues>
        3.1933069229125977e-01 -7.8377759456634521e-01</leafValues></_>
    <_>
      <internalNodes>
        0 -1 184599 -2.5583605747669935e-04</internalNodes>
      <leafValues>
        4.3035545945167542e-01 -5.2963674068450928e-01</leafValues></_>
    <_>
      <internalNodes>
        0 -1 184243 1.4800801873207092e-02</internalNodes>
      <leafValues>
        2.4491670727729797e-01 -7.8619724512100220e-01</leafValues></_></weakClassifiers></stage13>
</opencv_storage>
