<?xml version="1.0"?>
<opencv_storage>
<stage22>
  <maxWeakCount>6</maxWeakCount>
  <stageThreshold>-6.7321550846099854e-01</stageThreshold>
  <weakClassifiers>
    <_>
      <internalNodes>
        0 -1 162169 -4.0401797741651535e-02</internalNodes>
      <leafValues>
        -8.3870965242385864e-01 3.7681159377098083e-01</leafValues></_>
    <_>
      <internalNodes>
        0 -1 156337 -2.0713903941214085e-03</internalNodes>
      <leafValues>
        5.5444002151489258e-01 -5.8446282148361206e-01</leafValues></_>
    <_>
      <internalNodes>
        0 -1 135452 -1.3076647184789181e-02</internalNodes>
      <leafValues>
        4.7109609842300415e-01 -6.8218159675598145e-01</leafValues></_>
    <_>
      <internalNodes>
        0 -1 11033 -1.5909014109638520e-05</internalNodes>
      <leafValues>
        5.3303402662277222e-01 -6.6153860092163086e-01</leafValues></_>
    <_>
      <internalNodes>
        0 -1 158329 1.1715379077941179e-03</internalNodes>
      <leafValues>
        -5.9028869867324829e-01 5.4912799596786499e-01</leafValues></_>
    <_>
      <internalNodes>
        0 -1 95677 9.5486611826345325e-05</internalNodes>
      <leafValues>
        4.1711717844009399e-01 -8.6503088474273682e-01</leafValues></_></weakClassifiers></stage22>
</opencv_storage>
