<?xml version="1.0"?>
<opencv_storage>
<stage11>
  <maxWeakCount>5</maxWeakCount>
  <stageThreshold>-5.4599040746688843e-01</stageThreshold>
  <weakClassifiers>
    <_>
      <internalNodes>
        0 -1 155821 4.9136253073811531e-04</internalNodes>
      <leafValues>
        4.1547277569770813e-01 -9.4059407711029053e-01</leafValues></_>
    <_>
      <internalNodes>
        0 -1 11637 1.9200686365365982e-02</internalNodes>
      <leafValues>
        -7.8262972831726074e-01 3.5515418648719788e-01</leafValues></_>
    <_>
      <internalNodes>
        0 -1 21288 -2.0020499825477600e-01</internalNodes>
      <leafValues>
        3.1347107887268066e-01 -7.7899956703186035e-01</leafValues></_>
    <_>
      <internalNodes>
        0 -1 116213 -5.6728150229901075e-04</internalNodes>
      <leafValues>
        -7.3921000957489014e-01 3.4332305192947388e-01</leafValues></_>
    <_>
      <internalNodes>
        0 -1 68244 -8.2385574933141470e-04</internalNodes>
      <leafValues>
        5.2043926715850830e-01 -4.7657021880149841e-01</leafValues></_></weakClassifiers></stage11>
</opencv_storage>
